digraph Tree {
node [shape=box] ;
0 [label="X[11] <= 0.912\ngini = 0.665\nsamples = 1268\nvalue = [880, 666, 92, 389]"] ;
1 [label="X[15] <= 0.562\ngini = 0.17\nsamples = 141\nvalue = [19, 194, 1, 0]"] ;
0 -> 1 [labeldistance=2.5, labelangle=45, headlabel="True"] ;
2 [label="X[15] <= 0.5\ngini = 0.427\nsamples = 27\nvalue = [13, 29, 0, 0]"] ;
1 -> 2 ;
3 [label="X[3] <= 2.93\ngini = 0.111\nsamples = 11\nvalue = [1, 16, 0, 0]"] ;
2 -> 3 ;
4 [label="gini = 0.0\nsamples = 10\nvalue = [0, 16, 0, 0]"] ;
3 -> 4 ;
5 [label="gini = 0.0\nsamples = 1\nvalue = [1, 0, 0, 0]"] ;
3 -> 5 ;
6 [label="X[21] <= 1.375\ngini = 0.499\nsamples = 16\nvalue = [12, 13, 0, 0]"] ;
2 -> 6 ;
7 [label="gini = 0.0\nsamples = 6\nvalue = [0, 9, 0, 0]"] ;
6 -> 7 ;
8 [label="X[9] <= 3.089\ngini = 0.375\nsamples = 10\nvalue = [12, 4, 0, 0]"] ;
6 -> 8 ;
9 [label="X[14] <= 1.143\ngini = 0.245\nsamples = 8\nvalue = [12, 2, 0, 0]"] ;
8 -> 9 ;
10 [label="gini = 0.0\nsamples = 1\nvalue = [0, 1, 0, 0]"] ;
9 -> 10 ;
11 [label="X[20] <= 1.464\ngini = 0.142\nsamples = 7\nvalue = [12, 1, 0, 0]"] ;
9 -> 11 ;
12 [label="gini = 0.0\nsamples = 6\nvalue = [12, 0, 0, 0]"] ;
11 -> 12 ;
13 [label="gini = 0.0\nsamples = 1\nvalue = [0, 1, 0, 0]"] ;
11 -> 13 ;
14 [label="gini = 0.0\nsamples = 2\nvalue = [0, 2, 0, 0]"] ;
8 -> 14 ;
15 [label="X[11] <= 0.903\ngini = 0.078\nsamples = 114\nvalue = [6, 165, 1, 0]"] ;
1 -> 15 ;
16 [label="X[1] <= 2.732\ngini = 0.049\nsamples = 106\nvalue = [4, 156, 0, 0]"] ;
15 -> 16 ;
17 [label="X[22] <= 0.643\ngini = 0.016\nsamples = 80\nvalue = [1, 125, 0, 0]"] ;
16 -> 17 ;
18 [label="X[23] <= 0.981\ngini = 0.219\nsamples = 5\nvalue = [1, 7, 0, 0]"] ;
17 -> 18 ;
19 [label="gini = 0.0\nsamples = 4\nvalue = [0, 7, 0, 0]"] ;
18 -> 19 ;
20 [label="gini = 0.0\nsamples = 1\nvalue = [1, 0, 0, 0]"] ;
18 -> 20 ;
21 [label="gini = 0.0\nsamples = 75\nvalue = [0, 118, 0, 0]"] ;
17 -> 21 ;
22 [label="X[13] <= 1.183\ngini = 0.161\nsamples = 26\nvalue = [3, 31, 0, 0]"] ;
16 -> 22 ;
23 [label="X[1] <= 2.74\ngini = 0.114\nsamples = 25\nvalue = [2, 31, 0, 0]"] ;
22 -> 23 ;
24 [label="gini = 0.0\nsamples = 1\nvalue = [1, 0, 0, 0]"] ;
23 -> 24 ;
25 [label="X[8] <= 0.897\ngini = 0.061\nsamples = 24\nvalue = [1, 31, 0, 0]"] ;
23 -> 25 ;
26 [label="gini = 0.0\nsamples = 1\nvalue = [1, 0, 0, 0]"] ;
25 -> 26 ;
27 [label="gini = 0.0\nsamples = 23\nvalue = [0, 31, 0, 0]"] ;
25 -> 27 ;
28 [label="gini = 0.0\nsamples = 1\nvalue = [1, 0, 0, 0]"] ;
22 -> 28 ;
29 [label="X[15] <= 1.676\ngini = 0.403\nsamples = 8\nvalue = [2, 9, 1, 0]"] ;
15 -> 29 ;
30 [label="gini = 0.0\nsamples = 6\nvalue = [0, 9, 0, 0]"] ;
29 -> 30 ;
31 [label="X[2] <= 1.45\ngini = 0.444\nsamples = 2\nvalue = [2, 0, 1, 0]"] ;
29 -> 31 ;
32 [label="gini = 0.0\nsamples = 1\nvalue = [2, 0, 0, 0]"] ;
31 -> 32 ;
33 [label="gini = 0.0\nsamples = 1\nvalue = [0, 0, 1, 0]"] ;
31 -> 33 ;
34 [label="X[14] <= 0.904\ngini = 0.658\nsamples = 1127\nvalue = [861, 472, 91, 389]"] ;
0 -> 34 [labeldistance=2.5, labelangle=-45, headlabel="False"] ;
35 [label="X[10] <= 1.022\ngini = 0.126\nsamples = 265\nvalue = [20, 392, 0, 8]"] ;
34 -> 35 ;
36 [label="X[22] <= 1.238\ngini = 0.497\nsamples = 6\nvalue = [6, 7, 0, 0]"] ;
35 -> 36 ;
37 [label="gini = 0.0\nsamples = 3\nvalue = [6, 0, 0, 0]"] ;
36 -> 37 ;
38 [label="gini = 0.0\nsamples = 3\nvalue = [0, 7, 0, 0]"] ;
36 -> 38 ;
39 [label="X[11] <= 0.917\ngini = 0.104\nsamples = 259\nvalue = [14, 385, 0, 8]"] ;
35 -> 39 ;
40 [label="gini = 0.0\nsamples = 1\nvalue = [2, 0, 0, 0]"] ;
39 -> 40 ;
41 [label="X[21] <= 0.756\ngini = 0.095\nsamples = 258\nvalue = [12, 385, 0, 8]"] ;
39 -> 41 ;
42 [label="gini = 0.0\nsamples = 108\nvalue = [0, 177, 0, 0]"] ;
41 -> 42 ;
43 [label="X[20] <= 0.882\ngini = 0.164\nsamples = 150\nvalue = [12, 208, 0, 8]"] ;
41 -> 43 ;
44 [label="X[8] <= 3.149\ngini = 0.229\nsamples = 102\nvalue = [12, 138, 0, 8]"] ;
43 -> 44 ;
45 [label="X[6] <= 4.894\ngini = 0.046\nsamples = 59\nvalue = [1, 84, 0, 1]"] ;
44 -> 45 ;
46 [label="gini = 0.0\nsamples = 43\nvalue = [0, 65, 0, 0]"] ;
45 -> 46 ;
47 [label="X[15] <= 1.899\ngini = 0.177\nsamples = 16\nvalue = [1, 19, 0, 1]"] ;
45 -> 47 ;
48 [label="X[1] <= 3.574\ngini = 0.095\nsamples = 15\nvalue = [0, 19, 0, 1]"] ;
47 -> 48 ;
49 [label="gini = 0.0\nsamples = 12\nvalue = [0, 16, 0, 0]"] ;
48 -> 49 ;
50 [label="X[12] <= 1.723\ngini = 0.375\nsamples = 3\nvalue = [0, 3, 0, 1]"] ;
48 -> 50 ;
51 [label="gini = 0.0\nsamples = 1\nvalue = [0, 0, 0, 1]"] ;
50 -> 51 ;
52 [label="gini = 0.0\nsamples = 2\nvalue = [0, 3, 0, 0]"] ;
50 -> 52 ;
53 [label="gini = 0.0\nsamples = 1\nvalue = [1, 0, 0, 0]"] ;
47 -> 53 ;
54 [label="X[7] <= 2.837\ngini = 0.405\nsamples = 43\nvalue = [11, 54, 0, 7]"] ;
44 -> 54 ;
55 [label="X[1] <= 3.177\ngini = 0.32\nsamples = 4\nvalue = [0, 1, 0, 4]"] ;
54 -> 55 ;
56 [label="gini = 0.0\nsamples = 1\nvalue = [0, 1, 0, 0]"] ;
55 -> 56 ;
57 [label="gini = 0.0\nsamples = 3\nvalue = [0, 0, 0, 4]"] ;
55 -> 57 ;
58 [label="X[17] <= 0.792\ngini = 0.345\nsamples = 39\nvalue = [11, 53, 0, 3]"] ;
54 -> 58 ;
59 [label="X[23] <= 1.362\ngini = 0.269\nsamples = 34\nvalue = [6, 50, 0, 3]"] ;
58 -> 59 ;
60 [label="X[13] <= 4.421\ngini = 0.571\nsamples = 13\nvalue = [6, 12, 0, 3]"] ;
59 -> 60 ;
61 [label="X[18] <= 0.469\ngini = 0.643\nsamples = 10\nvalue = [6, 5, 0, 3]"] ;
60 -> 61 ;
62 [label="gini = 0.0\nsamples = 2\nvalue = [0, 0, 0, 3]"] ;
61 -> 62 ;
63 [label="X[21] <= 1.081\ngini = 0.496\nsamples = 8\nvalue = [6, 5, 0, 0]"] ;
61 -> 63 ;
64 [label="gini = 0.408\nsamples = 6\nvalue = [2, 5, 0, 0]"] ;
63 -> 64 ;
65 [label="gini = 0.0\nsamples = 2\nvalue = [4, 0, 0, 0]"] ;
63 -> 65 ;
66 [label="gini = 0.0\nsamples = 3\nvalue = [0, 7, 0, 0]"] ;
60 -> 66 ;
67 [label="gini = 0.0\nsamples = 21\nvalue = [0, 38, 0, 0]"] ;
59 -> 67 ;
68 [label="X[22] <= 3.046\ngini = 0.469\nsamples = 5\nvalue = [5, 3, 0, 0]"] ;
58 -> 68 ;
69 [label="gini = 0.0\nsamples = 2\nvalue = [5, 0, 0, 0]"] ;
68 -> 69 ;
70 [label="gini = 0.0\nsamples = 3\nvalue = [0, 3, 0, 0]"] ;
68 -> 70 ;
71 [label="gini = 0.0\nsamples = 48\nvalue = [0, 70, 0, 0]"] ;
43 -> 71 ;
72 [label="X[13] <= 1.424\ngini = 0.553\nsamples = 862\nvalue = [841, 80, 91, 381]"] ;
34 -> 72 ;
73 [label="X[23] <= 1.66\ngini = 0.361\nsamples = 319\nvalue = [406, 65, 29, 16]"] ;
72 -> 73 ;
74 [label="X[20] <= 0.444\ngini = 0.192\nsamples = 230\nvalue = [335, 23, 0, 16]"] ;
73 -> 74 ;
75 [label="gini = 0.0\nsamples = 4\nvalue = [0, 7, 0, 0]"] ;
74 -> 75 ;
76 [label="X[3] <= 5.007\ngini = 0.163\nsamples = 226\nvalue = [335, 16, 0, 16]"] ;
74 -> 76 ;
77 [label="X[17] <= 0.809\ngini = 0.131\nsamples = 224\nvalue = [335, 16, 0, 9]"] ;
76 -> 77 ;
78 [label="X[0] <= 1.885\ngini = 0.105\nsamples = 215\nvalue = [327, 10, 0, 9]"] ;
77 -> 78 ;
79 [label="X[17] <= 0.519\ngini = 0.086\nsamples = 190\nvalue = [301, 5, 0, 9]"] ;
78 -> 79 ;
80 [label="X[19] <= 0.499\ngini = 0.216\nsamples = 33\nvalue = [51, 1, 0, 6]"] ;
79 -> 80 ;
81 [label="X[3] <= 2.756\ngini = 0.355\nsamples = 16\nvalue = [20, 0, 0, 6]"] ;
80 -> 81 ;
82 [label="gini = 0.0\nsamples = 2\nvalue = [0, 0, 0, 2]"] ;
81 -> 82 ;
83 [label="X[22] <= 1.193\ngini = 0.278\nsamples = 14\nvalue = [20, 0, 0, 4]"] ;
81 -> 83 ;
84 [label="X[19] <= 0.468\ngini = 0.105\nsamples = 9\nvalue = [17, 0, 0, 1]"] ;
83 -> 84 ;
85 [label="gini = 0.32\nsamples = 3\nvalue = [4, 0, 0, 1]"] ;
84 -> 85 ;
86 [label="gini = 0.0\nsamples = 6\nvalue = [13, 0, 0, 0]"] ;
84 -> 86 ;
87 [label="X[16] <= 0.52\ngini = 0.5\nsamples = 5\nvalue = [3, 0, 0, 3]"] ;
83 -> 87 ;
88 [label="gini = 0.0\nsamples = 1\nvalue = [2, 0, 0, 0]"] ;
87 -> 88 ;
89 [label="gini = 0.375\nsamples = 4\nvalue = [1, 0, 0, 3]"] ;
87 -> 89 ;
90 [label="X[7] <= 4.58\ngini = 0.061\nsamples = 17\nvalue = [31, 1, 0, 0]"] ;
80 -> 90 ;
91 [label="gini = 0.0\nsamples = 13\nvalue = [26, 0, 0, 0]"] ;
90 -> 91 ;
92 [label="X[20] <= 0.572\ngini = 0.278\nsamples = 4\nvalue = [5, 1, 0, 0]"] ;
90 -> 92 ;
93 [label="gini = 0.0\nsamples = 1\nvalue = [0, 1, 0, 0]"] ;
92 -> 93 ;
94 [label="gini = 0.0\nsamples = 3\nvalue = [5, 0, 0, 0]"] ;
92 -> 94 ;
95 [label="X[12] <= 0.927\ngini = 0.053\nsamples = 157\nvalue = [250, 4, 0, 3]"] ;
79 -> 95 ;
96 [label="X[9] <= 3.499\ngini = 0.375\nsamples = 2\nvalue = [1, 3, 0, 0]"] ;
95 -> 96 ;
97 [label="gini = 0.0\nsamples = 1\nvalue = [0, 3, 0, 0]"] ;
96 -> 97 ;
98 [label="gini = 0.0\nsamples = 1\nvalue = [1, 0, 0, 0]"] ;
96 -> 98 ;
99 [label="X[9] <= 3.646\ngini = 0.031\nsamples = 155\nvalue = [249, 1, 0, 3]"] ;
95 -> 99 ;
100 [label="gini = 0.0\nsamples = 91\nvalue = [154, 0, 0, 0]"] ;
99 -> 100 ;
101 [label="X[7] <= 3.181\ngini = 0.078\nsamples = 64\nvalue = [95, 1, 0, 3]"] ;
99 -> 101 ;
102 [label="X[9] <= 3.667\ngini = 0.185\nsamples = 21\nvalue = [26, 0, 0, 3]"] ;
101 -> 102 ;
103 [label="gini = 0.0\nsamples = 2\nvalue = [0, 0, 0, 2]"] ;
102 -> 103 ;
104 [label="gini = 0.071\nsamples = 19\nvalue = [26, 0, 0, 1]"] ;
102 -> 104 ;
105 [label="X[13] <= 1.097\ngini = 0.028\nsamples = 43\nvalue = [69, 1, 0, 0]"] ;
101 -> 105 ;
106 [label="gini = 0.278\nsamples = 4\nvalue = [5, 1, 0, 0]"] ;
105 -> 106 ;
107 [label="gini = 0.0\nsamples = 39\nvalue = [64, 0, 0, 0]"] ;
105 -> 107 ;
108 [label="X[15] <= 0.509\ngini = 0.271\nsamples = 25\nvalue = [26, 5, 0, 0]"] ;
78 -> 108 ;
109 [label="gini = 0.0\nsamples = 2\nvalue = [0, 2, 0, 0]"] ;
108 -> 109 ;
110 [label="X[12] <= 0.962\ngini = 0.185\nsamples = 23\nvalue = [26, 3, 0, 0]"] ;
108 -> 110 ;
111 [label="gini = 0.0\nsamples = 1\nvalue = [0, 1, 0, 0]"] ;
110 -> 111 ;
112 [label="X[23] <= 1.558\ngini = 0.133\nsamples = 22\nvalue = [26, 2, 0, 0]"] ;
110 -> 112 ;
113 [label="gini = 0.0\nsamples = 12\nvalue = [15, 0, 0, 0]"] ;
112 -> 113 ;
114 [label="X[9] <= 3.113\ngini = 0.26\nsamples = 10\nvalue = [11, 2, 0, 0]"] ;
112 -> 114 ;
115 [label="gini = 0.0\nsamples = 7\nvalue = [10, 0, 0, 0]"] ;
114 -> 115 ;
116 [label="X[22] <= 1.443\ngini = 0.444\nsamples = 3\nvalue = [1, 2, 0, 0]"] ;
114 -> 116 ;
117 [label="gini = 0.0\nsamples = 1\nvalue = [1, 0, 0, 0]"] ;
116 -> 117 ;
118 [label="gini = 0.0\nsamples = 2\nvalue = [0, 2, 0, 0]"] ;
116 -> 118 ;
119 [label="X[6] <= 2.834\ngini = 0.49\nsamples = 9\nvalue = [8, 6, 0, 0]"] ;
77 -> 119 ;
120 [label="gini = 0.0\nsamples = 3\nvalue = [0, 4, 0, 0]"] ;
119 -> 120 ;
121 [label="X[11] <= 3.278\ngini = 0.32\nsamples = 6\nvalue = [8, 2, 0, 0]"] ;
119 -> 121 ;
122 [label="gini = 0.0\nsamples = 2\nvalue = [0, 2, 0, 0]"] ;
121 -> 122 ;
123 [label="gini = 0.0\nsamples = 4\nvalue = [8, 0, 0, 0]"] ;
121 -> 123 ;
124 [label="gini = 0.0\nsamples = 2\nvalue = [0, 0, 0, 7]"] ;
76 -> 124 ;
125 [label="X[18] <= 1.023\ngini = 0.621\nsamples = 89\nvalue = [71, 42, 29, 0]"] ;
73 -> 125 ;
126 [label="X[3] <= 2.018\ngini = 0.47\nsamples = 66\nvalue = [66, 40, 0, 0]"] ;
125 -> 126 ;
127 [label="gini = 0.0\nsamples = 11\nvalue = [16, 0, 0, 0]"] ;
126 -> 127 ;
128 [label="X[8] <= 1.603\ngini = 0.494\nsamples = 55\nvalue = [50, 40, 0, 0]"] ;
126 -> 128 ;
129 [label="X[22] <= 4.843\ngini = 0.147\nsamples = 16\nvalue = [23, 2, 0, 0]"] ;
128 -> 129 ;
130 [label="gini = 0.0\nsamples = 13\nvalue = [21, 0, 0, 0]"] ;
129 -> 130 ;
131 [label="X[18] <= 0.715\ngini = 0.5\nsamples = 3\nvalue = [2, 2, 0, 0]"] ;
129 -> 131 ;
132 [label="gini = 0.0\nsamples = 2\nvalue = [2, 0, 0, 0]"] ;
131 -> 132 ;
133 [label="gini = 0.0\nsamples = 1\nvalue = [0, 2, 0, 0]"] ;
131 -> 133 ;
134 [label="X[3] <= 3.575\ngini = 0.486\nsamples = 39\nvalue = [27, 38, 0, 0]"] ;
128 -> 134 ;
135 [label="gini = 0.0\nsamples = 10\nvalue = [0, 16, 0, 0]"] ;
134 -> 135 ;
136 [label="X[13] <= 0.959\ngini = 0.495\nsamples = 29\nvalue = [27, 22, 0, 0]"] ;
134 -> 136 ;
137 [label="X[11] <= 4.747\ngini = 0.1\nsamples = 10\nvalue = [1, 18, 0, 0]"] ;
136 -> 137 ;
138 [label="gini = 0.0\nsamples = 8\nvalue = [0, 17, 0, 0]"] ;
137 -> 138 ;
139 [label="X[7] <= 2.941\ngini = 0.5\nsamples = 2\nvalue = [1, 1, 0, 0]"] ;
137 -> 139 ;
140 [label="gini = 0.0\nsamples = 1\nvalue = [1, 0, 0, 0]"] ;
139 -> 140 ;
141 [label="gini = 0.0\nsamples = 1\nvalue = [0, 1, 0, 0]"] ;
139 -> 141 ;
142 [label="X[4] <= 4.496\ngini = 0.231\nsamples = 19\nvalue = [26, 4, 0, 0]"] ;
136 -> 142 ;
143 [label="gini = 0.0\nsamples = 2\nvalue = [0, 3, 0, 0]"] ;
142 -> 143 ;
144 [label="X[9] <= 3.235\ngini = 0.071\nsamples = 17\nvalue = [26, 1, 0, 0]"] ;
142 -> 144 ;
145 [label="gini = 0.0\nsamples = 16\nvalue = [26, 0, 0, 0]"] ;
144 -> 145 ;
146 [label="gini = 0.0\nsamples = 1\nvalue = [0, 1, 0, 0]"] ;
144 -> 146 ;
147 [label="X[22] <= 3.825\ngini = 0.329\nsamples = 23\nvalue = [5, 2, 29, 0]"] ;
125 -> 147 ;
148 [label="X[15] <= 1.044\ngini = 0.128\nsamples = 21\nvalue = [0, 2, 27, 0]"] ;
147 -> 148 ;
149 [label="gini = 0.0\nsamples = 2\nvalue = [0, 2, 0, 0]"] ;
148 -> 149 ;
150 [label="gini = 0.0\nsamples = 19\nvalue = [0, 0, 27, 0]"] ;
148 -> 150 ;
151 [label="X[18] <= 1.122\ngini = 0.408\nsamples = 2\nvalue = [5, 0, 2, 0]"] ;
147 -> 151 ;
152 [label="gini = 0.0\nsamples = 1\nvalue = [0, 0, 2, 0]"] ;
151 -> 152 ;
153 [label="gini = 0.0\nsamples = 1\nvalue = [5, 0, 0, 0]"] ;
151 -> 153 ;
154 [label="X[18] <= 0.505\ngini = 0.575\nsamples = 543\nvalue = [435, 15, 62, 365]"] ;
72 -> 154 ;
155 [label="X[12] <= 2.56\ngini = 0.099\nsamples = 189\nvalue = [15, 0, 0, 271]"] ;
154 -> 155 ;
156 [label="X[12] <= 2.293\ngini = 0.075\nsamples = 184\nvalue = [11, 0, 0, 270]"] ;
155 -> 156 ;
157 [label="X[10] <= 1.778\ngini = 0.058\nsamples = 174\nvalue = [8, 0, 0, 261]"] ;
156 -> 157 ;
158 [label="gini = 0.0\nsamples = 60\nvalue = [0, 0, 0, 91]"] ;
157 -> 158 ;
159 [label="X[1] <= 1.341\ngini = 0.086\nsamples = 114\nvalue = [8, 0, 0, 170]"] ;
157 -> 159 ;
160 [label="X[2] <= 2.449\ngini = 0.375\nsamples = 11\nvalue = [3, 0, 0, 9]"] ;
159 -> 160 ;
161 [label="X[19] <= 0.852\ngini = 0.48\nsamples = 4\nvalue = [3, 0, 0, 2]"] ;
160 -> 161 ;
162 [label="X[0] <= 1.118\ngini = 0.444\nsamples = 3\nvalue = [1, 0, 0, 2]"] ;
161 -> 162 ;
163 [label="gini = 0.0\nsamples = 2\nvalue = [0, 0, 0, 2]"] ;
162 -> 163 ;
164 [label="gini = 0.0\nsamples = 1\nvalue = [1, 0, 0, 0]"] ;
162 -> 164 ;
165 [label="gini = 0.0\nsamples = 1\nvalue = [2, 0, 0, 0]"] ;
161 -> 165 ;
166 [label="gini = 0.0\nsamples = 7\nvalue = [0, 0, 0, 7]"] ;
160 -> 166 ;
167 [label="X[6] <= 3.264\ngini = 0.058\nsamples = 103\nvalue = [5, 0, 0, 161]"] ;
159 -> 167 ;
168 [label="X[3] <= 4.613\ngini = 0.017\nsamples = 71\nvalue = [1, 0, 0, 114]"] ;
167 -> 168 ;
169 [label="gini = 0.0\nsamples = 64\nvalue = [0, 0, 0, 103]"] ;
168 -> 169 ;
170 [label="X[12] <= 1.455\ngini = 0.153\nsamples = 7\nvalue = [1, 0, 0, 11]"] ;
168 -> 170 ;
171 [label="gini = 0.0\nsamples = 1\nvalue = [1, 0, 0, 0]"] ;
170 -> 171 ;
172 [label="gini = 0.0\nsamples = 6\nvalue = [0, 0, 0, 11]"] ;
170 -> 172 ;
173 [label="X[10] <= 1.989\ngini = 0.145\nsamples = 32\nvalue = [4, 0, 0, 47]"] ;
167 -> 173 ;
174 [label="X[15] <= 0.481\ngini = 0.375\nsamples = 3\nvalue = [3, 0, 0, 1]"] ;
173 -> 174 ;
175 [label="gini = 0.0\nsamples = 1\nvalue = [0, 0, 0, 1]"] ;
174 -> 175 ;
176 [label="gini = 0.0\nsamples = 2\nvalue = [3, 0, 0, 0]"] ;
174 -> 176 ;
177 [label="X[1] <= 1.46\ngini = 0.042\nsamples = 29\nvalue = [1, 0, 0, 46]"] ;
173 -> 177 ;
178 [label="X[4] <= 1.508\ngini = 0.375\nsamples = 2\nvalue = [1, 0, 0, 3]"] ;
177 -> 178 ;
179 [label="gini = 0.0\nsamples = 1\nvalue = [0, 0, 0, 3]"] ;
178 -> 179 ;
180 [label="gini = 0.0\nsamples = 1\nvalue = [1, 0, 0, 0]"] ;
178 -> 180 ;
181 [label="gini = 0.0\nsamples = 27\nvalue = [0, 0, 0, 43]"] ;
177 -> 181 ;
182 [label="X[0] <= 1.457\ngini = 0.375\nsamples = 10\nvalue = [3, 0, 0, 9]"] ;
156 -> 182 ;
183 [label="gini = 0.0\nsamples = 1\nvalue = [3, 0, 0, 0]"] ;
182 -> 183 ;
184 [label="gini = 0.0\nsamples = 9\nvalue = [0, 0, 0, 9]"] ;
182 -> 184 ;
185 [label="X[7] <= 1.953\ngini = 0.32\nsamples = 5\nvalue = [4, 0, 0, 1]"] ;
155 -> 185 ;
186 [label="gini = 0.0\nsamples = 4\nvalue = [4, 0, 0, 0]"] ;
185 -> 186 ;
187 [label="gini = 0.0\nsamples = 1\nvalue = [0, 0, 0, 1]"] ;
185 -> 187 ;
188 [label="X[19] <= 1.431\ngini = 0.458\nsamples = 354\nvalue = [420, 15, 62, 94]"] ;
154 -> 188 ;
189 [label="X[16] <= 1.721\ngini = 0.358\nsamples = 302\nvalue = [386, 14, 2, 94]"] ;
188 -> 189 ;
190 [label="X[5] <= 2.248\ngini = 0.236\nsamples = 265\nvalue = [374, 14, 1, 42]"] ;
189 -> 190 ;
191 [label="X[14] <= 1.027\ngini = 0.074\nsamples = 115\nvalue = [176, 6, 0, 1]"] ;
190 -> 191 ;
192 [label="X[23] <= 0.565\ngini = 0.469\nsamples = 7\nvalue = [3, 5, 0, 0]"] ;
191 -> 192 ;
193 [label="gini = 0.0\nsamples = 1\nvalue = [2, 0, 0, 0]"] ;
192 -> 193 ;
194 [label="X[17] <= 0.806\ngini = 0.278\nsamples = 6\nvalue = [1, 5, 0, 0]"] ;
192 -> 194 ;
195 [label="gini = 0.0\nsamples = 4\nvalue = [0, 4, 0, 0]"] ;
194 -> 195 ;
196 [label="X[13] <= 1.706\ngini = 0.5\nsamples = 2\nvalue = [1, 1, 0, 0]"] ;
194 -> 196 ;
197 [label="gini = 0.0\nsamples = 1\nvalue = [1, 0, 0, 0]"] ;
196 -> 197 ;
198 [label="gini = 0.0\nsamples = 1\nvalue = [0, 1, 0, 0]"] ;
196 -> 198 ;
199 [label="X[9] <= 1.224\ngini = 0.023\nsamples = 108\nvalue = [173, 1, 0, 1]"] ;
191 -> 199 ;
200 [label="gini = 0.0\nsamples = 1\nvalue = [0, 1, 0, 0]"] ;
199 -> 200 ;
201 [label="X[22] <= 0.372\ngini = 0.011\nsamples = 107\nvalue = [173, 0, 0, 1]"] ;
199 -> 201 ;
202 [label="gini = 0.0\nsamples = 1\nvalue = [0, 0, 0, 1]"] ;
201 -> 202 ;
203 [label="gini = 0.0\nsamples = 106\nvalue = [173, 0, 0, 0]"] ;
201 -> 203 ;
204 [label="X[19] <= 0.449\ngini = 0.334\nsamples = 150\nvalue = [198, 8, 1, 41]"] ;
190 -> 204 ;
205 [label="X[8] <= 3.494\ngini = 0.391\nsamples = 17\nvalue = [8, 0, 0, 22]"] ;
204 -> 205 ;
206 [label="X[12] <= 2.816\ngini = 0.083\nsamples = 13\nvalue = [1, 0, 0, 22]"] ;
205 -> 206 ;
207 [label="gini = 0.0\nsamples = 7\nvalue = [0, 0, 0, 15]"] ;
206 -> 207 ;
208 [label="X[1] <= 3.207\ngini = 0.219\nsamples = 6\nvalue = [1, 0, 0, 7]"] ;
206 -> 208 ;
209 [label="gini = 0.0\nsamples = 1\nvalue = [1, 0, 0, 0]"] ;
208 -> 209 ;
210 [label="gini = 0.0\nsamples = 5\nvalue = [0, 0, 0, 7]"] ;
208 -> 210 ;
211 [label="gini = 0.0\nsamples = 4\nvalue = [7, 0, 0, 0]"] ;
205 -> 211 ;
212 [label="X[10] <= 2.668\ngini = 0.231\nsamples = 133\nvalue = [190, 8, 1, 19]"] ;
204 -> 212 ;
213 [label="X[17] <= 1.128\ngini = 0.179\nsamples = 101\nvalue = [150, 8, 1, 7]"] ;
212 -> 213 ;
214 [label="X[4] <= 2.622\ngini = 0.15\nsamples = 99\nvalue = [150, 7, 1, 5]"] ;
213 -> 214 ;
215 [label="X[3] <= 2.405\ngini = 0.459\nsamples = 7\nvalue = [9, 5, 0, 0]"] ;
214 -> 215 ;
216 [label="gini = 0.0\nsamples = 5\nvalue = [9, 0, 0, 0]"] ;
215 -> 216 ;
217 [label="gini = 0.0\nsamples = 2\nvalue = [0, 5, 0, 0]"] ;
215 -> 217 ;
218 [label="X[14] <= 1.523\ngini = 0.103\nsamples = 92\nvalue = [141, 2, 1, 5]"] ;
214 -> 218 ;
219 [label="X[21] <= 2.706\ngini = 0.471\nsamples = 9\nvalue = [12, 2, 1, 2]"] ;
218 -> 219 ;
220 [label="gini = 0.338\nsamples = 8\nvalue = [12, 2, 1, 0]"] ;
219 -> 220 ;
221 [label="gini = 0.0\nsamples = 1\nvalue = [0, 0, 0, 2]"] ;
219 -> 221 ;
222 [label="X[17] <= 0.548\ngini = 0.044\nsamples = 83\nvalue = [129, 0, 0, 3]"] ;
218 -> 222 ;
223 [label="gini = 0.18\nsamples = 15\nvalue = [18, 0, 0, 2]"] ;
222 -> 223 ;
224 [label="gini = 0.018\nsamples = 68\nvalue = [111, 0, 0, 1]"] ;
222 -> 224 ;
225 [label="X[6] <= 4.788\ngini = 0.444\nsamples = 2\nvalue = [0, 1, 0, 2]"] ;
213 -> 225 ;
226 [label="gini = 0.0\nsamples = 1\nvalue = [0, 1, 0, 0]"] ;
225 -> 226 ;
227 [label="gini = 0.0\nsamples = 1\nvalue = [0, 0, 0, 2]"] ;
225 -> 227 ;
228 [label="X[10] <= 2.77\ngini = 0.355\nsamples = 32\nvalue = [40, 0, 0, 12]"] ;
212 -> 228 ;
229 [label="X[0] <= 0.951\ngini = 0.459\nsamples = 8\nvalue = [5, 0, 0, 9]"] ;
228 -> 229 ;
230 [label="X[21] <= 0.762\ngini = 0.32\nsamples = 3\nvalue = [4, 0, 0, 1]"] ;
229 -> 230 ;
231 [label="gini = 0.0\nsamples = 1\nvalue = [2, 0, 0, 0]"] ;
230 -> 231 ;
232 [label="X[22] <= 0.894\ngini = 0.444\nsamples = 2\nvalue = [2, 0, 0, 1]"] ;
230 -> 232 ;
233 [label="gini = 0.0\nsamples = 1\nvalue = [0, 0, 0, 1]"] ;
232 -> 233 ;
234 [label="gini = 0.0\nsamples = 1\nvalue = [2, 0, 0, 0]"] ;
232 -> 234 ;
235 [label="X[23] <= 3.017\ngini = 0.198\nsamples = 5\nvalue = [1, 0, 0, 8]"] ;
229 -> 235 ;
236 [label="gini = 0.0\nsamples = 4\nvalue = [0, 0, 0, 8]"] ;
235 -> 236 ;
237 [label="gini = 0.0\nsamples = 1\nvalue = [1, 0, 0, 0]"] ;
235 -> 237 ;
238 [label="X[18] <= 0.802\ngini = 0.145\nsamples = 24\nvalue = [35, 0, 0, 3]"] ;
228 -> 238 ;
239 [label="gini = 0.0\nsamples = 18\nvalue = [31, 0, 0, 0]"] ;
238 -> 239 ;
240 [label="X[20] <= 0.749\ngini = 0.49\nsamples = 6\nvalue = [4, 0, 0, 3]"] ;
238 -> 240 ;
241 [label="gini = 0.0\nsamples = 2\nvalue = [0, 0, 0, 2]"] ;
240 -> 241 ;
242 [label="X[20] <= 0.81\ngini = 0.32\nsamples = 4\nvalue = [4, 0, 0, 1]"] ;
240 -> 242 ;
243 [label="gini = 0.0\nsamples = 3\nvalue = [4, 0, 0, 0]"] ;
242 -> 243 ;
244 [label="gini = 0.0\nsamples = 1\nvalue = [0, 0, 0, 1]"] ;
242 -> 244 ;
245 [label="X[0] <= 1.717\ngini = 0.326\nsamples = 37\nvalue = [12, 0, 1, 52]"] ;
189 -> 245 ;
246 [label="X[6] <= 3.538\ngini = 0.071\nsamples = 30\nvalue = [2, 0, 0, 52]"] ;
245 -> 246 ;
247 [label="gini = 0.0\nsamples = 18\nvalue = [0, 0, 0, 34]"] ;
246 -> 247 ;
248 [label="X[19] <= 0.648\ngini = 0.18\nsamples = 12\nvalue = [2, 0, 0, 18]"] ;
246 -> 248 ;
249 [label="X[14] <= 2.209\ngini = 0.346\nsamples = 7\nvalue = [2, 0, 0, 7]"] ;
248 -> 249 ;
250 [label="gini = 0.0\nsamples = 1\nvalue = [1, 0, 0, 0]"] ;
249 -> 250 ;
251 [label="X[18] <= 0.538\ngini = 0.219\nsamples = 6\nvalue = [1, 0, 0, 7]"] ;
249 -> 251 ;
252 [label="gini = 0.0\nsamples = 1\nvalue = [1, 0, 0, 0]"] ;
251 -> 252 ;
253 [label="gini = 0.0\nsamples = 5\nvalue = [0, 0, 0, 7]"] ;
251 -> 253 ;
254 [label="gini = 0.0\nsamples = 5\nvalue = [0, 0, 0, 11]"] ;
248 -> 254 ;
255 [label="X[15] <= 1.325\ngini = 0.165\nsamples = 7\nvalue = [10, 0, 1, 0]"] ;
245 -> 255 ;
256 [label="X[22] <= 2.217\ngini = 0.444\nsamples = 2\nvalue = [2, 0, 1, 0]"] ;
255 -> 256 ;
257 [label="gini = 0.0\nsamples = 1\nvalue = [0, 0, 1, 0]"] ;
256 -> 257 ;
258 [label="gini = 0.0\nsamples = 1\nvalue = [2, 0, 0, 0]"] ;
256 -> 258 ;
259 [label="gini = 0.0\nsamples = 5\nvalue = [8, 0, 0, 0]"] ;
255 -> 259 ;
260 [label="X[16] <= 0.827\ngini = 0.473\nsamples = 52\nvalue = [34, 1, 60, 0]"] ;
188 -> 260 ;
261 [label="gini = 0.0\nsamples = 18\nvalue = [34, 0, 0, 0]"] ;
260 -> 261 ;
262 [label="X[22] <= 2.499\ngini = 0.032\nsamples = 34\nvalue = [0, 1, 60, 0]"] ;
260 -> 262 ;
263 [label="gini = 0.0\nsamples = 33\nvalue = [0, 0, 60, 0]"] ;
262 -> 263 ;
264 [label="gini = 0.0\nsamples = 1\nvalue = [0, 1, 0, 0]"] ;
262 -> 264 ;
}