digraph Tree {
node [shape=box] ;
0 [label="X[18] <= 0.505\ngini = 0.681\nsamples = 1301\nvalue = [819, 689, 134, 385]"] ;
1 [label="X[22] <= 0.519\ngini = 0.512\nsamples = 314\nvalue = [46, 126, 0, 305]"] ;
0 -> 1 [labeldistance=2.5, labelangle=45, headlabel="True"] ;
2 [label="X[4] <= 2.953\ngini = 0.388\nsamples = 26\nvalue = [0, 28, 0, 10]"] ;
1 -> 2 ;
3 [label="gini = 0.0\nsamples = 14\nvalue = [0, 24, 0, 0]"] ;
2 -> 3 ;
4 [label="X[5] <= 2.932\ngini = 0.408\nsamples = 12\nvalue = [0, 4, 0, 10]"] ;
2 -> 4 ;
5 [label="X[11] <= 1.676\ngini = 0.5\nsamples = 7\nvalue = [0, 4, 0, 4]"] ;
4 -> 5 ;
6 [label="gini = 0.0\nsamples = 4\nvalue = [0, 4, 0, 0]"] ;
5 -> 6 ;
7 [label="gini = 0.0\nsamples = 3\nvalue = [0, 0, 0, 4]"] ;
5 -> 7 ;
8 [label="gini = 0.0\nsamples = 5\nvalue = [0, 0, 0, 6]"] ;
4 -> 8 ;
9 [label="X[23] <= 1.269\ngini = 0.488\nsamples = 288\nvalue = [46, 98, 0, 295]"] ;
1 -> 9 ;
10 [label="X[14] <= 0.891\ngini = 0.32\nsamples = 130\nvalue = [15, 24, 0, 170]"] ;
9 -> 10 ;
11 [label="X[17] <= 0.788\ngini = 0.198\nsamples = 15\nvalue = [0, 24, 0, 3]"] ;
10 -> 11 ;
12 [label="X[18] <= 0.497\ngini = 0.077\nsamples = 14\nvalue = [0, 24, 0, 1]"] ;
11 -> 12 ;
13 [label="gini = 0.0\nsamples = 12\nvalue = [0, 23, 0, 0]"] ;
12 -> 13 ;
14 [label="X[19] <= 0.546\ngini = 0.5\nsamples = 2\nvalue = [0, 1, 0, 1]"] ;
12 -> 14 ;
15 [label="gini = 0.0\nsamples = 1\nvalue = [0, 1, 0, 0]"] ;
14 -> 15 ;
16 [label="gini = 0.0\nsamples = 1\nvalue = [0, 0, 0, 1]"] ;
14 -> 16 ;
17 [label="gini = 0.0\nsamples = 1\nvalue = [0, 0, 0, 2]"] ;
11 -> 17 ;
18 [label="X[22] <= 0.995\ngini = 0.151\nsamples = 115\nvalue = [15, 0, 0, 167]"] ;
10 -> 18 ;
19 [label="X[18] <= 0.501\ngini = 0.283\nsamples = 56\nvalue = [15, 0, 0, 73]"] ;
18 -> 19 ;
20 [label="X[13] <= 1.082\ngini = 0.18\nsamples = 51\nvalue = [8, 0, 0, 72]"] ;
19 -> 20 ;
21 [label="gini = 0.0\nsamples = 1\nvalue = [2, 0, 0, 0]"] ;
20 -> 21 ;
22 [label="X[12] <= 1.819\ngini = 0.142\nsamples = 50\nvalue = [6, 0, 0, 72]"] ;
20 -> 22 ;
23 [label="X[23] <= 0.907\ngini = 0.121\nsamples = 49\nvalue = [5, 0, 0, 72]"] ;
22 -> 23 ;
24 [label="gini = 0.0\nsamples = 35\nvalue = [0, 0, 0, 55]"] ;
23 -> 24 ;
25 [label="X[11] <= 3.987\ngini = 0.351\nsamples = 14\nvalue = [5, 0, 0, 17]"] ;
23 -> 25 ;
26 [label="X[16] <= 0.752\ngini = 0.473\nsamples = 7\nvalue = [5, 0, 0, 8]"] ;
25 -> 26 ;
27 [label="X[1] <= 1.485\ngini = 0.198\nsamples = 5\nvalue = [1, 0, 0, 8]"] ;
26 -> 27 ;
28 [label="gini = 0.0\nsamples = 1\nvalue = [1, 0, 0, 0]"] ;
27 -> 28 ;
29 [label="gini = 0.0\nsamples = 4\nvalue = [0, 0, 0, 8]"] ;
27 -> 29 ;
30 [label="gini = 0.0\nsamples = 2\nvalue = [4, 0, 0, 0]"] ;
26 -> 30 ;
31 [label="gini = 0.0\nsamples = 7\nvalue = [0, 0, 0, 9]"] ;
25 -> 31 ;
32 [label="gini = 0.0\nsamples = 1\nvalue = [1, 0, 0, 0]"] ;
22 -> 32 ;
33 [label="X[4] <= 2.009\ngini = 0.219\nsamples = 5\nvalue = [7, 0, 0, 1]"] ;
19 -> 33 ;
34 [label="gini = 0.0\nsamples = 1\nvalue = [0, 0, 0, 1]"] ;
33 -> 34 ;
35 [label="gini = 0.0\nsamples = 4\nvalue = [7, 0, 0, 0]"] ;
33 -> 35 ;
36 [label="gini = 0.0\nsamples = 59\nvalue = [0, 0, 0, 94]"] ;
18 -> 36 ;
37 [label="X[12] <= 1.061\ngini = 0.583\nsamples = 158\nvalue = [31, 74, 0, 125]"] ;
9 -> 37 ;
38 [label="X[0] <= 1.423\ngini = 0.105\nsamples = 27\nvalue = [2, 34, 0, 0]"] ;
37 -> 38 ;
39 [label="X[0] <= 1.406\ngini = 0.057\nsamples = 25\nvalue = [1, 33, 0, 0]"] ;
38 -> 39 ;
40 [label="gini = 0.0\nsamples = 21\nvalue = [0, 28, 0, 0]"] ;
39 -> 40 ;
41 [label="X[3] <= 2.642\ngini = 0.278\nsamples = 4\nvalue = [1, 5, 0, 0]"] ;
39 -> 41 ;
42 [label="gini = 0.0\nsamples = 3\nvalue = [0, 5, 0, 0]"] ;
41 -> 42 ;
43 [label="gini = 0.0\nsamples = 1\nvalue = [1, 0, 0, 0]"] ;
41 -> 43 ;
44 [label="X[0] <= 1.433\ngini = 0.5\nsamples = 2\nvalue = [1, 1, 0, 0]"] ;
38 -> 44 ;
45 [label="gini = 0.0\nsamples = 1\nvalue = [1, 0, 0, 0]"] ;
44 -> 45 ;
46 [label="gini = 0.0\nsamples = 1\nvalue = [0, 1, 0, 0]"] ;
44 -> 46 ;
47 [label="X[14] <= 0.989\ngini = 0.52\nsamples = 131\nvalue = [29, 40, 0, 125]"] ;
37 -> 47 ;
48 [label="X[4] <= 2.926\ngini = 0.24\nsamples = 27\nvalue = [1, 32, 0, 4]"] ;
47 -> 48 ;
49 [label="X[13] <= 1.533\ngini = 0.41\nsamples = 16\nvalue = [1, 14, 0, 4]"] ;
48 -> 49 ;
50 [label="X[12] <= 1.495\ngini = 0.142\nsamples = 11\nvalue = [1, 12, 0, 0]"] ;
49 -> 50 ;
51 [label="gini = 0.0\nsamples = 1\nvalue = [1, 0, 0, 0]"] ;
50 -> 51 ;
52 [label="gini = 0.0\nsamples = 10\nvalue = [0, 12, 0, 0]"] ;
50 -> 52 ;
53 [label="X[4] <= 1.929\ngini = 0.444\nsamples = 5\nvalue = [0, 2, 0, 4]"] ;
49 -> 53 ;
54 [label="gini = 0.0\nsamples = 2\nvalue = [0, 2, 0, 0]"] ;
53 -> 54 ;
55 [label="gini = 0.0\nsamples = 3\nvalue = [0, 0, 0, 4]"] ;
53 -> 55 ;
56 [label="gini = 0.0\nsamples = 11\nvalue = [0, 18, 0, 0]"] ;
48 -> 56 ;
57 [label="X[5] <= 3.084\ngini = 0.372\nsamples = 104\nvalue = [28, 8, 0, 121]"] ;
47 -> 57 ;
58 [label="X[13] <= 1.41\ngini = 0.161\nsamples = 67\nvalue = [9, 0, 0, 93]"] ;
57 -> 58 ;
59 [label="X[18] <= 0.484\ngini = 0.444\nsamples = 4\nvalue = [4, 0, 0, 2]"] ;
58 -> 59 ;
60 [label="gini = 0.0\nsamples = 2\nvalue = [0, 0, 0, 2]"] ;
59 -> 60 ;
61 [label="gini = 0.0\nsamples = 2\nvalue = [4, 0, 0, 0]"] ;
59 -> 61 ;
62 [label="X[6] <= 1.926\ngini = 0.099\nsamples = 63\nvalue = [5, 0, 0, 91]"] ;
58 -> 62 ;
63 [label="X[13] <= 3.903\ngini = 0.397\nsamples = 8\nvalue = [3, 0, 0, 8]"] ;
62 -> 63 ;
64 [label="gini = 0.0\nsamples = 5\nvalue = [0, 0, 0, 8]"] ;
63 -> 64 ;
65 [label="gini = 0.0\nsamples = 3\nvalue = [3, 0, 0, 0]"] ;
63 -> 65 ;
66 [label="X[2] <= 2.152\ngini = 0.046\nsamples = 55\nvalue = [2, 0, 0, 83]"] ;
62 -> 66 ;
67 [label="gini = 0.0\nsamples = 46\nvalue = [0, 0, 0, 70]"] ;
66 -> 67 ;
68 [label="X[5] <= 1.889\ngini = 0.231\nsamples = 9\nvalue = [2, 0, 0, 13]"] ;
66 -> 68 ;
69 [label="X[13] <= 2.762\ngini = 0.444\nsamples = 3\nvalue = [2, 0, 0, 1]"] ;
68 -> 69 ;
70 [label="gini = 0.0\nsamples = 1\nvalue = [0, 0, 0, 1]"] ;
69 -> 70 ;
71 [label="gini = 0.0\nsamples = 2\nvalue = [2, 0, 0, 0]"] ;
69 -> 71 ;
72 [label="gini = 0.0\nsamples = 6\nvalue = [0, 0, 0, 12]"] ;
68 -> 72 ;
73 [label="X[7] <= 1.817\ngini = 0.6\nsamples = 37\nvalue = [19, 8, 0, 28]"] ;
57 -> 73 ;
74 [label="X[17] <= 0.525\ngini = 0.142\nsamples = 9\nvalue = [12, 0, 0, 1]"] ;
73 -> 74 ;
75 [label="gini = 0.0\nsamples = 8\nvalue = [12, 0, 0, 0]"] ;
74 -> 75 ;
76 [label="gini = 0.0\nsamples = 1\nvalue = [0, 0, 0, 1]"] ;
74 -> 76 ;
77 [label="X[8] <= 4.52\ngini = 0.523\nsamples = 28\nvalue = [7, 8, 0, 27]"] ;
73 -> 77 ;
78 [label="X[0] <= 1.346\ngini = 0.142\nsamples = 19\nvalue = [2, 0, 0, 24]"] ;
77 -> 78 ;
79 [label="X[13] <= 1.422\ngini = 0.346\nsamples = 7\nvalue = [2, 0, 0, 7]"] ;
78 -> 79 ;
80 [label="gini = 0.0\nsamples = 1\nvalue = [1, 0, 0, 0]"] ;
79 -> 80 ;
81 [label="X[11] <= 1.476\ngini = 0.219\nsamples = 6\nvalue = [1, 0, 0, 7]"] ;
79 -> 81 ;
82 [label="X[15] <= 1.479\ngini = 0.444\nsamples = 2\nvalue = [1, 0, 0, 2]"] ;
81 -> 82 ;
83 [label="gini = 0.0\nsamples = 1\nvalue = [0, 0, 0, 2]"] ;
82 -> 83 ;
84 [label="gini = 0.0\nsamples = 1\nvalue = [1, 0, 0, 0]"] ;
82 -> 84 ;
85 [label="gini = 0.0\nsamples = 4\nvalue = [0, 0, 0, 5]"] ;
81 -> 85 ;
86 [label="gini = 0.0\nsamples = 12\nvalue = [0, 0, 0, 17]"] ;
78 -> 86 ;
87 [label="X[22] <= 1.366\ngini = 0.617\nsamples = 9\nvalue = [5, 8, 0, 3]"] ;
77 -> 87 ;
88 [label="X[11] <= 1.623\ngini = 0.645\nsamples = 6\nvalue = [5, 3, 0, 3]"] ;
87 -> 88 ;
89 [label="X[5] <= 4.11\ngini = 0.5\nsamples = 3\nvalue = [0, 3, 0, 3]"] ;
88 -> 89 ;
90 [label="gini = 0.0\nsamples = 1\nvalue = [0, 3, 0, 0]"] ;
89 -> 90 ;
91 [label="gini = 0.0\nsamples = 2\nvalue = [0, 0, 0, 3]"] ;
89 -> 91 ;
92 [label="gini = 0.0\nsamples = 3\nvalue = [5, 0, 0, 0]"] ;
88 -> 92 ;
93 [label="gini = 0.0\nsamples = 3\nvalue = [0, 5, 0, 0]"] ;
87 -> 93 ;
94 [label="X[19] <= 1.257\ngini = 0.609\nsamples = 987\nvalue = [773, 563, 134, 80]"] ;
0 -> 94 [labeldistance=2.5, labelangle=-45, headlabel="False"] ;
95 [label="X[14] <= 0.896\ngini = 0.559\nsamples = 800\nvalue = [656, 490, 13, 80]"] ;
94 -> 95 ;
96 [label="X[0] <= 1.236\ngini = 0.033\nsamples = 231\nvalue = [5, 352, 0, 1]"] ;
95 -> 96 ;
97 [label="X[18] <= 0.751\ngini = 0.06\nsamples = 123\nvalue = [5, 189, 0, 1]"] ;
96 -> 97 ;
98 [label="X[22] <= 4.881\ngini = 0.18\nsamples = 40\nvalue = [5, 55, 0, 1]"] ;
97 -> 98 ;
99 [label="X[19] <= 0.402\ngini = 0.099\nsamples = 38\nvalue = [2, 55, 0, 1]"] ;
98 -> 99 ;
100 [label="gini = 0.0\nsamples = 1\nvalue = [1, 0, 0, 0]"] ;
99 -> 100 ;
101 [label="X[14] <= 0.891\ngini = 0.068\nsamples = 37\nvalue = [1, 55, 0, 1]"] ;
99 -> 101 ;
102 [label="X[11] <= 2.475\ngini = 0.035\nsamples = 36\nvalue = [0, 55, 0, 1]"] ;
101 -> 102 ;
103 [label="gini = 0.0\nsamples = 28\nvalue = [0, 48, 0, 0]"] ;
102 -> 103 ;
104 [label="X[5] <= 3.838\ngini = 0.219\nsamples = 8\nvalue = [0, 7, 0, 1]"] ;
102 -> 104 ;
105 [label="gini = 0.0\nsamples = 6\nvalue = [0, 6, 0, 0]"] ;
104 -> 105 ;
106 [label="X[23] <= 0.861\ngini = 0.5\nsamples = 2\nvalue = [0, 1, 0, 1]"] ;
104 -> 106 ;
107 [label="gini = 0.0\nsamples = 1\nvalue = [0, 1, 0, 0]"] ;
106 -> 107 ;
108 [label="gini = 0.0\nsamples = 1\nvalue = [0, 0, 0, 1]"] ;
106 -> 108 ;
109 [label="gini = 0.0\nsamples = 1\nvalue = [1, 0, 0, 0]"] ;
101 -> 109 ;
110 [label="gini = 0.0\nsamples = 2\nvalue = [3, 0, 0, 0]"] ;
98 -> 110 ;
111 [label="gini = 0.0\nsamples = 83\nvalue = [0, 134, 0, 0]"] ;
97 -> 111 ;
112 [label="gini = 0.0\nsamples = 108\nvalue = [0, 163, 0, 0]"] ;
96 -> 112 ;
113 [label="X[20] <= 2.446\ngini = 0.421\nsamples = 569\nvalue = [651, 138, 13, 79]"] ;
95 -> 113 ;
114 [label="X[16] <= 2.681\ngini = 0.395\nsamples = 553\nvalue = [649, 112, 13, 79]"] ;
113 -> 114 ;
115 [label="X[14] <= 1.104\ngini = 0.344\nsamples = 519\nvalue = [641, 109, 11, 44]"] ;
114 -> 115 ;
116 [label="X[11] <= 0.989\ngini = 0.546\nsamples = 128\nvalue = [102, 77, 6, 5]"] ;
115 -> 116 ;
117 [label="X[23] <= 1.83\ngini = 0.278\nsamples = 27\nvalue = [6, 30, 0, 0]"] ;
116 -> 117 ;
118 [label="X[0] <= 0.985\ngini = 0.137\nsamples = 19\nvalue = [2, 25, 0, 0]"] ;
117 -> 118 ;
119 [label="gini = 0.0\nsamples = 2\nvalue = [2, 0, 0, 0]"] ;
118 -> 119 ;
120 [label="gini = 0.0\nsamples = 17\nvalue = [0, 25, 0, 0]"] ;
118 -> 120 ;
121 [label="X[0] <= 2.262\ngini = 0.494\nsamples = 8\nvalue = [4, 5, 0, 0]"] ;
117 -> 121 ;
122 [label="gini = 0.0\nsamples = 3\nvalue = [0, 4, 0, 0]"] ;
121 -> 122 ;
123 [label="X[9] <= 2.144\ngini = 0.32\nsamples = 5\nvalue = [4, 1, 0, 0]"] ;
121 -> 123 ;
124 [label="gini = 0.0\nsamples = 3\nvalue = [3, 0, 0, 0]"] ;
123 -> 124 ;
125 [label="X[20] <= 0.648\ngini = 0.5\nsamples = 2\nvalue = [1, 1, 0, 0]"] ;
123 -> 125 ;
126 [label="gini = 0.0\nsamples = 1\nvalue = [0, 1, 0, 0]"] ;
125 -> 126 ;
127 [label="gini = 0.0\nsamples = 1\nvalue = [1, 0, 0, 0]"] ;
125 -> 127 ;
128 [label="X[11] <= 3.373\ngini = 0.516\nsamples = 101\nvalue = [96, 47, 6, 5]"] ;
116 -> 128 ;
129 [label="X[22] <= 1.253\ngini = 0.417\nsamples = 77\nvalue = [84, 25, 1, 5]"] ;
128 -> 129 ;
130 [label="X[8] <= 1.625\ngini = 0.341\nsamples = 52\nvalue = [63, 11, 0, 5]"] ;
129 -> 130 ;
131 [label="gini = 0.0\nsamples = 3\nvalue = [0, 5, 0, 0]"] ;
130 -> 131 ;
132 [label="X[3] <= 1.362\ngini = 0.264\nsamples = 49\nvalue = [63, 6, 0, 5]"] ;
130 -> 132 ;
133 [label="X[7] <= 1.388\ngini = 0.48\nsamples = 4\nvalue = [2, 3, 0, 0]"] ;
132 -> 133 ;
134 [label="gini = 0.0\nsamples = 2\nvalue = [2, 0, 0, 0]"] ;
133 -> 134 ;
135 [label="gini = 0.0\nsamples = 2\nvalue = [0, 3, 0, 0]"] ;
133 -> 135 ;
136 [label="X[4] <= 2.66\ngini = 0.211\nsamples = 45\nvalue = [61, 3, 0, 5]"] ;
132 -> 136 ;
137 [label="gini = 0.0\nsamples = 17\nvalue = [28, 0, 0, 0]"] ;
136 -> 137 ;
138 [label="X[19] <= 0.876\ngini = 0.332\nsamples = 28\nvalue = [33, 3, 0, 5]"] ;
136 -> 138 ;
139 [label="gini = 0.197\nsamples = 25\nvalue = [33, 1, 0, 3]"] ;
138 -> 139 ;
140 [label="gini = 0.5\nsamples = 3\nvalue = [0, 2, 0, 2]"] ;
138 -> 140 ;
141 [label="X[8] <= 3.018\ngini = 0.508\nsamples = 25\nvalue = [21, 14, 1, 0]"] ;
129 -> 141 ;
142 [label="X[8] <= 1.278\ngini = 0.124\nsamples = 12\nvalue = [14, 0, 1, 0]"] ;
141 -> 142 ;
143 [label="gini = 0.0\nsamples = 1\nvalue = [0, 0, 1, 0]"] ;
142 -> 143 ;
144 [label="gini = 0.0\nsamples = 11\nvalue = [14, 0, 0, 0]"] ;
142 -> 144 ;
145 [label="X[7] <= 3.021\ngini = 0.444\nsamples = 13\nvalue = [7, 14, 0, 0]"] ;
141 -> 145 ;
146 [label="gini = 0.0\nsamples = 5\nvalue = [0, 10, 0, 0]"] ;
145 -> 146 ;
147 [label="X[6] <= 3.195\ngini = 0.463\nsamples = 8\nvalue = [7, 4, 0, 0]"] ;
145 -> 147 ;
148 [label="gini = 0.0\nsamples = 2\nvalue = [0, 2, 0, 0]"] ;
147 -> 148 ;
149 [label="X[19] <= 0.655\ngini = 0.346\nsamples = 6\nvalue = [7, 2, 0, 0]"] ;
147 -> 149 ;
150 [label="gini = 0.0\nsamples = 4\nvalue = [7, 0, 0, 0]"] ;
149 -> 150 ;
151 [label="gini = 0.0\nsamples = 2\nvalue = [0, 2, 0, 0]"] ;
149 -> 151 ;
152 [label="X[11] <= 3.865\ngini = 0.571\nsamples = 24\nvalue = [12, 22, 5, 0]"] ;
128 -> 152 ;
153 [label="X[3] <= 2.388\ngini = 0.62\nsamples = 5\nvalue = [3, 2, 5, 0]"] ;
152 -> 153 ;
154 [label="X[18] <= 1.076\ngini = 0.278\nsamples = 2\nvalue = [1, 0, 5, 0]"] ;
153 -> 154 ;
155 [label="gini = 0.0\nsamples = 1\nvalue = [1, 0, 0, 0]"] ;
154 -> 155 ;
156 [label="gini = 0.0\nsamples = 1\nvalue = [0, 0, 5, 0]"] ;
154 -> 156 ;
157 [label="X[7] <= 2.751\ngini = 0.5\nsamples = 3\nvalue = [2, 2, 0, 0]"] ;
153 -> 157 ;
158 [label="gini = 0.0\nsamples = 2\nvalue = [0, 2, 0, 0]"] ;
157 -> 158 ;
159 [label="gini = 0.0\nsamples = 1\nvalue = [2, 0, 0, 0]"] ;
157 -> 159 ;
160 [label="X[16] <= 0.918\ngini = 0.428\nsamples = 19\nvalue = [9, 20, 0, 0]"] ;
152 -> 160 ;
161 [label="X[14] <= 1.012\ngini = 0.117\nsamples = 12\nvalue = [1, 15, 0, 0]"] ;
160 -> 161 ;
162 [label="gini = 0.0\nsamples = 11\nvalue = [0, 15, 0, 0]"] ;
161 -> 162 ;
163 [label="gini = 0.0\nsamples = 1\nvalue = [1, 0, 0, 0]"] ;
161 -> 163 ;
164 [label="X[20] <= 0.855\ngini = 0.473\nsamples = 7\nvalue = [8, 5, 0, 0]"] ;
160 -> 164 ;
165 [label="gini = 0.0\nsamples = 4\nvalue = [8, 0, 0, 0]"] ;
164 -> 165 ;
166 [label="gini = 0.0\nsamples = 3\nvalue = [0, 5, 0, 0]"] ;
164 -> 166 ;
167 [label="X[15] <= 0.546\ngini = 0.225\nsamples = 391\nvalue = [539, 32, 5, 39]"] ;
115 -> 167 ;
168 [label="X[0] <= 1.368\ngini = 0.542\nsamples = 24\nvalue = [19, 14, 0, 2]"] ;
167 -> 168 ;
169 [label="X[3] <= 3.642\ngini = 0.278\nsamples = 9\nvalue = [10, 0, 0, 2]"] ;
168 -> 169 ;
170 [label="gini = 0.0\nsamples = 8\nvalue = [10, 0, 0, 0]"] ;
169 -> 170 ;
171 [label="gini = 0.0\nsamples = 1\nvalue = [0, 0, 0, 2]"] ;
169 -> 171 ;
172 [label="X[11] <= 1.886\ngini = 0.476\nsamples = 15\nvalue = [9, 14, 0, 0]"] ;
168 -> 172 ;
173 [label="X[22] <= 1.359\ngini = 0.346\nsamples = 12\nvalue = [4, 14, 0, 0]"] ;
172 -> 173 ;
174 [label="X[22] <= 1.352\ngini = 0.219\nsamples = 10\nvalue = [2, 14, 0, 0]"] ;
173 -> 174 ;
175 [label="X[20] <= 1.045\ngini = 0.408\nsamples = 6\nvalue = [2, 5, 0, 0]"] ;
174 -> 175 ;
176 [label="gini = 0.0\nsamples = 4\nvalue = [0, 5, 0, 0]"] ;
175 -> 176 ;
177 [label="gini = 0.0\nsamples = 2\nvalue = [2, 0, 0, 0]"] ;
175 -> 177 ;
178 [label="gini = 0.0\nsamples = 4\nvalue = [0, 9, 0, 0]"] ;
174 -> 178 ;
179 [label="gini = 0.0\nsamples = 2\nvalue = [2, 0, 0, 0]"] ;
173 -> 179 ;
180 [label="gini = 0.0\nsamples = 3\nvalue = [5, 0, 0, 0]"] ;
172 -> 180 ;
181 [label="X[10] <= 0.899\ngini = 0.191\nsamples = 367\nvalue = [520, 18, 5, 37]"] ;
167 -> 181 ;
182 [label="X[0] <= 1.383\ngini = 0.375\nsamples = 4\nvalue = [3, 9, 0, 0]"] ;
181 -> 182 ;
183 [label="gini = 0.0\nsamples = 3\nvalue = [0, 9, 0, 0]"] ;
182 -> 183 ;
184 [label="gini = 0.0\nsamples = 1\nvalue = [3, 0, 0, 0]"] ;
182 -> 184 ;
185 [label="X[12] <= 0.914\ngini = 0.167\nsamples = 363\nvalue = [517, 9, 5, 37]"] ;
181 -> 185 ;
186 [label="gini = 0.0\nsamples = 4\nvalue = [0, 5, 0, 0]"] ;
185 -> 186 ;
187 [label="X[8] <= 4.422\ngini = 0.152\nsamples = 359\nvalue = [517, 4, 5, 37]"] ;
185 -> 187 ;
188 [label="X[19] <= 0.44\ngini = 0.213\nsamples = 242\nvalue = [337, 4, 5, 36]"] ;
187 -> 188 ;
189 [label="X[12] <= 2.818\ngini = 0.444\nsamples = 14\nvalue = [8, 0, 0, 16]"] ;
188 -> 189 ;
190 [label="gini = 0.0\nsamples = 6\nvalue = [0, 0, 0, 13]"] ;
189 -> 190 ;
191 [label="X[23] <= 0.387\ngini = 0.397\nsamples = 8\nvalue = [8, 0, 0, 3]"] ;
189 -> 191 ;
192 [label="gini = 0.5\nsamples = 3\nvalue = [2, 0, 0, 2]"] ;
191 -> 192 ;
193 [label="gini = 0.245\nsamples = 5\nvalue = [6, 0, 0, 1]"] ;
191 -> 193 ;
194 [label="X[6] <= 4.609\ngini = 0.152\nsamples = 228\nvalue = [329, 4, 5, 20]"] ;
188 -> 194 ;
195 [label="X[17] <= 2.042\ngini = 0.102\nsamples = 165\nvalue = [250, 4, 5, 5]"] ;
194 -> 195 ;
196 [label="gini = 0.073\nsamples = 151\nvalue = [232, 4, 0, 5]"] ;
195 -> 196 ;
197 [label="gini = 0.34\nsamples = 14\nvalue = [18, 0, 5, 0]"] ;
195 -> 197 ;
198 [label="X[11] <= 2.683\ngini = 0.268\nsamples = 63\nvalue = [79, 0, 0, 15]"] ;
194 -> 198 ;
199 [label="gini = 0.153\nsamples = 51\nvalue = [66, 0, 0, 6]"] ;
198 -> 199 ;
200 [label="gini = 0.483\nsamples = 12\nvalue = [13, 0, 0, 9]"] ;
198 -> 200 ;
201 [label="X[17] <= 0.759\ngini = 0.011\nsamples = 117\nvalue = [180, 0, 0, 1]"] ;
187 -> 201 ;
202 [label="gini = 0.0\nsamples = 105\nvalue = [161, 0, 0, 0]"] ;
201 -> 202 ;
203 [label="X[0] <= 1.275\ngini = 0.095\nsamples = 12\nvalue = [19, 0, 0, 1]"] ;
201 -> 203 ;
204 [label="gini = 0.0\nsamples = 10\nvalue = [18, 0, 0, 0]"] ;
203 -> 204 ;
205 [label="X[10] <= 1.903\ngini = 0.5\nsamples = 2\nvalue = [1, 0, 0, 1]"] ;
203 -> 205 ;
206 [label="gini = 0.0\nsamples = 1\nvalue = [1, 0, 0, 0]"] ;
205 -> 206 ;
207 [label="gini = 0.0\nsamples = 1\nvalue = [0, 0, 0, 1]"] ;
205 -> 207 ;
208 [label="X[1] <= 1.765\ngini = 0.435\nsamples = 34\nvalue = [8, 3, 2, 35]"] ;
114 -> 208 ;
209 [label="X[12] <= 1.489\ngini = 0.231\nsamples = 26\nvalue = [2, 3, 0, 34]"] ;
208 -> 209 ;
210 [label="gini = 0.0\nsamples = 3\nvalue = [0, 3, 0, 0]"] ;
209 -> 210 ;
211 [label="X[9] <= 2.549\ngini = 0.105\nsamples = 23\nvalue = [2, 0, 0, 34]"] ;
209 -> 211 ;
212 [label="gini = 0.0\nsamples = 18\nvalue = [0, 0, 0, 28]"] ;
211 -> 212 ;
213 [label="X[13] <= 2.647\ngini = 0.375\nsamples = 5\nvalue = [2, 0, 0, 6]"] ;
211 -> 213 ;
214 [label="gini = 0.0\nsamples = 3\nvalue = [0, 0, 0, 4]"] ;
213 -> 214 ;
215 [label="X[17] <= 2.75\ngini = 0.5\nsamples = 2\nvalue = [2, 0, 0, 2]"] ;
213 -> 215 ;
216 [label="gini = 0.0\nsamples = 1\nvalue = [0, 0, 0, 2]"] ;
215 -> 216 ;
217 [label="gini = 0.0\nsamples = 1\nvalue = [2, 0, 0, 0]"] ;
215 -> 217 ;
218 [label="X[9] <= 1.78\ngini = 0.494\nsamples = 8\nvalue = [6, 0, 2, 1]"] ;
208 -> 218 ;
219 [label="gini = 0.0\nsamples = 2\nvalue = [0, 0, 2, 0]"] ;
218 -> 219 ;
220 [label="X[7] <= 1.989\ngini = 0.245\nsamples = 6\nvalue = [6, 0, 0, 1]"] ;
218 -> 220 ;
221 [label="gini = 0.0\nsamples = 5\nvalue = [6, 0, 0, 0]"] ;
220 -> 221 ;
222 [label="gini = 0.0\nsamples = 1\nvalue = [0, 0, 0, 1]"] ;
220 -> 222 ;
223 [label="X[11] <= 1.335\ngini = 0.133\nsamples = 16\nvalue = [2, 26, 0, 0]"] ;
113 -> 223 ;
224 [label="X[9] <= 1.308\ngini = 0.071\nsamples = 15\nvalue = [1, 26, 0, 0]"] ;
223 -> 224 ;
225 [label="X[21] <= 3.9\ngini = 0.32\nsamples = 3\nvalue = [1, 4, 0, 0]"] ;
224 -> 225 ;
226 [label="gini = 0.0\nsamples = 1\nvalue = [1, 0, 0, 0]"] ;
225 -> 226 ;
227 [label="gini = 0.0\nsamples = 2\nvalue = [0, 4, 0, 0]"] ;
225 -> 227 ;
228 [label="gini = 0.0\nsamples = 12\nvalue = [0, 22, 0, 0]"] ;
224 -> 228 ;
229 [label="gini = 0.0\nsamples = 1\nvalue = [1, 0, 0, 0]"] ;
223 -> 229 ;
230 [label="X[19] <= 3.218\ngini = 0.652\nsamples = 187\nvalue = [117, 73, 121, 0]"] ;
94 -> 230 ;
231 [label="X[11] <= 1.428\ngini = 0.444\nsamples = 92\nvalue = [36, 10, 111, 0]"] ;
230 -> 231 ;
232 [label="X[6] <= 1.285\ngini = 0.624\nsamples = 27\nvalue = [20, 9, 11, 0]"] ;
231 -> 232 ;
233 [label="X[4] <= 1.144\ngini = 0.444\nsamples = 7\nvalue = [0, 4, 8, 0]"] ;
232 -> 233 ;
234 [label="gini = 0.0\nsamples = 1\nvalue = [0, 3, 0, 0]"] ;
233 -> 234 ;
235 [label="X[4] <= 1.845\ngini = 0.198\nsamples = 6\nvalue = [0, 1, 8, 0]"] ;
233 -> 235 ;
236 [label="gini = 0.0\nsamples = 5\nvalue = [0, 0, 8, 0]"] ;
235 -> 236 ;
237 [label="gini = 0.0\nsamples = 1\nvalue = [0, 1, 0, 0]"] ;
235 -> 237 ;
238 [label="X[11] <= 0.944\ngini = 0.446\nsamples = 20\nvalue = [20, 5, 3, 0]"] ;
232 -> 238 ;
239 [label="X[4] <= 1.734\ngini = 0.444\nsamples = 5\nvalue = [2, 4, 0, 0]"] ;
238 -> 239 ;
240 [label="gini = 0.0\nsamples = 1\nvalue = [1, 0, 0, 0]"] ;
239 -> 240 ;
241 [label="X[13] <= 2.604\ngini = 0.32\nsamples = 4\nvalue = [1, 4, 0, 0]"] ;
239 -> 241 ;
242 [label="gini = 0.0\nsamples = 3\nvalue = [0, 4, 0, 0]"] ;
241 -> 242 ;
243 [label="gini = 0.0\nsamples = 1\nvalue = [1, 0, 0, 0]"] ;
241 -> 243 ;
244 [label="X[6] <= 1.724\ngini = 0.31\nsamples = 15\nvalue = [18, 1, 3, 0]"] ;
238 -> 244 ;
245 [label="X[3] <= 2.273\ngini = 0.18\nsamples = 13\nvalue = [18, 0, 2, 0]"] ;
244 -> 245 ;
246 [label="X[16] <= 3.785\ngini = 0.1\nsamples = 12\nvalue = [18, 0, 1, 0]"] ;
245 -> 246 ;
247 [label="gini = 0.0\nsamples = 10\nvalue = [16, 0, 0, 0]"] ;
246 -> 247 ;
248 [label="X[12] <= 1.118\ngini = 0.444\nsamples = 2\nvalue = [2, 0, 1, 0]"] ;
246 -> 248 ;
249 [label="gini = 0.0\nsamples = 1\nvalue = [2, 0, 0, 0]"] ;
248 -> 249 ;
250 [label="gini = 0.0\nsamples = 1\nvalue = [0, 0, 1, 0]"] ;
248 -> 250 ;
251 [label="gini = 0.0\nsamples = 1\nvalue = [0, 0, 1, 0]"] ;
245 -> 251 ;
252 [label="X[7] <= 1.225\ngini = 0.5\nsamples = 2\nvalue = [0, 1, 1, 0]"] ;
244 -> 252 ;
253 [label="gini = 0.0\nsamples = 1\nvalue = [0, 1, 0, 0]"] ;
252 -> 253 ;
254 [label="gini = 0.0\nsamples = 1\nvalue = [0, 0, 1, 0]"] ;
252 -> 254 ;
255 [label="X[23] <= 1.474\ngini = 0.251\nsamples = 65\nvalue = [16, 1, 100, 0]"] ;
231 -> 255 ;
256 [label="X[5] <= 1.597\ngini = 0.18\nsamples = 8\nvalue = [9, 1, 0, 0]"] ;
255 -> 256 ;
257 [label="gini = 0.0\nsamples = 1\nvalue = [0, 1, 0, 0]"] ;
256 -> 257 ;
258 [label="gini = 0.0\nsamples = 7\nvalue = [9, 0, 0, 0]"] ;
256 -> 258 ;
259 [label="X[4] <= 1.723\ngini = 0.122\nsamples = 57\nvalue = [7, 0, 100, 0]"] ;
255 -> 259 ;
260 [label="X[18] <= 1.034\ngini = 0.48\nsamples = 7\nvalue = [4, 0, 6, 0]"] ;
259 -> 260 ;
261 [label="gini = 0.0\nsamples = 3\nvalue = [4, 0, 0, 0]"] ;
260 -> 261 ;
262 [label="gini = 0.0\nsamples = 4\nvalue = [0, 0, 6, 0]"] ;
260 -> 262 ;
263 [label="X[1] <= 4.759\ngini = 0.06\nsamples = 50\nvalue = [3, 0, 94, 0]"] ;
259 -> 263 ;
264 [label="X[8] <= 1.358\ngini = 0.022\nsamples = 46\nvalue = [1, 0, 90, 0]"] ;
263 -> 264 ;
265 [label="X[19] <= 2.35\ngini = 0.153\nsamples = 7\nvalue = [1, 0, 11, 0]"] ;
264 -> 265 ;
266 [label="gini = 0.0\nsamples = 1\nvalue = [1, 0, 0, 0]"] ;
265 -> 266 ;
267 [label="gini = 0.0\nsamples = 6\nvalue = [0, 0, 11, 0]"] ;
265 -> 267 ;
268 [label="gini = 0.0\nsamples = 39\nvalue = [0, 0, 79, 0]"] ;
264 -> 268 ;
269 [label="X[11] <= 1.977\ngini = 0.444\nsamples = 4\nvalue = [2, 0, 4, 0]"] ;
263 -> 269 ;
270 [label="gini = 0.0\nsamples = 3\nvalue = [0, 0, 4, 0]"] ;
269 -> 270 ;
271 [label="gini = 0.0\nsamples = 1\nvalue = [2, 0, 0, 0]"] ;
269 -> 271 ;
272 [label="X[23] <= 1.724\ngini = 0.552\nsamples = 95\nvalue = [81, 63, 10, 0]"] ;
230 -> 272 ;
273 [label="X[4] <= 1.434\ngini = 0.375\nsamples = 66\nvalue = [80, 25, 1, 0]"] ;
272 -> 273 ;
274 [label="X[16] <= 0.863\ngini = 0.198\nsamples = 5\nvalue = [0, 8, 1, 0]"] ;
273 -> 274 ;
275 [label="gini = 0.0\nsamples = 4\nvalue = [0, 8, 0, 0]"] ;
274 -> 275 ;
276 [label="gini = 0.0\nsamples = 1\nvalue = [0, 0, 1, 0]"] ;
274 -> 276 ;
277 [label="X[16] <= 0.581\ngini = 0.289\nsamples = 61\nvalue = [80, 17, 0, 0]"] ;
273 -> 277 ;
278 [label="X[11] <= 1.385\ngini = 0.486\nsamples = 9\nvalue = [5, 7, 0, 0]"] ;
277 -> 278 ;
279 [label="gini = 0.0\nsamples = 5\nvalue = [0, 7, 0, 0]"] ;
278 -> 279 ;
280 [label="gini = 0.0\nsamples = 4\nvalue = [5, 0, 0, 0]"] ;
278 -> 280 ;
281 [label="X[10] <= 0.901\ngini = 0.208\nsamples = 52\nvalue = [75, 10, 0, 0]"] ;
277 -> 281 ;
282 [label="gini = 0.0\nsamples = 1\nvalue = [0, 1, 0, 0]"] ;
281 -> 282 ;
283 [label="X[19] <= 4.724\ngini = 0.191\nsamples = 51\nvalue = [75, 9, 0, 0]"] ;
281 -> 283 ;
284 [label="gini = 0.0\nsamples = 2\nvalue = [0, 2, 0, 0]"] ;
283 -> 284 ;
285 [label="X[0] <= 1.145\ngini = 0.156\nsamples = 49\nvalue = [75, 7, 0, 0]"] ;
283 -> 285 ;
286 [label="X[15] <= 0.655\ngini = 0.342\nsamples = 22\nvalue = [25, 7, 0, 0]"] ;
285 -> 286 ;
287 [label="X[21] <= 3.024\ngini = 0.463\nsamples = 7\nvalue = [4, 7, 0, 0]"] ;
286 -> 287 ;
288 [label="X[11] <= 2.852\ngini = 0.444\nsamples = 4\nvalue = [4, 2, 0, 0]"] ;
287 -> 288 ;
289 [label="gini = 0.0\nsamples = 3\nvalue = [4, 0, 0, 0]"] ;
288 -> 289 ;
290 [label="gini = 0.0\nsamples = 1\nvalue = [0, 2, 0, 0]"] ;
288 -> 290 ;
291 [label="gini = 0.0\nsamples = 3\nvalue = [0, 5, 0, 0]"] ;
287 -> 291 ;
292 [label="gini = 0.0\nsamples = 15\nvalue = [21, 0, 0, 0]"] ;
286 -> 292 ;
293 [label="gini = 0.0\nsamples = 27\nvalue = [50, 0, 0, 0]"] ;
285 -> 293 ;
294 [label="X[20] <= 2.533\ngini = 0.338\nsamples = 29\nvalue = [1, 38, 9, 0]"] ;
272 -> 294 ;
295 [label="X[15] <= 1.053\ngini = 0.5\nsamples = 9\nvalue = [1, 4, 9, 0]"] ;
294 -> 295 ;
296 [label="X[2] <= 2.474\ngini = 0.375\nsamples = 3\nvalue = [1, 3, 0, 0]"] ;
295 -> 296 ;
297 [label="gini = 0.0\nsamples = 1\nvalue = [1, 0, 0, 0]"] ;
296 -> 297 ;
298 [label="gini = 0.0\nsamples = 2\nvalue = [0, 3, 0, 0]"] ;
296 -> 298 ;
299 [label="X[1] <= 2.27\ngini = 0.18\nsamples = 6\nvalue = [0, 1, 9, 0]"] ;
295 -> 299 ;
300 [label="X[9] <= 1.905\ngini = 0.5\nsamples = 2\nvalue = [0, 1, 1, 0]"] ;
299 -> 300 ;
301 [label="gini = 0.0\nsamples = 1\nvalue = [0, 1, 0, 0]"] ;
300 -> 301 ;
302 [label="gini = 0.0\nsamples = 1\nvalue = [0, 0, 1, 0]"] ;
300 -> 302 ;
303 [label="gini = 0.0\nsamples = 4\nvalue = [0, 0, 8, 0]"] ;
299 -> 303 ;
304 [label="gini = 0.0\nsamples = 20\nvalue = [0, 34, 0, 0]"] ;
294 -> 304 ;
}