digraph Tree {
node [shape=box] ;
0 [label="X[23] <= 1.738\ngini = 0.668\nsamples = 1295\nvalue = [833, 713, 86, 395]"] ;
1 [label="X[11] <= 0.914\ngini = 0.65\nsamples = 1035\nvalue = [724, 517, 12, 387]"] ;
0 -> 1 [labeldistance=2.5, labelangle=45, headlabel="True"] ;
2 [label="X[2] <= 3.478\ngini = 0.233\nsamples = 102\nvalue = [21, 135, 0, 0]"] ;
1 -> 2 ;
3 [label="X[9] <= 1.569\ngini = 0.3\nsamples = 70\nvalue = [20, 89, 0, 0]"] ;
2 -> 3 ;
4 [label="X[13] <= 0.857\ngini = 0.495\nsamples = 26\nvalue = [18, 22, 0, 0]"] ;
3 -> 4 ;
5 [label="gini = 0.0\nsamples = 2\nvalue = [4, 0, 0, 0]"] ;
4 -> 5 ;
6 [label="X[6] <= 2.353\ngini = 0.475\nsamples = 24\nvalue = [14, 22, 0, 0]"] ;
4 -> 6 ;
7 [label="gini = 0.0\nsamples = 4\nvalue = [0, 7, 0, 0]"] ;
6 -> 7 ;
8 [label="X[4] <= 3.234\ngini = 0.499\nsamples = 20\nvalue = [14, 15, 0, 0]"] ;
6 -> 8 ;
9 [label="X[10] <= 0.877\ngini = 0.483\nsamples = 14\nvalue = [13, 9, 0, 0]"] ;
8 -> 9 ;
10 [label="gini = 0.0\nsamples = 5\nvalue = [8, 0, 0, 0]"] ;
9 -> 10 ;
11 [label="X[1] <= 3.313\ngini = 0.459\nsamples = 9\nvalue = [5, 9, 0, 0]"] ;
9 -> 11 ;
12 [label="X[8] <= 3.832\ngini = 0.298\nsamples = 7\nvalue = [2, 9, 0, 0]"] ;
11 -> 12 ;
13 [label="gini = 0.0\nsamples = 1\nvalue = [1, 0, 0, 0]"] ;
12 -> 13 ;
14 [label="X[0] <= 1.369\ngini = 0.18\nsamples = 6\nvalue = [1, 9, 0, 0]"] ;
12 -> 14 ;
15 [label="X[20] <= 1.463\ngini = 0.444\nsamples = 2\nvalue = [1, 2, 0, 0]"] ;
14 -> 15 ;
16 [label="gini = 0.0\nsamples = 1\nvalue = [1, 0, 0, 0]"] ;
15 -> 16 ;
17 [label="gini = 0.0\nsamples = 1\nvalue = [0, 2, 0, 0]"] ;
15 -> 17 ;
18 [label="gini = 0.0\nsamples = 4\nvalue = [0, 7, 0, 0]"] ;
14 -> 18 ;
19 [label="gini = 0.0\nsamples = 2\nvalue = [3, 0, 0, 0]"] ;
11 -> 19 ;
20 [label="X[20] <= 0.99\ngini = 0.245\nsamples = 6\nvalue = [1, 6, 0, 0]"] ;
8 -> 20 ;
21 [label="gini = 0.0\nsamples = 1\nvalue = [1, 0, 0, 0]"] ;
20 -> 21 ;
22 [label="gini = 0.0\nsamples = 5\nvalue = [0, 6, 0, 0]"] ;
20 -> 22 ;
23 [label="X[6] <= 2.577\ngini = 0.056\nsamples = 44\nvalue = [2, 67, 0, 0]"] ;
3 -> 23 ;
24 [label="X[4] <= 2.871\ngini = 0.444\nsamples = 6\nvalue = [2, 4, 0, 0]"] ;
23 -> 24 ;
25 [label="gini = 0.0\nsamples = 3\nvalue = [0, 3, 0, 0]"] ;
24 -> 25 ;
26 [label="X[15] <= 3.339\ngini = 0.444\nsamples = 3\nvalue = [2, 1, 0, 0]"] ;
24 -> 26 ;
27 [label="gini = 0.0\nsamples = 1\nvalue = [1, 0, 0, 0]"] ;
26 -> 27 ;
28 [label="X[16] <= 0.596\ngini = 0.5\nsamples = 2\nvalue = [1, 1, 0, 0]"] ;
26 -> 28 ;
29 [label="gini = 0.0\nsamples = 1\nvalue = [0, 1, 0, 0]"] ;
28 -> 29 ;
30 [label="gini = 0.0\nsamples = 1\nvalue = [1, 0, 0, 0]"] ;
28 -> 30 ;
31 [label="gini = 0.0\nsamples = 38\nvalue = [0, 63, 0, 0]"] ;
23 -> 31 ;
32 [label="X[18] <= 0.75\ngini = 0.042\nsamples = 32\nvalue = [1, 46, 0, 0]"] ;
2 -> 32 ;
33 [label="gini = 0.0\nsamples = 30\nvalue = [0, 44, 0, 0]"] ;
32 -> 33 ;
34 [label="X[12] <= 0.951\ngini = 0.444\nsamples = 2\nvalue = [1, 2, 0, 0]"] ;
32 -> 34 ;
35 [label="gini = 0.0\nsamples = 1\nvalue = [1, 0, 0, 0]"] ;
34 -> 35 ;
36 [label="gini = 0.0\nsamples = 1\nvalue = [0, 2, 0, 0]"] ;
34 -> 36 ;
37 [label="X[22] <= 0.797\ngini = 0.641\nsamples = 933\nvalue = [703, 382, 12, 387]"] ;
1 -> 37 ;
38 [label="X[13] <= 1.049\ngini = 0.597\nsamples = 276\nvalue = [181, 203, 1, 51]"] ;
37 -> 38 ;
39 [label="X[6] <= 4.602\ngini = 0.051\nsamples = 42\nvalue = [2, 75, 0, 0]"] ;
38 -> 39 ;
40 [label="gini = 0.0\nsamples = 32\nvalue = [0, 60, 0, 0]"] ;
39 -> 40 ;
41 [label="X[20] <= 0.697\ngini = 0.208\nsamples = 10\nvalue = [2, 15, 0, 0]"] ;
39 -> 41 ;
42 [label="gini = 0.0\nsamples = 8\nvalue = [0, 14, 0, 0]"] ;
41 -> 42 ;
43 [label="X[9] <= 1.516\ngini = 0.444\nsamples = 2\nvalue = [2, 1, 0, 0]"] ;
41 -> 43 ;
44 [label="gini = 0.0\nsamples = 1\nvalue = [0, 1, 0, 0]"] ;
43 -> 44 ;
45 [label="gini = 0.0\nsamples = 1\nvalue = [2, 0, 0, 0]"] ;
43 -> 45 ;
46 [label="X[6] <= 1.872\ngini = 0.604\nsamples = 234\nvalue = [179, 128, 1, 51]"] ;
38 -> 46 ;
47 [label="X[14] <= 1.053\ngini = 0.333\nsamples = 77\nvalue = [95, 20, 0, 4]"] ;
46 -> 47 ;
48 [label="gini = 0.0\nsamples = 13\nvalue = [0, 20, 0, 0]"] ;
47 -> 48 ;
49 [label="X[20] <= 0.389\ngini = 0.078\nsamples = 64\nvalue = [95, 0, 0, 4]"] ;
47 -> 49 ;
50 [label="X[17] <= 2.968\ngini = 0.5\nsamples = 2\nvalue = [2, 0, 0, 2]"] ;
49 -> 50 ;
51 [label="gini = 0.0\nsamples = 1\nvalue = [2, 0, 0, 0]"] ;
50 -> 51 ;
52 [label="gini = 0.0\nsamples = 1\nvalue = [0, 0, 0, 2]"] ;
50 -> 52 ;
53 [label="X[3] <= 4.279\ngini = 0.041\nsamples = 62\nvalue = [93, 0, 0, 2]"] ;
49 -> 53 ;
54 [label="gini = 0.0\nsamples = 46\nvalue = [71, 0, 0, 0]"] ;
53 -> 54 ;
55 [label="X[15] <= 1.462\ngini = 0.153\nsamples = 16\nvalue = [22, 0, 0, 2]"] ;
53 -> 55 ;
56 [label="gini = 0.0\nsamples = 15\nvalue = [22, 0, 0, 0]"] ;
55 -> 56 ;
57 [label="gini = 0.0\nsamples = 1\nvalue = [0, 0, 0, 2]"] ;
55 -> 57 ;
58 [label="X[18] <= 0.509\ngini = 0.637\nsamples = 157\nvalue = [84, 108, 1, 47]"] ;
46 -> 58 ;
59 [label="X[13] <= 1.37\ngini = 0.424\nsamples = 38\nvalue = [2, 16, 0, 45]"] ;
58 -> 59 ;
60 [label="X[5] <= 3.964\ngini = 0.32\nsamples = 5\nvalue = [2, 8, 0, 0]"] ;
59 -> 60 ;
61 [label="gini = 0.0\nsamples = 4\nvalue = [0, 8, 0, 0]"] ;
60 -> 61 ;
62 [label="gini = 0.0\nsamples = 1\nvalue = [2, 0, 0, 0]"] ;
60 -> 62 ;
63 [label="X[13] <= 1.669\ngini = 0.256\nsamples = 33\nvalue = [0, 8, 0, 45]"] ;
59 -> 63 ;
64 [label="gini = 0.0\nsamples = 25\nvalue = [0, 0, 0, 42]"] ;
63 -> 64 ;
65 [label="X[3] <= 2.515\ngini = 0.397\nsamples = 8\nvalue = [0, 8, 0, 3]"] ;
63 -> 65 ;
66 [label="gini = 0.0\nsamples = 3\nvalue = [0, 5, 0, 0]"] ;
65 -> 66 ;
67 [label="X[12] <= 1.687\ngini = 0.5\nsamples = 5\nvalue = [0, 3, 0, 3]"] ;
65 -> 67 ;
68 [label="gini = 0.0\nsamples = 3\nvalue = [0, 3, 0, 0]"] ;
67 -> 68 ;
69 [label="gini = 0.0\nsamples = 2\nvalue = [0, 0, 0, 3]"] ;
67 -> 69 ;
70 [label="X[22] <= 0.732\ngini = 0.515\nsamples = 119\nvalue = [82, 92, 1, 2]"] ;
58 -> 70 ;
71 [label="X[23] <= 1.043\ngini = 0.482\nsamples = 76\nvalue = [39, 73, 1, 2]"] ;
70 -> 71 ;
72 [label="X[17] <= 0.628\ngini = 0.434\nsamples = 71\nvalue = [32, 73, 1, 0]"] ;
71 -> 72 ;
73 [label="gini = 0.0\nsamples = 6\nvalue = [10, 0, 0, 0]"] ;
72 -> 73 ;
74 [label="X[21] <= 0.702\ngini = 0.369\nsamples = 65\nvalue = [22, 73, 1, 0]"] ;
72 -> 74 ;
75 [label="X[14] <= 0.903\ngini = 0.44\nsamples = 48\nvalue = [21, 48, 1, 0]"] ;
74 -> 75 ;
76 [label="gini = 0.0\nsamples = 27\nvalue = [0, 45, 0, 0]"] ;
75 -> 76 ;
77 [label="X[6] <= 4.343\ngini = 0.278\nsamples = 21\nvalue = [21, 3, 1, 0]"] ;
75 -> 77 ;
78 [label="X[1] <= 3.685\ngini = 0.5\nsamples = 2\nvalue = [1, 0, 1, 0]"] ;
77 -> 78 ;
79 [label="gini = 0.0\nsamples = 1\nvalue = [1, 0, 0, 0]"] ;
78 -> 79 ;
80 [label="gini = 0.0\nsamples = 1\nvalue = [0, 0, 1, 0]"] ;
78 -> 80 ;
81 [label="X[9] <= 2.574\ngini = 0.227\nsamples = 19\nvalue = [20, 3, 0, 0]"] ;
77 -> 81 ;
82 [label="gini = 0.375\nsamples = 8\nvalue = [6, 2, 0, 0]"] ;
81 -> 82 ;
83 [label="gini = 0.124\nsamples = 11\nvalue = [14, 1, 0, 0]"] ;
81 -> 83 ;
84 [label="X[20] <= 0.766\ngini = 0.074\nsamples = 17\nvalue = [1, 25, 0, 0]"] ;
74 -> 84 ;
85 [label="gini = 0.0\nsamples = 16\nvalue = [0, 25, 0, 0]"] ;
84 -> 85 ;
86 [label="gini = 0.0\nsamples = 1\nvalue = [1, 0, 0, 0]"] ;
84 -> 86 ;
87 [label="X[15] <= 1.082\ngini = 0.346\nsamples = 5\nvalue = [7, 0, 0, 2]"] ;
71 -> 87 ;
88 [label="gini = 0.0\nsamples = 4\nvalue = [7, 0, 0, 0]"] ;
87 -> 88 ;
89 [label="gini = 0.0\nsamples = 1\nvalue = [0, 0, 0, 2]"] ;
87 -> 89 ;
90 [label="X[3] <= 3.12\ngini = 0.425\nsamples = 43\nvalue = [43, 19, 0, 0]"] ;
70 -> 90 ;
91 [label="X[12] <= 3.483\ngini = 0.485\nsamples = 32\nvalue = [27, 19, 0, 0]"] ;
90 -> 91 ;
92 [label="X[11] <= 1.346\ngini = 0.426\nsamples = 28\nvalue = [27, 12, 0, 0]"] ;
91 -> 92 ;
93 [label="gini = 0.0\nsamples = 2\nvalue = [0, 4, 0, 0]"] ;
92 -> 93 ;
94 [label="X[22] <= 0.787\ngini = 0.353\nsamples = 26\nvalue = [27, 8, 0, 0]"] ;
92 -> 94 ;
95 [label="X[2] <= 3.696\ngini = 0.238\nsamples = 20\nvalue = [25, 4, 0, 0]"] ;
94 -> 95 ;
96 [label="X[14] <= 0.896\ngini = 0.147\nsamples = 16\nvalue = [23, 2, 0, 0]"] ;
95 -> 96 ;
97 [label="gini = 0.0\nsamples = 2\nvalue = [0, 2, 0, 0]"] ;
96 -> 97 ;
98 [label="gini = 0.0\nsamples = 14\nvalue = [23, 0, 0, 0]"] ;
96 -> 98 ;
99 [label="X[1] <= 3.648\ngini = 0.5\nsamples = 4\nvalue = [2, 2, 0, 0]"] ;
95 -> 99 ;
100 [label="gini = 0.0\nsamples = 2\nvalue = [0, 2, 0, 0]"] ;
99 -> 100 ;
101 [label="gini = 0.0\nsamples = 2\nvalue = [2, 0, 0, 0]"] ;
99 -> 101 ;
102 [label="X[4] <= 1.477\ngini = 0.444\nsamples = 6\nvalue = [2, 4, 0, 0]"] ;
94 -> 102 ;
103 [label="gini = 0.0\nsamples = 4\nvalue = [0, 4, 0, 0]"] ;
102 -> 103 ;
104 [label="gini = 0.0\nsamples = 2\nvalue = [2, 0, 0, 0]"] ;
102 -> 104 ;
105 [label="gini = 0.0\nsamples = 4\nvalue = [0, 7, 0, 0]"] ;
91 -> 105 ;
106 [label="gini = 0.0\nsamples = 11\nvalue = [16, 0, 0, 0]"] ;
90 -> 106 ;
107 [label="X[14] <= 0.896\ngini = 0.62\nsamples = 657\nvalue = [522, 179, 11, 336]"] ;
37 -> 107 ;
108 [label="X[13] <= 3.151\ngini = 0.266\nsamples = 106\nvalue = [12, 142, 0, 13]"] ;
107 -> 108 ;
109 [label="X[16] <= 1.068\ngini = 0.156\nsamples = 93\nvalue = [7, 132, 0, 5]"] ;
108 -> 109 ;
110 [label="X[7] <= 1.792\ngini = 0.135\nsamples = 91\nvalue = [5, 130, 0, 5]"] ;
109 -> 110 ;
111 [label="X[17] <= 0.639\ngini = 0.391\nsamples = 13\nvalue = [4, 11, 0, 0]"] ;
110 -> 111 ;
112 [label="X[1] <= 3.998\ngini = 0.494\nsamples = 8\nvalue = [4, 5, 0, 0]"] ;
111 -> 112 ;
113 [label="gini = 0.0\nsamples = 4\nvalue = [0, 4, 0, 0]"] ;
112 -> 113 ;
114 [label="X[15] <= 2.501\ngini = 0.32\nsamples = 4\nvalue = [4, 1, 0, 0]"] ;
112 -> 114 ;
115 [label="gini = 0.0\nsamples = 3\nvalue = [4, 0, 0, 0]"] ;
114 -> 115 ;
116 [label="gini = 0.0\nsamples = 1\nvalue = [0, 1, 0, 0]"] ;
114 -> 116 ;
117 [label="gini = 0.0\nsamples = 5\nvalue = [0, 6, 0, 0]"] ;
111 -> 117 ;
118 [label="X[17] <= 0.492\ngini = 0.092\nsamples = 78\nvalue = [1, 119, 0, 5]"] ;
110 -> 118 ;
119 [label="X[17] <= 0.49\ngini = 0.19\nsamples = 30\nvalue = [0, 42, 0, 5]"] ;
118 -> 119 ;
120 [label="X[18] <= 0.473\ngini = 0.093\nsamples = 28\nvalue = [0, 39, 0, 2]"] ;
119 -> 120 ;
121 [label="X[2] <= 1.734\ngini = 0.26\nsamples = 9\nvalue = [0, 11, 0, 2]"] ;
120 -> 121 ;
122 [label="gini = 0.0\nsamples = 2\nvalue = [0, 0, 0, 2]"] ;
121 -> 122 ;
123 [label="gini = 0.0\nsamples = 7\nvalue = [0, 11, 0, 0]"] ;
121 -> 123 ;
124 [label="gini = 0.0\nsamples = 19\nvalue = [0, 28, 0, 0]"] ;
120 -> 124 ;
125 [label="X[5] <= 4.109\ngini = 0.5\nsamples = 2\nvalue = [0, 3, 0, 3]"] ;
119 -> 125 ;
126 [label="gini = 0.0\nsamples = 1\nvalue = [0, 3, 0, 0]"] ;
125 -> 126 ;
127 [label="gini = 0.0\nsamples = 1\nvalue = [0, 0, 0, 3]"] ;
125 -> 127 ;
128 [label="X[5] <= 4.882\ngini = 0.025\nsamples = 48\nvalue = [1, 77, 0, 0]"] ;
118 -> 128 ;
129 [label="gini = 0.0\nsamples = 44\nvalue = [0, 73, 0, 0]"] ;
128 -> 129 ;
130 [label="X[17] <= 0.615\ngini = 0.32\nsamples = 4\nvalue = [1, 4, 0, 0]"] ;
128 -> 130 ;
131 [label="gini = 0.0\nsamples = 3\nvalue = [0, 4, 0, 0]"] ;
130 -> 131 ;
132 [label="gini = 0.0\nsamples = 1\nvalue = [1, 0, 0, 0]"] ;
130 -> 132 ;
133 [label="X[22] <= 2.938\ngini = 0.5\nsamples = 2\nvalue = [2, 2, 0, 0]"] ;
109 -> 133 ;
134 [label="gini = 0.0\nsamples = 1\nvalue = [2, 0, 0, 0]"] ;
133 -> 134 ;
135 [label="gini = 0.0\nsamples = 1\nvalue = [0, 2, 0, 0]"] ;
133 -> 135 ;
136 [label="X[14] <= 0.816\ngini = 0.643\nsamples = 13\nvalue = [5, 10, 0, 8]"] ;
108 -> 136 ;
137 [label="X[5] <= 4.122\ngini = 0.408\nsamples = 8\nvalue = [4, 10, 0, 0]"] ;
136 -> 137 ;
138 [label="X[3] <= 2.645\ngini = 0.5\nsamples = 5\nvalue = [4, 4, 0, 0]"] ;
137 -> 138 ;
139 [label="gini = 0.0\nsamples = 3\nvalue = [0, 4, 0, 0]"] ;
138 -> 139 ;
140 [label="gini = 0.0\nsamples = 2\nvalue = [4, 0, 0, 0]"] ;
138 -> 140 ;
141 [label="gini = 0.0\nsamples = 3\nvalue = [0, 6, 0, 0]"] ;
137 -> 141 ;
142 [label="X[13] <= 3.811\ngini = 0.198\nsamples = 5\nvalue = [1, 0, 0, 8]"] ;
136 -> 142 ;
143 [label="X[17] <= 0.766\ngini = 0.5\nsamples = 2\nvalue = [1, 0, 0, 1]"] ;
142 -> 143 ;
144 [label="gini = 0.0\nsamples = 1\nvalue = [1, 0, 0, 0]"] ;
143 -> 144 ;
145 [label="gini = 0.0\nsamples = 1\nvalue = [0, 0, 0, 1]"] ;
143 -> 145 ;
146 [label="gini = 0.0\nsamples = 3\nvalue = [0, 0, 0, 7]"] ;
142 -> 146 ;
147 [label="X[18] <= 0.501\ngini = 0.529\nsamples = 551\nvalue = [510, 37, 11, 323]"] ;
107 -> 147 ;
148 [label="X[12] <= 1.431\ngini = 0.244\nsamples = 161\nvalue = [38, 1, 0, 237]"] ;
147 -> 148 ;
149 [label="X[18] <= 0.473\ngini = 0.18\nsamples = 10\nvalue = [18, 0, 0, 2]"] ;
148 -> 149 ;
150 [label="X[9] <= 3.433\ngini = 0.444\nsamples = 3\nvalue = [1, 0, 0, 2]"] ;
149 -> 150 ;
151 [label="gini = 0.0\nsamples = 1\nvalue = [1, 0, 0, 0]"] ;
150 -> 151 ;
152 [label="gini = 0.0\nsamples = 2\nvalue = [0, 0, 0, 2]"] ;
150 -> 152 ;
153 [label="gini = 0.0\nsamples = 7\nvalue = [17, 0, 0, 0]"] ;
149 -> 153 ;
154 [label="X[12] <= 2.558\ngini = 0.151\nsamples = 151\nvalue = [20, 1, 0, 235]"] ;
148 -> 154 ;
155 [label="X[13] <= 1.122\ngini = 0.093\nsamples = 145\nvalue = [11, 1, 0, 235]"] ;
154 -> 155 ;
156 [label="gini = 0.0\nsamples = 1\nvalue = [2, 0, 0, 0]"] ;
155 -> 156 ;
157 [label="X[4] <= 1.481\ngini = 0.079\nsamples = 144\nvalue = [9, 1, 0, 235]"] ;
155 -> 157 ;
158 [label="X[23] <= 1.146\ngini = 0.375\nsamples = 2\nvalue = [3, 0, 0, 1]"] ;
157 -> 158 ;
159 [label="gini = 0.0\nsamples = 1\nvalue = [0, 0, 0, 1]"] ;
158 -> 159 ;
160 [label="gini = 0.0\nsamples = 1\nvalue = [3, 0, 0, 0]"] ;
158 -> 160 ;
161 [label="X[22] <= 0.826\ngini = 0.057\nsamples = 142\nvalue = [6, 1, 0, 234]"] ;
157 -> 161 ;
162 [label="gini = 0.0\nsamples = 1\nvalue = [1, 0, 0, 0]"] ;
161 -> 162 ;
163 [label="X[22] <= 1.855\ngini = 0.049\nsamples = 141\nvalue = [5, 1, 0, 234]"] ;
161 -> 163 ;
164 [label="X[4] <= 1.861\ngini = 0.041\nsamples = 139\nvalue = [4, 1, 0, 233]"] ;
163 -> 164 ;
165 [label="X[20] <= 0.927\ngini = 0.255\nsamples = 11\nvalue = [3, 0, 0, 17]"] ;
164 -> 165 ;
166 [label="gini = 0.0\nsamples = 8\nvalue = [0, 0, 0, 15]"] ;
165 -> 166 ;
167 [label="gini = 0.48\nsamples = 3\nvalue = [3, 0, 0, 2]"] ;
165 -> 167 ;
168 [label="X[13] <= 1.447\ngini = 0.018\nsamples = 128\nvalue = [1, 1, 0, 216]"] ;
164 -> 168 ;
169 [label="gini = 0.245\nsamples = 6\nvalue = [1, 0, 0, 6]"] ;
168 -> 169 ;
170 [label="gini = 0.009\nsamples = 122\nvalue = [0, 1, 0, 210]"] ;
168 -> 170 ;
171 [label="X[0] <= 1.311\ngini = 0.5\nsamples = 2\nvalue = [1, 0, 0, 1]"] ;
163 -> 171 ;
172 [label="gini = 0.0\nsamples = 1\nvalue = [0, 0, 0, 1]"] ;
171 -> 172 ;
173 [label="gini = 0.0\nsamples = 1\nvalue = [1, 0, 0, 0]"] ;
171 -> 173 ;
174 [label="gini = 0.0\nsamples = 6\nvalue = [9, 0, 0, 0]"] ;
154 -> 174 ;
175 [label="X[23] <= 1.374\ngini = 0.367\nsamples = 390\nvalue = [472, 36, 11, 86]"] ;
147 -> 175 ;
176 [label="X[20] <= 0.894\ngini = 0.237\nsamples = 268\nvalue = [356, 21, 0, 33]"] ;
175 -> 176 ;
177 [label="X[13] <= 0.968\ngini = 0.361\nsamples = 133\nvalue = [157, 12, 0, 32]"] ;
176 -> 177 ;
178 [label="X[6] <= 2.237\ngini = 0.346\nsamples = 7\nvalue = [2, 7, 0, 0]"] ;
177 -> 178 ;
179 [label="gini = 0.0\nsamples = 2\nvalue = [2, 0, 0, 0]"] ;
178 -> 179 ;
180 [label="gini = 0.0\nsamples = 5\nvalue = [0, 7, 0, 0]"] ;
178 -> 180 ;
181 [label="X[13] <= 2.773\ngini = 0.32\nsamples = 126\nvalue = [155, 5, 0, 32]"] ;
177 -> 181 ;
182 [label="X[9] <= 3.786\ngini = 0.21\nsamples = 79\nvalue = [107, 4, 0, 10]"] ;
181 -> 182 ;
183 [label="X[4] <= 4.57\ngini = 0.133\nsamples = 62\nvalue = [91, 0, 0, 7]"] ;
182 -> 183 ;
184 [label="X[23] <= 1.313\ngini = 0.028\nsamples = 44\nvalue = [69, 0, 0, 1]"] ;
183 -> 184 ;
185 [label="gini = 0.0\nsamples = 36\nvalue = [58, 0, 0, 0]"] ;
184 -> 185 ;
186 [label="X[23] <= 1.328\ngini = 0.153\nsamples = 8\nvalue = [11, 0, 0, 1]"] ;
184 -> 186 ;
187 [label="gini = 0.0\nsamples = 1\nvalue = [0, 0, 0, 1]"] ;
186 -> 187 ;
188 [label="gini = 0.0\nsamples = 7\nvalue = [11, 0, 0, 0]"] ;
186 -> 188 ;
189 [label="X[15] <= 1.448\ngini = 0.337\nsamples = 18\nvalue = [22, 0, 0, 6]"] ;
183 -> 189 ;
190 [label="X[7] <= 2.048\ngini = 0.117\nsamples = 10\nvalue = [15, 0, 0, 1]"] ;
189 -> 190 ;
191 [label="gini = 0.0\nsamples = 5\nvalue = [10, 0, 0, 0]"] ;
190 -> 191 ;
192 [label="gini = 0.278\nsamples = 5\nvalue = [5, 0, 0, 1]"] ;
190 -> 192 ;
193 [label="X[22] <= 1.089\ngini = 0.486\nsamples = 8\nvalue = [7, 0, 0, 5]"] ;
189 -> 193 ;
194 [label="gini = 0.0\nsamples = 3\nvalue = [6, 0, 0, 0]"] ;
193 -> 194 ;
195 [label="gini = 0.278\nsamples = 5\nvalue = [1, 0, 0, 5]"] ;
193 -> 195 ;
196 [label="X[9] <= 4.103\ngini = 0.469\nsamples = 17\nvalue = [16, 4, 0, 3]"] ;
182 -> 196 ;
197 [label="gini = 0.0\nsamples = 3\nvalue = [0, 0, 0, 3]"] ;
196 -> 197 ;
198 [label="X[7] <= 4.339\ngini = 0.32\nsamples = 14\nvalue = [16, 4, 0, 0]"] ;
196 -> 198 ;
199 [label="X[17] <= 0.497\ngini = 0.117\nsamples = 11\nvalue = [15, 1, 0, 0]"] ;
198 -> 199 ;
200 [label="gini = 0.0\nsamples = 1\nvalue = [0, 1, 0, 0]"] ;
199 -> 200 ;
201 [label="gini = 0.0\nsamples = 10\nvalue = [15, 0, 0, 0]"] ;
199 -> 201 ;
202 [label="X[11] <= 1.684\ngini = 0.375\nsamples = 3\nvalue = [1, 3, 0, 0]"] ;
198 -> 202 ;
203 [label="gini = 0.5\nsamples = 2\nvalue = [1, 1, 0, 0]"] ;
202 -> 203 ;
204 [label="gini = 0.0\nsamples = 1\nvalue = [0, 2, 0, 0]"] ;
202 -> 204 ;
205 [label="X[14] <= 4.695\ngini = 0.447\nsamples = 47\nvalue = [48, 1, 0, 22]"] ;
181 -> 205 ;
206 [label="X[3] <= 2.536\ngini = 0.224\nsamples = 26\nvalue = [35, 1, 0, 4]"] ;
205 -> 206 ;
207 [label="X[19] <= 0.876\ngini = 0.322\nsamples = 16\nvalue = [21, 1, 0, 4]"] ;
206 -> 207 ;
208 [label="X[22] <= 0.868\ngini = 0.219\nsamples = 14\nvalue = [21, 0, 0, 3]"] ;
207 -> 208 ;
209 [label="gini = 0.444\nsamples = 3\nvalue = [1, 0, 0, 2]"] ;
208 -> 209 ;
210 [label="gini = 0.091\nsamples = 11\nvalue = [20, 0, 0, 1]"] ;
208 -> 210 ;
211 [label="X[12] <= 1.744\ngini = 0.5\nsamples = 2\nvalue = [0, 1, 0, 1]"] ;
207 -> 211 ;
212 [label="gini = 0.0\nsamples = 1\nvalue = [0, 1, 0, 0]"] ;
211 -> 212 ;
213 [label="gini = 0.0\nsamples = 1\nvalue = [0, 0, 0, 1]"] ;
211 -> 213 ;
214 [label="gini = 0.0\nsamples = 10\nvalue = [14, 0, 0, 0]"] ;
206 -> 214 ;
215 [label="X[19] <= 0.504\ngini = 0.487\nsamples = 21\nvalue = [13, 0, 0, 18]"] ;
205 -> 215 ;
216 [label="X[13] <= 4.406\ngini = 0.255\nsamples = 12\nvalue = [3, 0, 0, 17]"] ;
215 -> 216 ;
217 [label="X[17] <= 0.707\ngini = 0.124\nsamples = 9\nvalue = [1, 0, 0, 14]"] ;
216 -> 217 ;
218 [label="gini = 0.0\nsamples = 1\nvalue = [1, 0, 0, 0]"] ;
217 -> 218 ;
219 [label="gini = 0.0\nsamples = 8\nvalue = [0, 0, 0, 14]"] ;
217 -> 219 ;
220 [label="X[21] <= 0.797\ngini = 0.48\nsamples = 3\nvalue = [2, 0, 0, 3]"] ;
216 -> 220 ;
221 [label="gini = 0.0\nsamples = 1\nvalue = [0, 0, 0, 3]"] ;
220 -> 221 ;
222 [label="gini = 0.0\nsamples = 2\nvalue = [2, 0, 0, 0]"] ;
220 -> 222 ;
223 [label="X[7] <= 3.222\ngini = 0.165\nsamples = 9\nvalue = [10, 0, 0, 1]"] ;
215 -> 223 ;
224 [label="gini = 0.0\nsamples = 7\nvalue = [8, 0, 0, 0]"] ;
223 -> 224 ;
225 [label="X[6] <= 3.609\ngini = 0.444\nsamples = 2\nvalue = [2, 0, 0, 1]"] ;
223 -> 225 ;
226 [label="gini = 0.0\nsamples = 1\nvalue = [2, 0, 0, 0]"] ;
225 -> 226 ;
227 [label="gini = 0.0\nsamples = 1\nvalue = [0, 0, 0, 1]"] ;
225 -> 227 ;
228 [label="X[9] <= 1.063\ngini = 0.092\nsamples = 135\nvalue = [199, 9, 0, 1]"] ;
176 -> 228 ;
229 [label="X[5] <= 2.376\ngini = 0.444\nsamples = 4\nvalue = [4, 2, 0, 0]"] ;
228 -> 229 ;
230 [label="gini = 0.0\nsamples = 1\nvalue = [0, 2, 0, 0]"] ;
229 -> 230 ;
231 [label="gini = 0.0\nsamples = 3\nvalue = [4, 0, 0, 0]"] ;
229 -> 231 ;
232 [label="X[11] <= 1.823\ngini = 0.076\nsamples = 131\nvalue = [195, 7, 0, 1]"] ;
228 -> 232 ;
233 [label="X[16] <= 0.784\ngini = 0.119\nsamples = 69\nvalue = [103, 7, 0, 0]"] ;
232 -> 233 ;
234 [label="X[18] <= 0.508\ngini = 0.104\nsamples = 68\nvalue = [103, 6, 0, 0]"] ;
233 -> 234 ;
235 [label="X[19] <= 0.59\ngini = 0.48\nsamples = 2\nvalue = [3, 2, 0, 0]"] ;
234 -> 235 ;
236 [label="gini = 0.0\nsamples = 1\nvalue = [3, 0, 0, 0]"] ;
235 -> 236 ;
237 [label="gini = 0.0\nsamples = 1\nvalue = [0, 2, 0, 0]"] ;
235 -> 237 ;
238 [label="X[11] <= 1.8\ngini = 0.074\nsamples = 66\nvalue = [100, 4, 0, 0]"] ;
234 -> 238 ;
239 [label="X[14] <= 1.067\ngini = 0.057\nsamples = 65\nvalue = [100, 3, 0, 0]"] ;
238 -> 239 ;
240 [label="gini = 0.236\nsamples = 14\nvalue = [19, 3, 0, 0]"] ;
239 -> 240 ;
241 [label="gini = 0.0\nsamples = 51\nvalue = [81, 0, 0, 0]"] ;
239 -> 241 ;
242 [label="gini = 0.0\nsamples = 1\nvalue = [0, 1, 0, 0]"] ;
238 -> 242 ;
243 [label="gini = 0.0\nsamples = 1\nvalue = [0, 1, 0, 0]"] ;
233 -> 243 ;
244 [label="X[21] <= 0.879\ngini = 0.021\nsamples = 62\nvalue = [92, 0, 0, 1]"] ;
232 -> 244 ;
245 [label="X[9] <= 3.846\ngini = 0.5\nsamples = 2\nvalue = [1, 0, 0, 1]"] ;
244 -> 245 ;
246 [label="gini = 0.0\nsamples = 1\nvalue = [0, 0, 0, 1]"] ;
245 -> 246 ;
247 [label="gini = 0.0\nsamples = 1\nvalue = [1, 0, 0, 0]"] ;
245 -> 247 ;
248 [label="gini = 0.0\nsamples = 60\nvalue = [91, 0, 0, 0]"] ;
244 -> 248 ;
249 [label="X[1] <= 1.758\ngini = 0.563\nsamples = 122\nvalue = [116, 15, 11, 53]"] ;
175 -> 249 ;
250 [label="X[16] <= 2.85\ngini = 0.564\nsamples = 55\nvalue = [37, 0, 8, 50]"] ;
249 -> 250 ;
251 [label="X[23] <= 1.377\ngini = 0.343\nsamples = 28\nvalue = [37, 0, 1, 9]"] ;
250 -> 251 ;
252 [label="gini = 0.0\nsamples = 1\nvalue = [0, 0, 0, 3]"] ;
251 -> 252 ;
253 [label="X[17] <= 0.493\ngini = 0.274\nsamples = 27\nvalue = [37, 0, 1, 6]"] ;
251 -> 253 ;
254 [label="gini = 0.0\nsamples = 1\nvalue = [0, 0, 0, 3]"] ;
253 -> 254 ;
255 [label="X[18] <= 2.904\ngini = 0.18\nsamples = 26\nvalue = [37, 0, 1, 3]"] ;
253 -> 255 ;
256 [label="X[21] <= 0.712\ngini = 0.139\nsamples = 25\nvalue = [37, 0, 0, 3]"] ;
255 -> 256 ;
257 [label="X[16] <= 0.593\ngini = 0.375\nsamples = 3\nvalue = [1, 0, 0, 3]"] ;
256 -> 257 ;
258 [label="gini = 0.0\nsamples = 1\nvalue = [1, 0, 0, 0]"] ;
257 -> 258 ;
259 [label="gini = 0.0\nsamples = 2\nvalue = [0, 0, 0, 3]"] ;
257 -> 259 ;
260 [label="gini = 0.0\nsamples = 22\nvalue = [36, 0, 0, 0]"] ;
256 -> 260 ;
261 [label="gini = 0.0\nsamples = 1\nvalue = [0, 0, 1, 0]"] ;
255 -> 261 ;
262 [label="X[19] <= 1.257\ngini = 0.249\nsamples = 27\nvalue = [0, 0, 7, 41]"] ;
250 -> 262 ;
263 [label="gini = 0.0\nsamples = 23\nvalue = [0, 0, 0, 41]"] ;
262 -> 263 ;
264 [label="gini = 0.0\nsamples = 4\nvalue = [0, 0, 7, 0]"] ;
262 -> 264 ;
265 [label="X[0] <= 2.102\ngini = 0.352\nsamples = 67\nvalue = [79, 15, 3, 3]"] ;
249 -> 265 ;
266 [label="X[13] <= 0.882\ngini = 0.167\nsamples = 51\nvalue = [71, 4, 0, 3]"] ;
265 -> 266 ;
267 [label="gini = 0.0\nsamples = 3\nvalue = [0, 4, 0, 0]"] ;
266 -> 267 ;
268 [label="X[20] <= 0.929\ngini = 0.078\nsamples = 48\nvalue = [71, 0, 0, 3]"] ;
266 -> 268 ;
269 [label="gini = 0.0\nsamples = 43\nvalue = [64, 0, 0, 0]"] ;
268 -> 269 ;
270 [label="X[0] <= 1.542\ngini = 0.42\nsamples = 5\nvalue = [7, 0, 0, 3]"] ;
268 -> 270 ;
271 [label="gini = 0.0\nsamples = 2\nvalue = [0, 0, 0, 3]"] ;
270 -> 271 ;
272 [label="gini = 0.0\nsamples = 3\nvalue = [7, 0, 0, 0]"] ;
270 -> 272 ;
273 [label="X[16] <= 1.007\ngini = 0.599\nsamples = 16\nvalue = [8, 11, 3, 0]"] ;
265 -> 273 ;
274 [label="X[13] <= 0.94\ngini = 0.488\nsamples = 15\nvalue = [8, 11, 0, 0]"] ;
273 -> 274 ;
275 [label="gini = 0.0\nsamples = 6\nvalue = [0, 8, 0, 0]"] ;
274 -> 275 ;
276 [label="X[14] <= 1.037\ngini = 0.397\nsamples = 9\nvalue = [8, 3, 0, 0]"] ;
274 -> 276 ;
277 [label="gini = 0.0\nsamples = 1\nvalue = [0, 2, 0, 0]"] ;
276 -> 277 ;
278 [label="X[5] <= 3.238\ngini = 0.198\nsamples = 8\nvalue = [8, 1, 0, 0]"] ;
276 -> 278 ;
279 [label="X[19] <= 2.889\ngini = 0.5\nsamples = 2\nvalue = [1, 1, 0, 0]"] ;
278 -> 279 ;
280 [label="gini = 0.0\nsamples = 1\nvalue = [0, 1, 0, 0]"] ;
279 -> 280 ;
281 [label="gini = 0.0\nsamples = 1\nvalue = [1, 0, 0, 0]"] ;
279 -> 281 ;
282 [label="gini = 0.0\nsamples = 6\nvalue = [7, 0, 0, 0]"] ;
278 -> 282 ;
283 [label="gini = 0.0\nsamples = 1\nvalue = [0, 0, 3, 0]"] ;
273 -> 283 ;
284 [label="X[14] <= 1.074\ngini = 0.627\nsamples = 260\nvalue = [109, 196, 74, 8]"] ;
0 -> 284 [labeldistance=2.5, labelangle=-45, headlabel="False"] ;
285 [label="X[20] <= 0.718\ngini = 0.25\nsamples = 126\nvalue = [25, 167, 3, 0]"] ;
284 -> 285 ;
286 [label="X[20] <= 0.6\ngini = 0.461\nsamples = 31\nvalue = [18, 32, 0, 0]"] ;
285 -> 286 ;
287 [label="gini = 0.0\nsamples = 10\nvalue = [0, 16, 0, 0]"] ;
286 -> 287 ;
288 [label="X[14] <= 0.943\ngini = 0.498\nsamples = 21\nvalue = [18, 16, 0, 0]"] ;
286 -> 288 ;
289 [label="X[0] <= 2.301\ngini = 0.298\nsamples = 8\nvalue = [2, 9, 0, 0]"] ;
288 -> 289 ;
290 [label="gini = 0.0\nsamples = 4\nvalue = [0, 5, 0, 0]"] ;
289 -> 290 ;
291 [label="X[0] <= 2.607\ngini = 0.444\nsamples = 4\nvalue = [2, 4, 0, 0]"] ;
289 -> 291 ;
292 [label="gini = 0.0\nsamples = 2\nvalue = [2, 0, 0, 0]"] ;
291 -> 292 ;
293 [label="gini = 0.0\nsamples = 2\nvalue = [0, 4, 0, 0]"] ;
291 -> 293 ;
294 [label="X[2] <= 2.035\ngini = 0.423\nsamples = 13\nvalue = [16, 7, 0, 0]"] ;
288 -> 294 ;
295 [label="gini = 0.0\nsamples = 3\nvalue = [6, 0, 0, 0]"] ;
294 -> 295 ;
296 [label="X[20] <= 0.664\ngini = 0.484\nsamples = 10\nvalue = [10, 7, 0, 0]"] ;
294 -> 296 ;
297 [label="X[14] <= 0.981\ngini = 0.278\nsamples = 6\nvalue = [10, 2, 0, 0]"] ;
296 -> 297 ;
298 [label="X[8] <= 1.627\ngini = 0.5\nsamples = 2\nvalue = [2, 2, 0, 0]"] ;
297 -> 298 ;
299 [label="gini = 0.0\nsamples = 1\nvalue = [2, 0, 0, 0]"] ;
298 -> 299 ;
300 [label="gini = 0.0\nsamples = 1\nvalue = [0, 2, 0, 0]"] ;
298 -> 300 ;
301 [label="gini = 0.0\nsamples = 4\nvalue = [8, 0, 0, 0]"] ;
297 -> 301 ;
302 [label="gini = 0.0\nsamples = 4\nvalue = [0, 5, 0, 0]"] ;
296 -> 302 ;
303 [label="X[4] <= 2.327\ngini = 0.13\nsamples = 95\nvalue = [7, 135, 3, 0]"] ;
285 -> 303 ;
304 [label="X[18] <= 0.774\ngini = 0.243\nsamples = 42\nvalue = [5, 51, 3, 0]"] ;
303 -> 304 ;
305 [label="gini = 0.0\nsamples = 3\nvalue = [3, 0, 0, 0]"] ;
304 -> 305 ;
306 [label="X[23] <= 4.923\ngini = 0.166\nsamples = 39\nvalue = [2, 51, 3, 0]"] ;
304 -> 306 ;
307 [label="X[3] <= 2.265\ngini = 0.078\nsamples = 33\nvalue = [0, 47, 2, 0]"] ;
306 -> 307 ;
308 [label="gini = 0.0\nsamples = 21\nvalue = [0, 34, 0, 0]"] ;
307 -> 308 ;
309 [label="X[3] <= 2.316\ngini = 0.231\nsamples = 12\nvalue = [0, 13, 2, 0]"] ;
307 -> 309 ;
310 [label="X[17] <= 0.97\ngini = 0.444\nsamples = 3\nvalue = [0, 1, 2, 0]"] ;
309 -> 310 ;
311 [label="gini = 0.0\nsamples = 1\nvalue = [0, 1, 0, 0]"] ;
310 -> 311 ;
312 [label="gini = 0.0\nsamples = 2\nvalue = [0, 0, 2, 0]"] ;
310 -> 312 ;
313 [label="gini = 0.0\nsamples = 9\nvalue = [0, 12, 0, 0]"] ;
309 -> 313 ;
314 [label="X[11] <= 1.048\ngini = 0.571\nsamples = 6\nvalue = [2, 4, 1, 0]"] ;
306 -> 314 ;
315 [label="gini = 0.0\nsamples = 3\nvalue = [0, 4, 0, 0]"] ;
314 -> 315 ;
316 [label="X[12] <= 1.093\ngini = 0.444\nsamples = 3\nvalue = [2, 0, 1, 0]"] ;
314 -> 316 ;
317 [label="gini = 0.0\nsamples = 1\nvalue = [0, 0, 1, 0]"] ;
316 -> 317 ;
318 [label="gini = 0.0\nsamples = 2\nvalue = [2, 0, 0, 0]"] ;
316 -> 318 ;
319 [label="X[13] <= 3.377\ngini = 0.045\nsamples = 53\nvalue = [2, 84, 0, 0]"] ;
303 -> 319 ;
320 [label="gini = 0.0\nsamples = 40\nvalue = [0, 65, 0, 0]"] ;
319 -> 320 ;
321 [label="X[3] <= 3.824\ngini = 0.172\nsamples = 13\nvalue = [2, 19, 0, 0]"] ;
319 -> 321 ;
322 [label="gini = 0.0\nsamples = 12\nvalue = [0, 19, 0, 0]"] ;
321 -> 322 ;
323 [label="gini = 0.0\nsamples = 1\nvalue = [2, 0, 0, 0]"] ;
321 -> 323 ;
324 [label="X[12] <= 0.905\ngini = 0.647\nsamples = 134\nvalue = [84, 29, 71, 8]"] ;
284 -> 324 ;
325 [label="gini = 0.0\nsamples = 15\nvalue = [0, 18, 0, 0]"] ;
324 -> 325 ;
326 [label="X[18] <= 0.968\ngini = 0.594\nsamples = 119\nvalue = [84, 11, 71, 8]"] ;
324 -> 326 ;
327 [label="X[22] <= 1.17\ngini = 0.411\nsamples = 37\nvalue = [42, 4, 2, 8]"] ;
326 -> 327 ;
328 [label="X[11] <= 1.771\ngini = 0.49\nsamples = 10\nvalue = [6, 0, 0, 8]"] ;
327 -> 328 ;
329 [label="gini = 0.0\nsamples = 5\nvalue = [0, 0, 0, 8]"] ;
328 -> 329 ;
330 [label="gini = 0.0\nsamples = 5\nvalue = [6, 0, 0, 0]"] ;
328 -> 330 ;
331 [label="X[19] <= 0.7\ngini = 0.254\nsamples = 27\nvalue = [36, 4, 2, 0]"] ;
327 -> 331 ;
332 [label="gini = 0.0\nsamples = 1\nvalue = [0, 2, 0, 0]"] ;
331 -> 332 ;
333 [label="X[9] <= 1.414\ngini = 0.185\nsamples = 26\nvalue = [36, 2, 2, 0]"] ;
331 -> 333 ;
334 [label="X[15] <= 0.965\ngini = 0.5\nsamples = 3\nvalue = [2, 0, 2, 0]"] ;
333 -> 334 ;
335 [label="gini = 0.0\nsamples = 2\nvalue = [2, 0, 0, 0]"] ;
334 -> 335 ;
336 [label="gini = 0.0\nsamples = 1\nvalue = [0, 0, 2, 0]"] ;
334 -> 336 ;
337 [label="X[13] <= 0.949\ngini = 0.105\nsamples = 23\nvalue = [34, 2, 0, 0]"] ;
333 -> 337 ;
338 [label="X[11] <= 0.926\ngini = 0.48\nsamples = 3\nvalue = [3, 2, 0, 0]"] ;
337 -> 338 ;
339 [label="gini = 0.0\nsamples = 2\nvalue = [3, 0, 0, 0]"] ;
338 -> 339 ;
340 [label="gini = 0.0\nsamples = 1\nvalue = [0, 2, 0, 0]"] ;
338 -> 340 ;
341 [label="gini = 0.0\nsamples = 20\nvalue = [31, 0, 0, 0]"] ;
337 -> 341 ;
342 [label="X[21] <= 2.27\ngini = 0.528\nsamples = 82\nvalue = [42, 7, 69, 0]"] ;
326 -> 342 ;
343 [label="X[10] <= 1.725\ngini = 0.512\nsamples = 51\nvalue = [38, 1, 34, 0]"] ;
342 -> 343 ;
344 [label="X[6] <= 2.135\ngini = 0.38\nsamples = 29\nvalue = [31, 1, 9, 0]"] ;
343 -> 344 ;
345 [label="X[21] <= 1.735\ngini = 0.231\nsamples = 20\nvalue = [27, 1, 3, 0]"] ;
344 -> 345 ;
346 [label="X[9] <= 1.442\ngini = 0.5\nsamples = 2\nvalue = [0, 1, 1, 0]"] ;
345 -> 346 ;
347 [label="gini = 0.0\nsamples = 1\nvalue = [0, 1, 0, 0]"] ;
346 -> 347 ;
348 [label="gini = 0.0\nsamples = 1\nvalue = [0, 0, 1, 0]"] ;
346 -> 348 ;
349 [label="X[14] <= 1.51\ngini = 0.128\nsamples = 18\nvalue = [27, 0, 2, 0]"] ;
345 -> 349 ;
350 [label="X[16] <= 2.652\ngini = 0.074\nsamples = 16\nvalue = [25, 0, 1, 0]"] ;
349 -> 350 ;
351 [label="gini = 0.0\nsamples = 14\nvalue = [22, 0, 0, 0]"] ;
350 -> 351 ;
352 [label="X[17] <= 3.187\ngini = 0.375\nsamples = 2\nvalue = [3, 0, 1, 0]"] ;
350 -> 352 ;
353 [label="gini = 0.0\nsamples = 1\nvalue = [3, 0, 0, 0]"] ;
352 -> 353 ;
354 [label="gini = 0.0\nsamples = 1\nvalue = [0, 0, 1, 0]"] ;
352 -> 354 ;
355 [label="X[15] <= 1.426\ngini = 0.444\nsamples = 2\nvalue = [2, 0, 1, 0]"] ;
349 -> 355 ;
356 [label="gini = 0.0\nsamples = 1\nvalue = [0, 0, 1, 0]"] ;
355 -> 356 ;
357 [label="gini = 0.0\nsamples = 1\nvalue = [2, 0, 0, 0]"] ;
355 -> 357 ;
358 [label="X[12] <= 1.656\ngini = 0.48\nsamples = 9\nvalue = [4, 0, 6, 0]"] ;
344 -> 358 ;
359 [label="gini = 0.0\nsamples = 3\nvalue = [0, 0, 3, 0]"] ;
358 -> 359 ;
360 [label="X[10] <= 1.575\ngini = 0.49\nsamples = 6\nvalue = [4, 0, 3, 0]"] ;
358 -> 360 ;
361 [label="X[20] <= 1.609\ngini = 0.375\nsamples = 3\nvalue = [1, 0, 3, 0]"] ;
360 -> 361 ;
362 [label="gini = 0.0\nsamples = 2\nvalue = [0, 0, 3, 0]"] ;
361 -> 362 ;
363 [label="gini = 0.0\nsamples = 1\nvalue = [1, 0, 0, 0]"] ;
361 -> 363 ;
364 [label="gini = 0.0\nsamples = 3\nvalue = [3, 0, 0, 0]"] ;
360 -> 364 ;
365 [label="X[8] <= 2.39\ngini = 0.342\nsamples = 22\nvalue = [7, 0, 25, 0]"] ;
343 -> 365 ;
366 [label="X[13] <= 3.666\ngini = 0.191\nsamples = 19\nvalue = [3, 0, 25, 0]"] ;
365 -> 366 ;
367 [label="X[19] <= 0.692\ngini = 0.077\nsamples = 17\nvalue = [1, 0, 24, 0]"] ;
366 -> 367 ;
368 [label="gini = 0.0\nsamples = 1\nvalue = [1, 0, 0, 0]"] ;
367 -> 368 ;
369 [label="gini = 0.0\nsamples = 16\nvalue = [0, 0, 24, 0]"] ;
367 -> 369 ;
370 [label="X[0] <= 2.14\ngini = 0.444\nsamples = 2\nvalue = [2, 0, 1, 0]"] ;
366 -> 370 ;
371 [label="gini = 0.0\nsamples = 1\nvalue = [2, 0, 0, 0]"] ;
370 -> 371 ;
372 [label="gini = 0.0\nsamples = 1\nvalue = [0, 0, 1, 0]"] ;
370 -> 372 ;
373 [label="gini = 0.0\nsamples = 3\nvalue = [4, 0, 0, 0]"] ;
365 -> 373 ;
374 [label="X[8] <= 1.648\ngini = 0.369\nsamples = 31\nvalue = [4, 6, 35, 0]"] ;
342 -> 374 ;
375 [label="X[19] <= 1.147\ngini = 0.291\nsamples = 29\nvalue = [4, 3, 35, 0]"] ;
374 -> 375 ;
376 [label="gini = 0.0\nsamples = 2\nvalue = [3, 0, 0, 0]"] ;
375 -> 376 ;
377 [label="X[20] <= 3.14\ngini = 0.188\nsamples = 27\nvalue = [1, 3, 35, 0]"] ;
375 -> 377 ;
378 [label="X[19] <= 2.516\ngini = 0.057\nsamples = 23\nvalue = [1, 0, 33, 0]"] ;
377 -> 378 ;
379 [label="gini = 0.0\nsamples = 19\nvalue = [0, 0, 29, 0]"] ;
378 -> 379 ;
380 [label="X[10] <= 1.604\ngini = 0.32\nsamples = 4\nvalue = [1, 0, 4, 0]"] ;
378 -> 380 ;
381 [label="gini = 0.0\nsamples = 3\nvalue = [0, 0, 4, 0]"] ;
380 -> 381 ;
382 [label="gini = 0.0\nsamples = 1\nvalue = [1, 0, 0, 0]"] ;
380 -> 382 ;
383 [label="X[3] <= 1.473\ngini = 0.48\nsamples = 4\nvalue = [0, 3, 2, 0]"] ;
377 -> 383 ;
384 [label="gini = 0.0\nsamples = 3\nvalue = [0, 3, 0, 0]"] ;
383 -> 384 ;
385 [label="gini = 0.0\nsamples = 1\nvalue = [0, 0, 2, 0]"] ;
383 -> 385 ;
386 [label="gini = 0.0\nsamples = 2\nvalue = [0, 3, 0, 0]"] ;
374 -> 386 ;
}