digraph Tree {
node [shape=box] ;
0 [label="X[3] <= 1.45\ngini = 0.662\nsamples = 1259\nvalue = [846, 719, 98, 345]"] ;
1 [label="X[13] <= 1.057\ngini = 0.464\nsamples = 168\nvalue = [56, 193, 7, 20]"] ;
0 -> 1 [labeldistance=2.5, labelangle=45, headlabel="True"] ;
2 [label="X[3] <= 1.21\ngini = 0.023\nsamples = 52\nvalue = [0, 85, 1, 0]"] ;
1 -> 2 ;
3 [label="gini = 0.0\nsamples = 1\nvalue = [0, 0, 1, 0]"] ;
2 -> 3 ;
4 [label="gini = 0.0\nsamples = 51\nvalue = [0, 85, 0, 0]"] ;
2 -> 4 ;
5 [label="X[10] <= 2.68\ngini = 0.578\nsamples = 116\nvalue = [56, 108, 6, 20]"] ;
1 -> 5 ;
6 [label="X[13] <= 1.738\ngini = 0.361\nsamples = 49\nvalue = [12, 65, 6, 0]"] ;
5 -> 6 ;
7 [label="X[11] <= 2.218\ngini = 0.58\nsamples = 12\nvalue = [9, 10, 2, 0]"] ;
6 -> 7 ;
8 [label="X[19] <= 0.842\ngini = 0.57\nsamples = 10\nvalue = [9, 5, 2, 0]"] ;
7 -> 8 ;
9 [label="X[14] <= 0.892\ngini = 0.298\nsamples = 7\nvalue = [9, 2, 0, 0]"] ;
8 -> 9 ;
10 [label="gini = 0.0\nsamples = 2\nvalue = [0, 2, 0, 0]"] ;
9 -> 10 ;
11 [label="gini = 0.0\nsamples = 5\nvalue = [9, 0, 0, 0]"] ;
9 -> 11 ;
12 [label="X[8] <= 3.238\ngini = 0.48\nsamples = 3\nvalue = [0, 3, 2, 0]"] ;
8 -> 12 ;
13 [label="gini = 0.0\nsamples = 1\nvalue = [0, 0, 2, 0]"] ;
12 -> 13 ;
14 [label="gini = 0.0\nsamples = 2\nvalue = [0, 3, 0, 0]"] ;
12 -> 14 ;
15 [label="gini = 0.0\nsamples = 2\nvalue = [0, 5, 0, 0]"] ;
7 -> 15 ;
16 [label="X[16] <= 1.091\ngini = 0.207\nsamples = 37\nvalue = [3, 55, 4, 0]"] ;
6 -> 16 ;
17 [label="X[1] <= 0.77\ngini = 0.107\nsamples = 31\nvalue = [3, 50, 0, 0]"] ;
16 -> 17 ;
18 [label="X[16] <= 0.777\ngini = 0.48\nsamples = 3\nvalue = [2, 3, 0, 0]"] ;
17 -> 18 ;
19 [label="gini = 0.0\nsamples = 1\nvalue = [2, 0, 0, 0]"] ;
18 -> 19 ;
20 [label="gini = 0.0\nsamples = 2\nvalue = [0, 3, 0, 0]"] ;
18 -> 20 ;
21 [label="X[2] <= 1.278\ngini = 0.041\nsamples = 28\nvalue = [1, 47, 0, 0]"] ;
17 -> 21 ;
22 [label="X[22] <= 0.579\ngini = 0.219\nsamples = 5\nvalue = [1, 7, 0, 0]"] ;
21 -> 22 ;
23 [label="gini = 0.0\nsamples = 4\nvalue = [0, 7, 0, 0]"] ;
22 -> 23 ;
24 [label="gini = 0.0\nsamples = 1\nvalue = [1, 0, 0, 0]"] ;
22 -> 24 ;
25 [label="gini = 0.0\nsamples = 23\nvalue = [0, 40, 0, 0]"] ;
21 -> 25 ;
26 [label="X[20] <= 3.583\ngini = 0.494\nsamples = 6\nvalue = [0, 5, 4, 0]"] ;
16 -> 26 ;
27 [label="gini = 0.0\nsamples = 3\nvalue = [0, 0, 4, 0]"] ;
26 -> 27 ;
28 [label="gini = 0.0\nsamples = 3\nvalue = [0, 5, 0, 0]"] ;
26 -> 28 ;
29 [label="X[14] <= 0.91\ngini = 0.634\nsamples = 67\nvalue = [44, 43, 0, 20]"] ;
5 -> 29 ;
30 [label="X[4] <= 3.47\ngini = 0.24\nsamples = 30\nvalue = [3, 39, 0, 3]"] ;
29 -> 30 ;
31 [label="X[22] <= 0.609\ngini = 0.172\nsamples = 29\nvalue = [3, 39, 0, 1]"] ;
30 -> 31 ;
32 [label="gini = 0.0\nsamples = 19\nvalue = [0, 30, 0, 0]"] ;
31 -> 32 ;
33 [label="X[11] <= 2.249\ngini = 0.462\nsamples = 10\nvalue = [3, 9, 0, 1]"] ;
31 -> 33 ;
34 [label="X[7] <= 3.246\ngini = 0.314\nsamples = 8\nvalue = [1, 9, 0, 1]"] ;
33 -> 34 ;
35 [label="gini = 0.0\nsamples = 1\nvalue = [0, 0, 0, 1]"] ;
34 -> 35 ;
36 [label="X[7] <= 4.126\ngini = 0.18\nsamples = 7\nvalue = [1, 9, 0, 0]"] ;
34 -> 36 ;
37 [label="X[2] <= 3.198\ngini = 0.5\nsamples = 2\nvalue = [1, 1, 0, 0]"] ;
36 -> 37 ;
38 [label="gini = 0.0\nsamples = 1\nvalue = [1, 0, 0, 0]"] ;
37 -> 38 ;
39 [label="gini = 0.0\nsamples = 1\nvalue = [0, 1, 0, 0]"] ;
37 -> 39 ;
40 [label="gini = 0.0\nsamples = 5\nvalue = [0, 8, 0, 0]"] ;
36 -> 40 ;
41 [label="gini = 0.0\nsamples = 2\nvalue = [2, 0, 0, 0]"] ;
33 -> 41 ;
42 [label="gini = 0.0\nsamples = 1\nvalue = [0, 0, 0, 2]"] ;
30 -> 42 ;
43 [label="X[4] <= 1.705\ngini = 0.483\nsamples = 37\nvalue = [41, 4, 0, 17]"] ;
29 -> 43 ;
44 [label="X[20] <= 0.389\ngini = 0.286\nsamples = 29\nvalue = [41, 3, 0, 5]"] ;
43 -> 44 ;
45 [label="gini = 0.0\nsamples = 4\nvalue = [0, 0, 0, 5]"] ;
44 -> 45 ;
46 [label="X[11] <= 1.701\ngini = 0.127\nsamples = 25\nvalue = [41, 3, 0, 0]"] ;
44 -> 46 ;
47 [label="X[12] <= 1.663\ngini = 0.444\nsamples = 4\nvalue = [6, 3, 0, 0]"] ;
46 -> 47 ;
48 [label="gini = 0.0\nsamples = 3\nvalue = [6, 0, 0, 0]"] ;
47 -> 48 ;
49 [label="gini = 0.0\nsamples = 1\nvalue = [0, 3, 0, 0]"] ;
47 -> 49 ;
50 [label="gini = 0.0\nsamples = 21\nvalue = [35, 0, 0, 0]"] ;
46 -> 50 ;
51 [label="X[22] <= 1.406\ngini = 0.142\nsamples = 8\nvalue = [0, 1, 0, 12]"] ;
43 -> 51 ;
52 [label="gini = 0.0\nsamples = 7\nvalue = [0, 0, 0, 12]"] ;
51 -> 52 ;
53 [label="gini = 0.0\nsamples = 1\nvalue = [0, 1, 0, 0]"] ;
51 -> 53 ;
54 [label="X[13] <= 0.941\ngini = 0.662\nsamples = 1091\nvalue = [790, 526, 91, 325]"] ;
0 -> 54 [labeldistance=2.5, labelangle=-45, headlabel="False"] ;
55 [label="X[14] <= 3.173\ngini = 0.258\nsamples = 175\nvalue = [38, 232, 3, 0]"] ;
54 -> 55 ;
56 [label="X[18] <= 0.706\ngini = 0.165\nsamples = 154\nvalue = [19, 223, 3, 0]"] ;
55 -> 56 ;
57 [label="X[12] <= 0.914\ngini = 0.254\nsamples = 71\nvalue = [17, 97, 0, 0]"] ;
56 -> 57 ;
58 [label="X[23] <= 1.174\ngini = 0.057\nsamples = 43\nvalue = [2, 66, 0, 0]"] ;
57 -> 58 ;
59 [label="X[9] <= 1.714\ngini = 0.32\nsamples = 5\nvalue = [2, 8, 0, 0]"] ;
58 -> 59 ;
60 [label="gini = 0.0\nsamples = 1\nvalue = [2, 0, 0, 0]"] ;
59 -> 60 ;
61 [label="gini = 0.0\nsamples = 4\nvalue = [0, 8, 0, 0]"] ;
59 -> 61 ;
62 [label="gini = 0.0\nsamples = 38\nvalue = [0, 58, 0, 0]"] ;
58 -> 62 ;
63 [label="X[15] <= 1.069\ngini = 0.44\nsamples = 28\nvalue = [15, 31, 0, 0]"] ;
57 -> 63 ;
64 [label="X[16] <= 0.71\ngini = 0.067\nsamples = 20\nvalue = [1, 28, 0, 0]"] ;
63 -> 64 ;
65 [label="X[16] <= 0.616\ngini = 0.245\nsamples = 6\nvalue = [1, 6, 0, 0]"] ;
64 -> 65 ;
66 [label="gini = 0.0\nsamples = 5\nvalue = [0, 6, 0, 0]"] ;
65 -> 66 ;
67 [label="gini = 0.0\nsamples = 1\nvalue = [1, 0, 0, 0]"] ;
65 -> 67 ;
68 [label="gini = 0.0\nsamples = 14\nvalue = [0, 22, 0, 0]"] ;
64 -> 68 ;
69 [label="X[5] <= 2.656\ngini = 0.291\nsamples = 8\nvalue = [14, 3, 0, 0]"] ;
63 -> 69 ;
70 [label="X[17] <= 0.606\ngini = 0.124\nsamples = 7\nvalue = [14, 1, 0, 0]"] ;
69 -> 70 ;
71 [label="gini = 0.0\nsamples = 1\nvalue = [0, 1, 0, 0]"] ;
70 -> 71 ;
72 [label="gini = 0.0\nsamples = 6\nvalue = [14, 0, 0, 0]"] ;
70 -> 72 ;
73 [label="gini = 0.0\nsamples = 1\nvalue = [0, 2, 0, 0]"] ;
69 -> 73 ;
74 [label="X[17] <= 1.033\ngini = 0.074\nsamples = 83\nvalue = [2, 126, 3, 0]"] ;
56 -> 74 ;
75 [label="X[22] <= 4.856\ngini = 0.033\nsamples = 74\nvalue = [2, 117, 0, 0]"] ;
74 -> 75 ;
76 [label="gini = 0.0\nsamples = 50\nvalue = [0, 80, 0, 0]"] ;
75 -> 76 ;
77 [label="X[17] <= 0.774\ngini = 0.097\nsamples = 24\nvalue = [2, 37, 0, 0]"] ;
75 -> 77 ;
78 [label="X[8] <= 1.561\ngini = 0.408\nsamples = 6\nvalue = [2, 5, 0, 0]"] ;
77 -> 78 ;
79 [label="gini = 0.0\nsamples = 1\nvalue = [1, 0, 0, 0]"] ;
78 -> 79 ;
80 [label="X[4] <= 2.406\ngini = 0.278\nsamples = 5\nvalue = [1, 5, 0, 0]"] ;
78 -> 80 ;
81 [label="X[7] <= 2.201\ngini = 0.5\nsamples = 2\nvalue = [1, 1, 0, 0]"] ;
80 -> 81 ;
82 [label="gini = 0.0\nsamples = 1\nvalue = [0, 1, 0, 0]"] ;
81 -> 82 ;
83 [label="gini = 0.0\nsamples = 1\nvalue = [1, 0, 0, 0]"] ;
81 -> 83 ;
84 [label="gini = 0.0\nsamples = 3\nvalue = [0, 4, 0, 0]"] ;
80 -> 84 ;
85 [label="gini = 0.0\nsamples = 18\nvalue = [0, 32, 0, 0]"] ;
77 -> 85 ;
86 [label="X[19] <= 0.9\ngini = 0.375\nsamples = 9\nvalue = [0, 9, 3, 0]"] ;
74 -> 86 ;
87 [label="gini = 0.0\nsamples = 8\nvalue = [0, 9, 0, 0]"] ;
86 -> 87 ;
88 [label="gini = 0.0\nsamples = 1\nvalue = [0, 0, 3, 0]"] ;
86 -> 88 ;
89 [label="X[8] <= 1.383\ngini = 0.436\nsamples = 21\nvalue = [19, 9, 0, 0]"] ;
55 -> 89 ;
90 [label="gini = 0.0\nsamples = 4\nvalue = [0, 6, 0, 0]"] ;
89 -> 90 ;
91 [label="X[2] <= 1.711\ngini = 0.236\nsamples = 17\nvalue = [19, 3, 0, 0]"] ;
89 -> 91 ;
92 [label="gini = 0.0\nsamples = 3\nvalue = [0, 3, 0, 0]"] ;
91 -> 92 ;
93 [label="gini = 0.0\nsamples = 14\nvalue = [19, 0, 0, 0]"] ;
91 -> 93 ;
94 [label="X[7] <= 1.802\ngini = 0.64\nsamples = 916\nvalue = [752, 294, 88, 325]"] ;
54 -> 94 ;
95 [label="X[16] <= 1.073\ngini = 0.538\nsamples = 262\nvalue = [267, 106, 53, 4]"] ;
94 -> 95 ;
96 [label="X[14] <= 0.902\ngini = 0.459\nsamples = 181\nvalue = [191, 93, 1, 4]"] ;
95 -> 96 ;
97 [label="X[3] <= 2.557\ngini = 0.028\nsamples = 45\nvalue = [1, 69, 0, 0]"] ;
96 -> 97 ;
98 [label="X[9] <= 1.841\ngini = 0.153\nsamples = 6\nvalue = [1, 11, 0, 0]"] ;
97 -> 98 ;
99 [label="X[22] <= 1.188\ngini = 0.5\nsamples = 2\nvalue = [1, 1, 0, 0]"] ;
98 -> 99 ;
100 [label="gini = 0.0\nsamples = 1\nvalue = [1, 0, 0, 0]"] ;
99 -> 100 ;
101 [label="gini = 0.0\nsamples = 1\nvalue = [0, 1, 0, 0]"] ;
99 -> 101 ;
102 [label="gini = 0.0\nsamples = 4\nvalue = [0, 10, 0, 0]"] ;
98 -> 102 ;
103 [label="gini = 0.0\nsamples = 39\nvalue = [0, 58, 0, 0]"] ;
97 -> 103 ;
104 [label="X[12] <= 0.856\ngini = 0.235\nsamples = 136\nvalue = [190, 24, 1, 4]"] ;
96 -> 104 ;
105 [label="gini = 0.0\nsamples = 6\nvalue = [0, 9, 0, 0]"] ;
104 -> 105 ;
106 [label="X[2] <= 3.78\ngini = 0.176\nsamples = 130\nvalue = [190, 15, 1, 4]"] ;
104 -> 106 ;
107 [label="X[11] <= 0.895\ngini = 0.113\nsamples = 94\nvalue = [142, 8, 1, 0]"] ;
106 -> 107 ;
108 [label="X[20] <= 1.28\ngini = 0.444\nsamples = 5\nvalue = [2, 4, 0, 0]"] ;
107 -> 108 ;
109 [label="gini = 0.0\nsamples = 1\nvalue = [1, 0, 0, 0]"] ;
108 -> 109 ;
110 [label="X[9] <= 0.903\ngini = 0.32\nsamples = 4\nvalue = [1, 4, 0, 0]"] ;
108 -> 110 ;
111 [label="gini = 0.0\nsamples = 3\nvalue = [0, 4, 0, 0]"] ;
110 -> 111 ;
112 [label="gini = 0.0\nsamples = 1\nvalue = [1, 0, 0, 0]"] ;
110 -> 112 ;
113 [label="X[4] <= 1.548\ngini = 0.067\nsamples = 89\nvalue = [140, 4, 1, 0]"] ;
107 -> 113 ;
114 [label="X[14] <= 2.975\ngini = 0.238\nsamples = 21\nvalue = [25, 4, 0, 0]"] ;
113 -> 114 ;
115 [label="gini = 0.0\nsamples = 2\nvalue = [0, 4, 0, 0]"] ;
114 -> 115 ;
116 [label="gini = 0.0\nsamples = 19\nvalue = [25, 0, 0, 0]"] ;
114 -> 116 ;
117 [label="X[5] <= 1.457\ngini = 0.017\nsamples = 68\nvalue = [115, 0, 1, 0]"] ;
113 -> 117 ;
118 [label="X[7] <= 1.303\ngini = 0.245\nsamples = 5\nvalue = [6, 0, 1, 0]"] ;
117 -> 118 ;
119 [label="gini = 0.0\nsamples = 1\nvalue = [0, 0, 1, 0]"] ;
118 -> 119 ;
120 [label="gini = 0.0\nsamples = 4\nvalue = [6, 0, 0, 0]"] ;
118 -> 120 ;
121 [label="gini = 0.0\nsamples = 63\nvalue = [109, 0, 0, 0]"] ;
117 -> 121 ;
122 [label="X[2] <= 3.793\ngini = 0.319\nsamples = 36\nvalue = [48, 7, 0, 4]"] ;
106 -> 122 ;
123 [label="gini = 0.0\nsamples = 1\nvalue = [0, 2, 0, 0]"] ;
122 -> 123 ;
124 [label="X[11] <= 1.508\ngini = 0.278\nsamples = 35\nvalue = [48, 5, 0, 4]"] ;
122 -> 124 ;
125 [label="X[23] <= 1.811\ngini = 0.19\nsamples = 28\nvalue = [42, 5, 0, 0]"] ;
124 -> 125 ;
126 [label="X[11] <= 0.909\ngini = 0.05\nsamples = 22\nvalue = [38, 1, 0, 0]"] ;
125 -> 126 ;
127 [label="gini = 0.0\nsamples = 1\nvalue = [0, 1, 0, 0]"] ;
126 -> 127 ;
128 [label="gini = 0.0\nsamples = 21\nvalue = [38, 0, 0, 0]"] ;
126 -> 128 ;
129 [label="X[9] <= 2.157\ngini = 0.5\nsamples = 6\nvalue = [4, 4, 0, 0]"] ;
125 -> 129 ;
130 [label="X[15] <= 0.671\ngini = 0.444\nsamples = 5\nvalue = [4, 2, 0, 0]"] ;
129 -> 130 ;
131 [label="gini = 0.0\nsamples = 1\nvalue = [0, 1, 0, 0]"] ;
130 -> 131 ;
132 [label="X[17] <= 0.748\ngini = 0.32\nsamples = 4\nvalue = [4, 1, 0, 0]"] ;
130 -> 132 ;
133 [label="gini = 0.0\nsamples = 3\nvalue = [4, 0, 0, 0]"] ;
132 -> 133 ;
134 [label="gini = 0.0\nsamples = 1\nvalue = [0, 1, 0, 0]"] ;
132 -> 134 ;
135 [label="gini = 0.0\nsamples = 1\nvalue = [0, 2, 0, 0]"] ;
129 -> 135 ;
136 [label="X[20] <= 0.528\ngini = 0.48\nsamples = 7\nvalue = [6, 0, 0, 4]"] ;
124 -> 136 ;
137 [label="X[3] <= 4.245\ngini = 0.444\nsamples = 3\nvalue = [2, 0, 0, 4]"] ;
136 -> 137 ;
138 [label="gini = 0.0\nsamples = 1\nvalue = [2, 0, 0, 0]"] ;
137 -> 138 ;
139 [label="gini = 0.0\nsamples = 2\nvalue = [0, 0, 0, 4]"] ;
137 -> 139 ;
140 [label="gini = 0.0\nsamples = 4\nvalue = [4, 0, 0, 0]"] ;
136 -> 140 ;
141 [label="X[17] <= 0.833\ngini = 0.565\nsamples = 81\nvalue = [76, 13, 52, 0]"] ;
95 -> 141 ;
142 [label="gini = 0.0\nsamples = 23\nvalue = [38, 0, 0, 0]"] ;
141 -> 142 ;
143 [label="X[22] <= 1.351\ngini = 0.593\nsamples = 58\nvalue = [38, 13, 52, 0]"] ;
141 -> 143 ;
144 [label="gini = 0.0\nsamples = 5\nvalue = [0, 8, 0, 0]"] ;
143 -> 144 ;
145 [label="X[3] <= 2.111\ngini = 0.538\nsamples = 53\nvalue = [38, 5, 52, 0]"] ;
143 -> 145 ;
146 [label="X[14] <= 1.496\ngini = 0.439\nsamples = 26\nvalue = [29, 0, 14, 0]"] ;
145 -> 146 ;
147 [label="X[14] <= 1.358\ngini = 0.32\nsamples = 21\nvalue = [28, 0, 7, 0]"] ;
146 -> 147 ;
148 [label="X[17] <= 2.492\ngini = 0.492\nsamples = 10\nvalue = [9, 0, 7, 0]"] ;
147 -> 148 ;
149 [label="gini = 0.0\nsamples = 4\nvalue = [7, 0, 0, 0]"] ;
148 -> 149 ;
150 [label="X[8] <= 1.575\ngini = 0.346\nsamples = 6\nvalue = [2, 0, 7, 0]"] ;
148 -> 150 ;
151 [label="gini = 0.0\nsamples = 5\nvalue = [0, 0, 7, 0]"] ;
150 -> 151 ;
152 [label="gini = 0.0\nsamples = 1\nvalue = [2, 0, 0, 0]"] ;
150 -> 152 ;
153 [label="gini = 0.0\nsamples = 11\nvalue = [19, 0, 0, 0]"] ;
147 -> 153 ;
154 [label="X[8] <= 2.232\ngini = 0.219\nsamples = 5\nvalue = [1, 0, 7, 0]"] ;
146 -> 154 ;
155 [label="gini = 0.0\nsamples = 4\nvalue = [0, 0, 7, 0]"] ;
154 -> 155 ;
156 [label="gini = 0.0\nsamples = 1\nvalue = [1, 0, 0, 0]"] ;
154 -> 156 ;
157 [label="X[4] <= 1.36\ngini = 0.427\nsamples = 27\nvalue = [9, 5, 38, 0]"] ;
145 -> 157 ;
158 [label="gini = 0.0\nsamples = 1\nvalue = [0, 5, 0, 0]"] ;
157 -> 158 ;
159 [label="X[3] <= 2.226\ngini = 0.31\nsamples = 26\nvalue = [9, 0, 38, 0]"] ;
157 -> 159 ;
160 [label="gini = 0.0\nsamples = 14\nvalue = [0, 0, 24, 0]"] ;
159 -> 160 ;
161 [label="X[23] <= 4.184\ngini = 0.476\nsamples = 12\nvalue = [9, 0, 14, 0]"] ;
159 -> 161 ;
162 [label="X[11] <= 1.9\ngini = 0.473\nsamples = 5\nvalue = [8, 0, 5, 0]"] ;
161 -> 162 ;
163 [label="gini = 0.0\nsamples = 4\nvalue = [8, 0, 0, 0]"] ;
162 -> 163 ;
164 [label="gini = 0.0\nsamples = 1\nvalue = [0, 0, 5, 0]"] ;
162 -> 164 ;
165 [label="X[14] <= 1.084\ngini = 0.18\nsamples = 7\nvalue = [1, 0, 9, 0]"] ;
161 -> 165 ;
166 [label="gini = 0.0\nsamples = 1\nvalue = [1, 0, 0, 0]"] ;
165 -> 166 ;
167 [label="gini = 0.0\nsamples = 6\nvalue = [0, 0, 9, 0]"] ;
165 -> 167 ;
168 [label="X[14] <= 0.894\ngini = 0.646\nsamples = 654\nvalue = [485, 188, 35, 321]"] ;
94 -> 168 ;
169 [label="X[2] <= 2.411\ngini = 0.18\nsamples = 100\nvalue = [12, 138, 0, 3]"] ;
168 -> 169 ;
170 [label="X[6] <= 3.201\ngini = 0.061\nsamples = 44\nvalue = [0, 62, 0, 2]"] ;
169 -> 170 ;
171 [label="X[19] <= 0.517\ngini = 0.219\nsamples = 5\nvalue = [0, 7, 0, 1]"] ;
170 -> 171 ;
172 [label="gini = 0.0\nsamples = 1\nvalue = [0, 0, 0, 1]"] ;
171 -> 172 ;
173 [label="gini = 0.0\nsamples = 4\nvalue = [0, 7, 0, 0]"] ;
171 -> 173 ;
174 [label="X[20] <= 0.816\ngini = 0.035\nsamples = 39\nvalue = [0, 55, 0, 1]"] ;
170 -> 174 ;
175 [label="gini = 0.0\nsamples = 29\nvalue = [0, 43, 0, 0]"] ;
174 -> 175 ;
176 [label="X[20] <= 0.822\ngini = 0.142\nsamples = 10\nvalue = [0, 12, 0, 1]"] ;
174 -> 176 ;
177 [label="gini = 0.0\nsamples = 1\nvalue = [0, 0, 0, 1]"] ;
176 -> 177 ;
178 [label="gini = 0.0\nsamples = 9\nvalue = [0, 12, 0, 0]"] ;
176 -> 178 ;
179 [label="X[11] <= 2.648\ngini = 0.252\nsamples = 56\nvalue = [12, 76, 0, 1]"] ;
169 -> 179 ;
180 [label="X[21] <= 4.615\ngini = 0.126\nsamples = 47\nvalue = [4, 70, 0, 1]"] ;
179 -> 180 ;
181 [label="X[16] <= 0.5\ngini = 0.03\nsamples = 41\nvalue = [0, 64, 0, 1]"] ;
180 -> 181 ;
182 [label="X[21] <= 1.06\ngini = 0.083\nsamples = 17\nvalue = [0, 22, 0, 1]"] ;
181 -> 182 ;
183 [label="gini = 0.0\nsamples = 13\nvalue = [0, 18, 0, 0]"] ;
182 -> 183 ;
184 [label="X[0] <= 1.116\ngini = 0.32\nsamples = 4\nvalue = [0, 4, 0, 1]"] ;
182 -> 184 ;
185 [label="gini = 0.0\nsamples = 1\nvalue = [0, 0, 0, 1]"] ;
184 -> 185 ;
186 [label="gini = 0.0\nsamples = 3\nvalue = [0, 4, 0, 0]"] ;
184 -> 186 ;
187 [label="gini = 0.0\nsamples = 24\nvalue = [0, 42, 0, 0]"] ;
181 -> 187 ;
188 [label="X[1] <= 2.295\ngini = 0.48\nsamples = 6\nvalue = [4, 6, 0, 0]"] ;
180 -> 188 ;
189 [label="gini = 0.0\nsamples = 2\nvalue = [4, 0, 0, 0]"] ;
188 -> 189 ;
190 [label="gini = 0.0\nsamples = 4\nvalue = [0, 6, 0, 0]"] ;
188 -> 190 ;
191 [label="X[23] <= 1.282\ngini = 0.49\nsamples = 9\nvalue = [8, 6, 0, 0]"] ;
179 -> 191 ;
192 [label="gini = 0.0\nsamples = 4\nvalue = [5, 0, 0, 0]"] ;
191 -> 192 ;
193 [label="X[12] <= 0.917\ngini = 0.444\nsamples = 5\nvalue = [3, 6, 0, 0]"] ;
191 -> 193 ;
194 [label="gini = 0.0\nsamples = 1\nvalue = [3, 0, 0, 0]"] ;
193 -> 194 ;
195 [label="gini = 0.0\nsamples = 4\nvalue = [0, 6, 0, 0]"] ;
193 -> 195 ;
196 [label="X[19] <= 0.537\ngini = 0.572\nsamples = 554\nvalue = [473, 50, 35, 318]"] ;
168 -> 196 ;
197 [label="X[18] <= 0.505\ngini = 0.408\nsamples = 200\nvalue = [73, 11, 0, 230]"] ;
196 -> 197 ;
198 [label="X[13] <= 2.265\ngini = 0.275\nsamples = 136\nvalue = [23, 11, 0, 183]"] ;
197 -> 198 ;
199 [label="X[8] <= 2.331\ngini = 0.145\nsamples = 121\nvalue = [14, 1, 0, 177]"] ;
198 -> 199 ;
200 [label="X[23] <= 1.298\ngini = 0.346\nsamples = 29\nvalue = [10, 0, 0, 35]"] ;
199 -> 200 ;
201 [label="X[10] <= 1.74\ngini = 0.08\nsamples = 17\nvalue = [1, 0, 0, 23]"] ;
200 -> 201 ;
202 [label="X[13] <= 1.698\ngini = 0.278\nsamples = 6\nvalue = [1, 0, 0, 5]"] ;
201 -> 202 ;
203 [label="gini = 0.0\nsamples = 5\nvalue = [0, 0, 0, 5]"] ;
202 -> 203 ;
204 [label="gini = 0.0\nsamples = 1\nvalue = [1, 0, 0, 0]"] ;
202 -> 204 ;
205 [label="gini = 0.0\nsamples = 11\nvalue = [0, 0, 0, 18]"] ;
201 -> 205 ;
206 [label="X[22] <= 0.816\ngini = 0.49\nsamples = 12\nvalue = [9, 0, 0, 12]"] ;
200 -> 206 ;
207 [label="gini = 0.0\nsamples = 3\nvalue = [6, 0, 0, 0]"] ;
206 -> 207 ;
208 [label="X[14] <= 1.368\ngini = 0.32\nsamples = 9\nvalue = [3, 0, 0, 12]"] ;
206 -> 208 ;
209 [label="gini = 0.0\nsamples = 1\nvalue = [1, 0, 0, 0]"] ;
208 -> 209 ;
210 [label="X[23] <= 1.302\ngini = 0.245\nsamples = 8\nvalue = [2, 0, 0, 12]"] ;
208 -> 210 ;
211 [label="gini = 0.0\nsamples = 1\nvalue = [2, 0, 0, 0]"] ;
210 -> 211 ;
212 [label="gini = 0.0\nsamples = 7\nvalue = [0, 0, 0, 12]"] ;
210 -> 212 ;
213 [label="X[9] <= 1.362\ngini = 0.066\nsamples = 92\nvalue = [4, 1, 0, 142]"] ;
199 -> 213 ;
214 [label="X[22] <= 1.397\ngini = 0.5\nsamples = 2\nvalue = [1, 1, 0, 0]"] ;
213 -> 214 ;
215 [label="gini = 0.0\nsamples = 1\nvalue = [0, 1, 0, 0]"] ;
214 -> 215 ;
216 [label="gini = 0.0\nsamples = 1\nvalue = [1, 0, 0, 0]"] ;
214 -> 216 ;
217 [label="X[3] <= 5.002\ngini = 0.041\nsamples = 90\nvalue = [3, 0, 0, 142]"] ;
213 -> 217 ;
218 [label="X[0] <= 1.79\ngini = 0.014\nsamples = 88\nvalue = [1, 0, 0, 142]"] ;
217 -> 218 ;
219 [label="gini = 0.0\nsamples = 86\nvalue = [0, 0, 0, 141]"] ;
218 -> 219 ;
220 [label="X[13] <= 1.597\ngini = 0.5\nsamples = 2\nvalue = [1, 0, 0, 1]"] ;
218 -> 220 ;
221 [label="gini = 0.0\nsamples = 1\nvalue = [1, 0, 0, 0]"] ;
220 -> 221 ;
222 [label="gini = 0.0\nsamples = 1\nvalue = [0, 0, 0, 1]"] ;
220 -> 222 ;
223 [label="gini = 0.0\nsamples = 2\nvalue = [2, 0, 0, 0]"] ;
217 -> 223 ;
224 [label="X[7] <= 2.706\ngini = 0.653\nsamples = 15\nvalue = [9, 10, 0, 6]"] ;
198 -> 224 ;
225 [label="X[16] <= 0.46\ngini = 0.48\nsamples = 10\nvalue = [9, 0, 0, 6]"] ;
224 -> 225 ;
226 [label="gini = 0.0\nsamples = 5\nvalue = [9, 0, 0, 0]"] ;
225 -> 226 ;
227 [label="gini = 0.0\nsamples = 5\nvalue = [0, 0, 0, 6]"] ;
225 -> 227 ;
228 [label="gini = 0.0\nsamples = 5\nvalue = [0, 10, 0, 0]"] ;
224 -> 228 ;
229 [label="X[14] <= 1.422\ngini = 0.5\nsamples = 64\nvalue = [50, 0, 0, 47]"] ;
197 -> 229 ;
230 [label="X[1] <= 1.637\ngini = 0.137\nsamples = 20\nvalue = [25, 0, 0, 2]"] ;
229 -> 230 ;
231 [label="gini = 0.0\nsamples = 18\nvalue = [24, 0, 0, 0]"] ;
230 -> 231 ;
232 [label="X[9] <= 3.691\ngini = 0.444\nsamples = 2\nvalue = [1, 0, 0, 2]"] ;
230 -> 232 ;
233 [label="gini = 0.0\nsamples = 1\nvalue = [1, 0, 0, 0]"] ;
232 -> 233 ;
234 [label="gini = 0.0\nsamples = 1\nvalue = [0, 0, 0, 2]"] ;
232 -> 234 ;
235 [label="X[16] <= 0.674\ngini = 0.459\nsamples = 44\nvalue = [25, 0, 0, 45]"] ;
229 -> 235 ;
236 [label="gini = 0.0\nsamples = 5\nvalue = [8, 0, 0, 0]"] ;
235 -> 236 ;
237 [label="X[4] <= 1.968\ngini = 0.398\nsamples = 39\nvalue = [17, 0, 0, 45]"] ;
235 -> 237 ;
238 [label="X[18] <= 1.838\ngini = 0.48\nsamples = 8\nvalue = [6, 0, 0, 4]"] ;
237 -> 238 ;
239 [label="X[7] <= 1.851\ngini = 0.444\nsamples = 5\nvalue = [2, 0, 0, 4]"] ;
238 -> 239 ;
240 [label="gini = 0.0\nsamples = 1\nvalue = [2, 0, 0, 0]"] ;
239 -> 240 ;
241 [label="gini = 0.0\nsamples = 4\nvalue = [0, 0, 0, 4]"] ;
239 -> 241 ;
242 [label="gini = 0.0\nsamples = 3\nvalue = [4, 0, 0, 0]"] ;
238 -> 242 ;
243 [label="X[1] <= 1.416\ngini = 0.334\nsamples = 31\nvalue = [11, 0, 0, 41]"] ;
237 -> 243 ;
244 [label="X[9] <= 2.702\ngini = 0.494\nsamples = 4\nvalue = [5, 0, 0, 4]"] ;
243 -> 244 ;
245 [label="gini = 0.0\nsamples = 1\nvalue = [0, 0, 0, 3]"] ;
244 -> 245 ;
246 [label="X[13] <= 4.39\ngini = 0.278\nsamples = 3\nvalue = [5, 0, 0, 1]"] ;
244 -> 246 ;
247 [label="gini = 0.0\nsamples = 2\nvalue = [5, 0, 0, 0]"] ;
246 -> 247 ;
248 [label="gini = 0.0\nsamples = 1\nvalue = [0, 0, 0, 1]"] ;
246 -> 248 ;
249 [label="X[9] <= 4.39\ngini = 0.24\nsamples = 27\nvalue = [6, 0, 0, 37]"] ;
243 -> 249 ;
250 [label="X[12] <= 1.601\ngini = 0.176\nsamples = 26\nvalue = [4, 0, 0, 37]"] ;
249 -> 250 ;
251 [label="X[15] <= 0.898\ngini = 0.444\nsamples = 3\nvalue = [2, 0, 0, 1]"] ;
250 -> 251 ;
252 [label="gini = 0.0\nsamples = 2\nvalue = [2, 0, 0, 0]"] ;
251 -> 252 ;
253 [label="gini = 0.0\nsamples = 1\nvalue = [0, 0, 0, 1]"] ;
251 -> 253 ;
254 [label="X[7] <= 1.984\ngini = 0.1\nsamples = 23\nvalue = [2, 0, 0, 36]"] ;
250 -> 254 ;
255 [label="gini = 0.0\nsamples = 1\nvalue = [1, 0, 0, 0]"] ;
254 -> 255 ;
256 [label="X[1] <= 1.507\ngini = 0.053\nsamples = 22\nvalue = [1, 0, 0, 36]"] ;
254 -> 256 ;
257 [label="X[4] <= 2.672\ngini = 0.245\nsamples = 5\nvalue = [1, 0, 0, 6]"] ;
256 -> 257 ;
258 [label="gini = 0.0\nsamples = 1\nvalue = [1, 0, 0, 0]"] ;
257 -> 258 ;
259 [label="gini = 0.0\nsamples = 4\nvalue = [0, 0, 0, 6]"] ;
257 -> 259 ;
260 [label="gini = 0.0\nsamples = 17\nvalue = [0, 0, 0, 30]"] ;
256 -> 260 ;
261 [label="gini = 0.0\nsamples = 1\nvalue = [2, 0, 0, 0]"] ;
249 -> 261 ;
262 [label="X[9] <= 2.839\ngini = 0.46\nsamples = 354\nvalue = [400, 39, 35, 88]"] ;
196 -> 262 ;
263 [label="X[18] <= 0.505\ngini = 0.589\nsamples = 190\nvalue = [166, 12, 33, 85]"] ;
262 -> 263 ;
264 [label="X[9] <= 2.083\ngini = 0.03\nsamples = 44\nvalue = [1, 0, 0, 64]"] ;
263 -> 264 ;
265 [label="X[1] <= 2.341\ngini = 0.5\nsamples = 2\nvalue = [1, 0, 0, 1]"] ;
264 -> 265 ;
266 [label="gini = 0.0\nsamples = 1\nvalue = [1, 0, 0, 0]"] ;
265 -> 266 ;
267 [label="gini = 0.0\nsamples = 1\nvalue = [0, 0, 0, 1]"] ;
265 -> 267 ;
268 [label="gini = 0.0\nsamples = 42\nvalue = [0, 0, 0, 63]"] ;
264 -> 268 ;
269 [label="X[23] <= 1.71\ngini = 0.458\nsamples = 146\nvalue = [165, 12, 33, 21]"] ;
263 -> 269 ;
270 [label="X[10] <= 2.188\ngini = 0.335\nsamples = 116\nvalue = [144, 10, 4, 21]"] ;
269 -> 270 ;
271 [label="X[12] <= 1.12\ngini = 0.209\nsamples = 63\nvalue = [85, 7, 4, 0]"] ;
270 -> 271 ;
272 [label="X[15] <= 0.54\ngini = 0.484\nsamples = 11\nvalue = [10, 7, 0, 0]"] ;
271 -> 272 ;
273 [label="gini = 0.0\nsamples = 2\nvalue = [0, 3, 0, 0]"] ;
272 -> 273 ;
274 [label="X[11] <= 1.178\ngini = 0.408\nsamples = 9\nvalue = [10, 4, 0, 0]"] ;
272 -> 274 ;
275 [label="X[3] <= 2.557\ngini = 0.18\nsamples = 6\nvalue = [9, 1, 0, 0]"] ;
274 -> 275 ;
276 [label="X[17] <= 0.518\ngini = 0.5\nsamples = 2\nvalue = [1, 1, 0, 0]"] ;
275 -> 276 ;
277 [label="gini = 0.0\nsamples = 1\nvalue = [1, 0, 0, 0]"] ;
276 -> 277 ;
278 [label="gini = 0.0\nsamples = 1\nvalue = [0, 1, 0, 0]"] ;
276 -> 278 ;
279 [label="gini = 0.0\nsamples = 4\nvalue = [8, 0, 0, 0]"] ;
275 -> 279 ;
280 [label="X[20] <= 0.613\ngini = 0.375\nsamples = 3\nvalue = [1, 3, 0, 0]"] ;
274 -> 280 ;
281 [label="gini = 0.0\nsamples = 1\nvalue = [1, 0, 0, 0]"] ;
280 -> 281 ;
282 [label="gini = 0.0\nsamples = 2\nvalue = [0, 3, 0, 0]"] ;
280 -> 282 ;
283 [label="X[16] <= 3.248\ngini = 0.096\nsamples = 52\nvalue = [75, 0, 4, 0]"] ;
271 -> 283 ;
284 [label="gini = 0.0\nsamples = 44\nvalue = [64, 0, 0, 0]"] ;
283 -> 284 ;
285 [label="X[19] <= 1.863\ngini = 0.391\nsamples = 8\nvalue = [11, 0, 4, 0]"] ;
283 -> 285 ;
286 [label="gini = 0.0\nsamples = 6\nvalue = [11, 0, 0, 0]"] ;
285 -> 286 ;
287 [label="gini = 0.0\nsamples = 2\nvalue = [0, 0, 4, 0]"] ;
285 -> 287 ;
288 [label="X[10] <= 2.31\ngini = 0.429\nsamples = 53\nvalue = [59, 3, 0, 21]"] ;
270 -> 288 ;
289 [label="gini = 0.0\nsamples = 4\nvalue = [0, 0, 0, 6]"] ;
288 -> 289 ;
290 [label="X[15] <= 0.729\ngini = 0.373\nsamples = 49\nvalue = [59, 3, 0, 15]"] ;
288 -> 290 ;
291 [label="gini = 0.0\nsamples = 16\nvalue = [28, 0, 0, 0]"] ;
290 -> 291 ;
292 [label="X[17] <= 0.781\ngini = 0.502\nsamples = 33\nvalue = [31, 3, 0, 15]"] ;
290 -> 292 ;
293 [label="X[8] <= 2.043\ngini = 0.454\nsamples = 29\nvalue = [30, 3, 0, 10]"] ;
292 -> 293 ;
294 [label="gini = 0.0\nsamples = 1\nvalue = [0, 2, 0, 0]"] ;
293 -> 294 ;
295 [label="X[16] <= 2.276\ngini = 0.405\nsamples = 28\nvalue = [30, 1, 0, 10]"] ;
293 -> 295 ;
296 [label="X[23] <= 0.876\ngini = 0.342\nsamples = 26\nvalue = [30, 1, 0, 7]"] ;
295 -> 296 ;
297 [label="gini = 0.0\nsamples = 1\nvalue = [0, 0, 0, 2]"] ;
296 -> 297 ;
298 [label="X[19] <= 0.866\ngini = 0.285\nsamples = 25\nvalue = [30, 1, 0, 5]"] ;
296 -> 298 ;
299 [label="X[22] <= 1.331\ngini = 0.087\nsamples = 16\nvalue = [21, 0, 0, 1]"] ;
298 -> 299 ;
300 [label="gini = 0.0\nsamples = 15\nvalue = [21, 0, 0, 0]"] ;
299 -> 300 ;
301 [label="gini = 0.0\nsamples = 1\nvalue = [0, 0, 0, 1]"] ;
299 -> 301 ;
302 [label="X[2] <= 2.474\ngini = 0.5\nsamples = 9\nvalue = [9, 1, 0, 4]"] ;
298 -> 302 ;
303 [label="X[10] <= 2.768\ngini = 0.298\nsamples = 7\nvalue = [9, 0, 0, 2]"] ;
302 -> 303 ;
304 [label="X[23] <= 0.908\ngini = 0.18\nsamples = 6\nvalue = [9, 0, 0, 1]"] ;
303 -> 304 ;
305 [label="gini = 0.0\nsamples = 1\nvalue = [0, 0, 0, 1]"] ;
304 -> 305 ;
306 [label="gini = 0.0\nsamples = 5\nvalue = [9, 0, 0, 0]"] ;
304 -> 306 ;
307 [label="gini = 0.0\nsamples = 1\nvalue = [0, 0, 0, 1]"] ;
303 -> 307 ;
308 [label="X[3] <= 2.481\ngini = 0.444\nsamples = 2\nvalue = [0, 1, 0, 2]"] ;
302 -> 308 ;
309 [label="gini = 0.0\nsamples = 1\nvalue = [0, 1, 0, 0]"] ;
308 -> 309 ;
310 [label="gini = 0.0\nsamples = 1\nvalue = [0, 0, 0, 2]"] ;
308 -> 310 ;
311 [label="gini = 0.0\nsamples = 2\nvalue = [0, 0, 0, 3]"] ;
295 -> 311 ;
312 [label="X[10] <= 3.893\ngini = 0.278\nsamples = 4\nvalue = [1, 0, 0, 5]"] ;
292 -> 312 ;
313 [label="gini = 0.0\nsamples = 3\nvalue = [0, 0, 0, 5]"] ;
312 -> 313 ;
314 [label="gini = 0.0\nsamples = 1\nvalue = [1, 0, 0, 0]"] ;
312 -> 314 ;
315 [label="X[16] <= 1.411\ngini = 0.524\nsamples = 30\nvalue = [21, 2, 29, 0]"] ;
269 -> 315 ;
316 [label="X[10] <= 1.597\ngini = 0.5\nsamples = 15\nvalue = [18, 2, 8, 0]"] ;
315 -> 316 ;
317 [label="X[18] <= 1.189\ngini = 0.444\nsamples = 3\nvalue = [0, 2, 4, 0]"] ;
316 -> 317 ;
318 [label="gini = 0.0\nsamples = 2\nvalue = [0, 2, 0, 0]"] ;
317 -> 318 ;
319 [label="gini = 0.0\nsamples = 1\nvalue = [0, 0, 4, 0]"] ;
317 -> 319 ;
320 [label="X[19] <= 1.224\ngini = 0.298\nsamples = 12\nvalue = [18, 0, 4, 0]"] ;
316 -> 320 ;
321 [label="gini = 0.0\nsamples = 9\nvalue = [18, 0, 0, 0]"] ;
320 -> 321 ;
322 [label="gini = 0.0\nsamples = 3\nvalue = [0, 0, 4, 0]"] ;
320 -> 322 ;
323 [label="X[4] <= 1.904\ngini = 0.219\nsamples = 15\nvalue = [3, 0, 21, 0]"] ;
315 -> 323 ;
324 [label="gini = 0.0\nsamples = 2\nvalue = [2, 0, 0, 0]"] ;
323 -> 324 ;
325 [label="X[12] <= 1.633\ngini = 0.087\nsamples = 13\nvalue = [1, 0, 21, 0]"] ;
323 -> 325 ;
326 [label="gini = 0.0\nsamples = 1\nvalue = [1, 0, 0, 0]"] ;
325 -> 326 ;
327 [label="gini = 0.0\nsamples = 12\nvalue = [0, 0, 21, 0]"] ;
325 -> 327 ;
328 [label="X[10] <= 0.99\ngini = 0.216\nsamples = 164\nvalue = [234, 27, 2, 3]"] ;
262 -> 328 ;
329 [label="gini = 0.0\nsamples = 7\nvalue = [0, 14, 0, 0]"] ;
328 -> 329 ;
330 [label="X[16] <= 0.509\ngini = 0.135\nsamples = 157\nvalue = [234, 13, 2, 3]"] ;
328 -> 330 ;
331 [label="X[8] <= 3.834\ngini = 0.625\nsamples = 6\nvalue = [2, 4, 0, 2]"] ;
330 -> 331 ;
332 [label="X[0] <= 1.038\ngini = 0.5\nsamples = 3\nvalue = [2, 0, 0, 2]"] ;
331 -> 332 ;
333 [label="gini = 0.0\nsamples = 1\nvalue = [2, 0, 0, 0]"] ;
332 -> 333 ;
334 [label="gini = 0.0\nsamples = 2\nvalue = [0, 0, 0, 2]"] ;
332 -> 334 ;
335 [label="gini = 0.0\nsamples = 3\nvalue = [0, 4, 0, 0]"] ;
331 -> 335 ;
336 [label="X[19] <= 0.726\ngini = 0.094\nsamples = 151\nvalue = [232, 9, 2, 1]"] ;
330 -> 336 ;
337 [label="X[16] <= 0.509\ngini = 0.013\nsamples = 93\nvalue = [151, 1, 0, 0]"] ;
336 -> 337 ;
338 [label="X[0] <= 1.232\ngini = 0.444\nsamples = 2\nvalue = [2, 1, 0, 0]"] ;
337 -> 338 ;
339 [label="gini = 0.0\nsamples = 1\nvalue = [0, 1, 0, 0]"] ;
338 -> 339 ;
340 [label="gini = 0.0\nsamples = 1\nvalue = [2, 0, 0, 0]"] ;
338 -> 340 ;
341 [label="gini = 0.0\nsamples = 91\nvalue = [149, 0, 0, 0]"] ;
337 -> 341 ;
342 [label="X[0] <= 2.209\ngini = 0.217\nsamples = 58\nvalue = [81, 8, 2, 1]"] ;
336 -> 342 ;
343 [label="X[18] <= 0.372\ngini = 0.094\nsamples = 52\nvalue = [78, 3, 0, 1]"] ;
342 -> 343 ;
344 [label="X[15] <= 0.765\ngini = 0.5\nsamples = 2\nvalue = [1, 0, 0, 1]"] ;
343 -> 344 ;
345 [label="gini = 0.0\nsamples = 1\nvalue = [1, 0, 0, 0]"] ;
344 -> 345 ;
346 [label="gini = 0.0\nsamples = 1\nvalue = [0, 0, 0, 1]"] ;
344 -> 346 ;
347 [label="X[2] <= 2.352\ngini = 0.072\nsamples = 50\nvalue = [77, 3, 0, 0]"] ;
343 -> 347 ;
348 [label="X[11] <= 1.612\ngini = 0.149\nsamples = 21\nvalue = [34, 3, 0, 0]"] ;
347 -> 348 ;
349 [label="gini = 0.0\nsamples = 1\nvalue = [0, 2, 0, 0]"] ;
348 -> 349 ;
350 [label="X[7] <= 4.175\ngini = 0.056\nsamples = 20\nvalue = [34, 1, 0, 0]"] ;
348 -> 350 ;
351 [label="gini = 0.0\nsamples = 18\nvalue = [31, 0, 0, 0]"] ;
350 -> 351 ;
352 [label="X[8] <= 2.601\ngini = 0.375\nsamples = 2\nvalue = [3, 1, 0, 0]"] ;
350 -> 352 ;
353 [label="gini = 0.0\nsamples = 1\nvalue = [3, 0, 0, 0]"] ;
352 -> 353 ;
354 [label="gini = 0.0\nsamples = 1\nvalue = [0, 1, 0, 0]"] ;
352 -> 354 ;
355 [label="gini = 0.0\nsamples = 29\nvalue = [43, 0, 0, 0]"] ;
347 -> 355 ;
356 [label="X[14] <= 1.262\ngini = 0.62\nsamples = 6\nvalue = [3, 5, 2, 0]"] ;
342 -> 356 ;
357 [label="X[19] <= 0.871\ngini = 0.408\nsamples = 4\nvalue = [0, 5, 2, 0]"] ;
356 -> 357 ;
358 [label="gini = 0.0\nsamples = 3\nvalue = [0, 5, 0, 0]"] ;
357 -> 358 ;
359 [label="gini = 0.0\nsamples = 1\nvalue = [0, 0, 2, 0]"] ;
357 -> 359 ;
360 [label="gini = 0.0\nsamples = 2\nvalue = [3, 0, 0, 0]"] ;
356 -> 360 ;
}