digraph Tree {
node [shape=box] ;
0 [label="X[17] <= 0.498\ngini = 0.661\nsamples = 1272\nvalue = [827, 745, 92, 344]"] ;
1 [label="X[13] <= 1.317\ngini = 0.557\nsamples = 231\nvalue = [28, 142, 0, 196]"] ;
0 -> 1 [labeldistance=2.5, labelangle=45, headlabel="True"] ;
2 [label="X[19] <= 0.532\ngini = 0.267\nsamples = 51\nvalue = [13, 69, 0, 0]"] ;
1 -> 2 ;
3 [label="X[17] <= 0.478\ngini = 0.061\nsamples = 40\nvalue = [2, 62, 0, 0]"] ;
2 -> 3 ;
4 [label="X[15] <= 0.597\ngini = 0.165\nsamples = 15\nvalue = [2, 20, 0, 0]"] ;
3 -> 4 ;
5 [label="X[1] <= 1.469\ngini = 0.408\nsamples = 5\nvalue = [2, 5, 0, 0]"] ;
4 -> 5 ;
6 [label="gini = 0.0\nsamples = 1\nvalue = [1, 0, 0, 0]"] ;
5 -> 6 ;
7 [label="X[14] <= 2.544\ngini = 0.278\nsamples = 4\nvalue = [1, 5, 0, 0]"] ;
5 -> 7 ;
8 [label="gini = 0.0\nsamples = 3\nvalue = [0, 5, 0, 0]"] ;
7 -> 8 ;
9 [label="gini = 0.0\nsamples = 1\nvalue = [1, 0, 0, 0]"] ;
7 -> 9 ;
10 [label="gini = 0.0\nsamples = 10\nvalue = [0, 15, 0, 0]"] ;
4 -> 10 ;
11 [label="gini = 0.0\nsamples = 25\nvalue = [0, 42, 0, 0]"] ;
3 -> 11 ;
12 [label="X[20] <= 1.016\ngini = 0.475\nsamples = 11\nvalue = [11, 7, 0, 0]"] ;
2 -> 12 ;
13 [label="gini = 0.0\nsamples = 4\nvalue = [0, 7, 0, 0]"] ;
12 -> 13 ;
14 [label="gini = 0.0\nsamples = 7\nvalue = [11, 0, 0, 0]"] ;
12 -> 14 ;
15 [label="X[16] <= 0.487\ngini = 0.455\nsamples = 180\nvalue = [15, 73, 0, 196]"] ;
1 -> 15 ;
16 [label="X[5] <= 3.076\ngini = 0.523\nsamples = 33\nvalue = [7, 35, 0, 13]"] ;
15 -> 16 ;
17 [label="X[17] <= 0.451\ngini = 0.465\nsamples = 12\nvalue = [7, 0, 0, 12]"] ;
16 -> 17 ;
18 [label="X[10] <= 3.699\ngini = 0.278\nsamples = 4\nvalue = [5, 0, 0, 1]"] ;
17 -> 18 ;
19 [label="gini = 0.0\nsamples = 3\nvalue = [5, 0, 0, 0]"] ;
18 -> 19 ;
20 [label="gini = 0.0\nsamples = 1\nvalue = [0, 0, 0, 1]"] ;
18 -> 20 ;
21 [label="X[18] <= 0.554\ngini = 0.26\nsamples = 8\nvalue = [2, 0, 0, 11]"] ;
17 -> 21 ;
22 [label="X[22] <= 1.025\ngini = 0.153\nsamples = 7\nvalue = [1, 0, 0, 11]"] ;
21 -> 22 ;
23 [label="gini = 0.0\nsamples = 1\nvalue = [1, 0, 0, 0]"] ;
22 -> 23 ;
24 [label="gini = 0.0\nsamples = 6\nvalue = [0, 0, 0, 11]"] ;
22 -> 24 ;
25 [label="gini = 0.0\nsamples = 1\nvalue = [1, 0, 0, 0]"] ;
21 -> 25 ;
26 [label="X[8] <= 1.782\ngini = 0.054\nsamples = 21\nvalue = [0, 35, 0, 1]"] ;
16 -> 26 ;
27 [label="X[12] <= 1.731\ngini = 0.5\nsamples = 2\nvalue = [0, 1, 0, 1]"] ;
26 -> 27 ;
28 [label="gini = 0.0\nsamples = 1\nvalue = [0, 0, 0, 1]"] ;
27 -> 28 ;
29 [label="gini = 0.0\nsamples = 1\nvalue = [0, 1, 0, 0]"] ;
27 -> 29 ;
30 [label="gini = 0.0\nsamples = 19\nvalue = [0, 34, 0, 0]"] ;
26 -> 30 ;
31 [label="X[17] <= 0.387\ngini = 0.333\nsamples = 147\nvalue = [8, 38, 0, 183]"] ;
15 -> 31 ;
32 [label="gini = 0.0\nsamples = 4\nvalue = [0, 5, 0, 0]"] ;
31 -> 32 ;
33 [label="X[0] <= 1.396\ngini = 0.31\nsamples = 143\nvalue = [8, 33, 0, 183]"] ;
31 -> 33 ;
34 [label="X[19] <= 0.498\ngini = 0.359\nsamples = 97\nvalue = [3, 32, 0, 119]"] ;
33 -> 34 ;
35 [label="X[14] <= 0.852\ngini = 0.242\nsamples = 75\nvalue = [3, 14, 0, 107]"] ;
34 -> 35 ;
36 [label="X[17] <= 0.485\ngini = 0.142\nsamples = 11\nvalue = [0, 12, 0, 1]"] ;
35 -> 36 ;
37 [label="gini = 0.0\nsamples = 8\nvalue = [0, 10, 0, 0]"] ;
36 -> 37 ;
38 [label="X[13] <= 1.606\ngini = 0.444\nsamples = 3\nvalue = [0, 2, 0, 1]"] ;
36 -> 38 ;
39 [label="gini = 0.0\nsamples = 1\nvalue = [0, 0, 0, 1]"] ;
38 -> 39 ;
40 [label="gini = 0.0\nsamples = 2\nvalue = [0, 2, 0, 0]"] ;
38 -> 40 ;
41 [label="X[6] <= 1.882\ngini = 0.087\nsamples = 64\nvalue = [3, 2, 0, 106]"] ;
35 -> 41 ;
42 [label="X[18] <= 0.477\ngini = 0.375\nsamples = 3\nvalue = [3, 0, 0, 1]"] ;
41 -> 42 ;
43 [label="gini = 0.0\nsamples = 1\nvalue = [0, 0, 0, 1]"] ;
42 -> 43 ;
44 [label="gini = 0.0\nsamples = 2\nvalue = [3, 0, 0, 0]"] ;
42 -> 44 ;
45 [label="X[20] <= 0.634\ngini = 0.037\nsamples = 61\nvalue = [0, 2, 0, 105]"] ;
41 -> 45 ;
46 [label="gini = 0.0\nsamples = 54\nvalue = [0, 0, 0, 93]"] ;
45 -> 46 ;
47 [label="X[14] <= 1.308\ngini = 0.245\nsamples = 7\nvalue = [0, 2, 0, 12]"] ;
45 -> 47 ;
48 [label="X[0] <= 1.365\ngini = 0.444\nsamples = 2\nvalue = [0, 2, 0, 1]"] ;
47 -> 48 ;
49 [label="gini = 0.0\nsamples = 1\nvalue = [0, 0, 0, 1]"] ;
48 -> 49 ;
50 [label="gini = 0.0\nsamples = 1\nvalue = [0, 2, 0, 0]"] ;
48 -> 50 ;
51 [label="gini = 0.0\nsamples = 5\nvalue = [0, 0, 0, 11]"] ;
47 -> 51 ;
52 [label="X[21] <= 0.743\ngini = 0.48\nsamples = 22\nvalue = [0, 18, 0, 12]"] ;
34 -> 52 ;
53 [label="gini = 0.0\nsamples = 5\nvalue = [0, 0, 0, 6]"] ;
52 -> 53 ;
54 [label="X[7] <= 2.935\ngini = 0.375\nsamples = 17\nvalue = [0, 18, 0, 6]"] ;
52 -> 54 ;
55 [label="X[14] <= 1.328\ngini = 0.48\nsamples = 8\nvalue = [0, 4, 0, 6]"] ;
54 -> 55 ;
56 [label="X[0] <= 1.113\ngini = 0.32\nsamples = 4\nvalue = [0, 4, 0, 1]"] ;
55 -> 56 ;
57 [label="gini = 0.0\nsamples = 3\nvalue = [0, 4, 0, 0]"] ;
56 -> 57 ;
58 [label="gini = 0.0\nsamples = 1\nvalue = [0, 0, 0, 1]"] ;
56 -> 58 ;
59 [label="gini = 0.0\nsamples = 4\nvalue = [0, 0, 0, 5]"] ;
55 -> 59 ;
60 [label="gini = 0.0\nsamples = 9\nvalue = [0, 14, 0, 0]"] ;
54 -> 60 ;
61 [label="X[23] <= 1.415\ngini = 0.159\nsamples = 46\nvalue = [5, 1, 0, 64]"] ;
33 -> 61 ;
62 [label="X[22] <= 1.368\ngini = 0.245\nsamples = 23\nvalue = [5, 0, 0, 30]"] ;
61 -> 62 ;
63 [label="X[13] <= 1.521\ngini = 0.17\nsamples = 21\nvalue = [3, 0, 0, 29]"] ;
62 -> 63 ;
64 [label="X[21] <= 1.056\ngini = 0.469\nsamples = 5\nvalue = [3, 0, 0, 5]"] ;
63 -> 64 ;
65 [label="gini = 0.0\nsamples = 2\nvalue = [3, 0, 0, 0]"] ;
64 -> 65 ;
66 [label="gini = 0.0\nsamples = 3\nvalue = [0, 0, 0, 5]"] ;
64 -> 66 ;
67 [label="gini = 0.0\nsamples = 16\nvalue = [0, 0, 0, 24]"] ;
63 -> 67 ;
68 [label="X[8] <= 2.556\ngini = 0.444\nsamples = 2\nvalue = [2, 0, 0, 1]"] ;
62 -> 68 ;
69 [label="gini = 0.0\nsamples = 1\nvalue = [2, 0, 0, 0]"] ;
68 -> 69 ;
70 [label="gini = 0.0\nsamples = 1\nvalue = [0, 0, 0, 1]"] ;
68 -> 70 ;
71 [label="X[3] <= 3.75\ngini = 0.056\nsamples = 23\nvalue = [0, 1, 0, 34]"] ;
61 -> 71 ;
72 [label="gini = 0.0\nsamples = 18\nvalue = [0, 0, 0, 29]"] ;
71 -> 72 ;
73 [label="X[15] <= 0.539\ngini = 0.278\nsamples = 5\nvalue = [0, 1, 0, 5]"] ;
71 -> 73 ;
74 [label="gini = 0.0\nsamples = 1\nvalue = [0, 1, 0, 0]"] ;
73 -> 74 ;
75 [label="gini = 0.0\nsamples = 4\nvalue = [0, 0, 0, 5]"] ;
73 -> 75 ;
76 [label="X[0] <= 2.231\ngini = 0.617\nsamples = 1041\nvalue = [799, 603, 92, 148]"] ;
0 -> 76 [labeldistance=2.5, labelangle=-45, headlabel="False"] ;
77 [label="X[11] <= 0.91\ngini = 0.603\nsamples = 859\nvalue = [718, 421, 57, 148]"] ;
76 -> 77 ;
78 [label="X[15] <= 0.527\ngini = 0.127\nsamples = 72\nvalue = [7, 96, 0, 0]"] ;
77 -> 78 ;
79 [label="gini = 0.0\nsamples = 1\nvalue = [1, 0, 0, 0]"] ;
78 -> 79 ;
80 [label="X[20] <= 1.026\ngini = 0.111\nsamples = 71\nvalue = [6, 96, 0, 0]"] ;
78 -> 80 ;
81 [label="X[19] <= 1.185\ngini = 0.034\nsamples = 40\nvalue = [1, 56, 0, 0]"] ;
80 -> 81 ;
82 [label="gini = 0.0\nsamples = 39\nvalue = [0, 56, 0, 0]"] ;
81 -> 82 ;
83 [label="gini = 0.0\nsamples = 1\nvalue = [1, 0, 0, 0]"] ;
81 -> 83 ;
84 [label="X[0] <= 1.276\ngini = 0.198\nsamples = 31\nvalue = [5, 40, 0, 0]"] ;
80 -> 84 ;
85 [label="X[13] <= 0.94\ngini = 0.5\nsamples = 6\nvalue = [4, 4, 0, 0]"] ;
84 -> 85 ;
86 [label="gini = 0.0\nsamples = 2\nvalue = [0, 3, 0, 0]"] ;
85 -> 86 ;
87 [label="X[11] <= 0.905\ngini = 0.32\nsamples = 4\nvalue = [4, 1, 0, 0]"] ;
85 -> 87 ;
88 [label="gini = 0.0\nsamples = 3\nvalue = [4, 0, 0, 0]"] ;
87 -> 88 ;
89 [label="gini = 0.0\nsamples = 1\nvalue = [0, 1, 0, 0]"] ;
87 -> 89 ;
90 [label="X[11] <= 0.895\ngini = 0.053\nsamples = 25\nvalue = [1, 36, 0, 0]"] ;
84 -> 90 ;
91 [label="gini = 0.0\nsamples = 24\nvalue = [0, 36, 0, 0]"] ;
90 -> 91 ;
92 [label="gini = 0.0\nsamples = 1\nvalue = [1, 0, 0, 0]"] ;
90 -> 92 ;
93 [label="X[4] <= 1.471\ngini = 0.587\nsamples = 787\nvalue = [711, 325, 57, 148]"] ;
77 -> 93 ;
94 [label="X[8] <= 2.739\ngini = 0.518\nsamples = 117\nvalue = [71, 106, 2, 5]"] ;
93 -> 94 ;
95 [label="X[3] <= 1.41\ngini = 0.594\nsamples = 31\nvalue = [25, 13, 2, 5]"] ;
94 -> 95 ;
96 [label="X[14] <= 0.993\ngini = 0.278\nsamples = 8\nvalue = [0, 10, 2, 0]"] ;
95 -> 96 ;
97 [label="gini = 0.0\nsamples = 6\nvalue = [0, 9, 0, 0]"] ;
96 -> 97 ;
98 [label="X[5] <= 1.23\ngini = 0.444\nsamples = 2\nvalue = [0, 1, 2, 0]"] ;
96 -> 98 ;
99 [label="gini = 0.0\nsamples = 1\nvalue = [0, 0, 2, 0]"] ;
98 -> 99 ;
100 [label="gini = 0.0\nsamples = 1\nvalue = [0, 1, 0, 0]"] ;
98 -> 100 ;
101 [label="X[23] <= 0.385\ngini = 0.395\nsamples = 23\nvalue = [25, 3, 0, 5]"] ;
95 -> 101 ;
102 [label="X[15] <= 0.808\ngini = 0.469\nsamples = 6\nvalue = [3, 0, 0, 5]"] ;
101 -> 102 ;
103 [label="X[16] <= 1.417\ngini = 0.48\nsamples = 3\nvalue = [3, 0, 0, 2]"] ;
102 -> 103 ;
104 [label="gini = 0.0\nsamples = 2\nvalue = [3, 0, 0, 0]"] ;
103 -> 104 ;
105 [label="gini = 0.0\nsamples = 1\nvalue = [0, 0, 0, 2]"] ;
103 -> 105 ;
106 [label="gini = 0.0\nsamples = 3\nvalue = [0, 0, 0, 3]"] ;
102 -> 106 ;
107 [label="X[23] <= 1.073\ngini = 0.211\nsamples = 17\nvalue = [22, 3, 0, 0]"] ;
101 -> 107 ;
108 [label="X[12] <= 3.936\ngini = 0.083\nsamples = 15\nvalue = [22, 1, 0, 0]"] ;
107 -> 108 ;
109 [label="X[1] <= 0.638\ngini = 0.444\nsamples = 3\nvalue = [2, 1, 0, 0]"] ;
108 -> 109 ;
110 [label="gini = 0.0\nsamples = 2\nvalue = [2, 0, 0, 0]"] ;
109 -> 110 ;
111 [label="gini = 0.0\nsamples = 1\nvalue = [0, 1, 0, 0]"] ;
109 -> 111 ;
112 [label="gini = 0.0\nsamples = 12\nvalue = [20, 0, 0, 0]"] ;
108 -> 112 ;
113 [label="gini = 0.0\nsamples = 2\nvalue = [0, 2, 0, 0]"] ;
107 -> 113 ;
114 [label="X[1] <= 0.704\ngini = 0.443\nsamples = 86\nvalue = [46, 93, 0, 0]"] ;
94 -> 114 ;
115 [label="X[0] <= 0.489\ngini = 0.491\nsamples = 26\nvalue = [26, 20, 0, 0]"] ;
114 -> 115 ;
116 [label="gini = 0.0\nsamples = 5\nvalue = [0, 12, 0, 0]"] ;
115 -> 116 ;
117 [label="X[3] <= 1.257\ngini = 0.36\nsamples = 21\nvalue = [26, 8, 0, 0]"] ;
115 -> 117 ;
118 [label="gini = 0.0\nsamples = 1\nvalue = [0, 2, 0, 0]"] ;
117 -> 118 ;
119 [label="X[12] <= 1.575\ngini = 0.305\nsamples = 20\nvalue = [26, 6, 0, 0]"] ;
117 -> 119 ;
120 [label="X[17] <= 0.808\ngini = 0.469\nsamples = 5\nvalue = [3, 5, 0, 0]"] ;
119 -> 120 ;
121 [label="X[18] <= 0.796\ngini = 0.278\nsamples = 4\nvalue = [1, 5, 0, 0]"] ;
120 -> 121 ;
122 [label="gini = 0.0\nsamples = 1\nvalue = [1, 0, 0, 0]"] ;
121 -> 122 ;
123 [label="gini = 0.0\nsamples = 3\nvalue = [0, 5, 0, 0]"] ;
121 -> 123 ;
124 [label="gini = 0.0\nsamples = 1\nvalue = [2, 0, 0, 0]"] ;
120 -> 124 ;
125 [label="X[3] <= 1.371\ngini = 0.08\nsamples = 15\nvalue = [23, 1, 0, 0]"] ;
119 -> 125 ;
126 [label="gini = 0.0\nsamples = 9\nvalue = [15, 0, 0, 0]"] ;
125 -> 126 ;
127 [label="X[0] <= 0.629\ngini = 0.198\nsamples = 6\nvalue = [8, 1, 0, 0]"] ;
125 -> 127 ;
128 [label="gini = 0.0\nsamples = 1\nvalue = [0, 1, 0, 0]"] ;
127 -> 128 ;
129 [label="gini = 0.0\nsamples = 5\nvalue = [8, 0, 0, 0]"] ;
127 -> 129 ;
130 [label="X[12] <= 1.625\ngini = 0.338\nsamples = 60\nvalue = [20, 73, 0, 0]"] ;
114 -> 130 ;
131 [label="X[14] <= 0.893\ngini = 0.245\nsamples = 45\nvalue = [10, 60, 0, 0]"] ;
130 -> 131 ;
132 [label="gini = 0.0\nsamples = 31\nvalue = [0, 52, 0, 0]"] ;
131 -> 132 ;
133 [label="X[7] <= 2.35\ngini = 0.494\nsamples = 14\nvalue = [10, 8, 0, 0]"] ;
131 -> 133 ;
134 [label="X[12] <= 1.601\ngini = 0.219\nsamples = 6\nvalue = [7, 1, 0, 0]"] ;
133 -> 134 ;
135 [label="gini = 0.0\nsamples = 5\nvalue = [7, 0, 0, 0]"] ;
134 -> 135 ;
136 [label="gini = 0.0\nsamples = 1\nvalue = [0, 1, 0, 0]"] ;
134 -> 136 ;
137 [label="X[22] <= 0.701\ngini = 0.42\nsamples = 8\nvalue = [3, 7, 0, 0]"] ;
133 -> 137 ;
138 [label="gini = 0.0\nsamples = 3\nvalue = [0, 4, 0, 0]"] ;
137 -> 138 ;
139 [label="X[18] <= 0.742\ngini = 0.5\nsamples = 5\nvalue = [3, 3, 0, 0]"] ;
137 -> 139 ;
140 [label="X[2] <= 1.387\ngini = 0.375\nsamples = 4\nvalue = [1, 3, 0, 0]"] ;
139 -> 140 ;
141 [label="gini = 0.0\nsamples = 3\nvalue = [0, 3, 0, 0]"] ;
140 -> 141 ;
142 [label="gini = 0.0\nsamples = 1\nvalue = [1, 0, 0, 0]"] ;
140 -> 142 ;
143 [label="gini = 0.0\nsamples = 1\nvalue = [2, 0, 0, 0]"] ;
139 -> 143 ;
144 [label="X[12] <= 1.7\ngini = 0.491\nsamples = 15\nvalue = [10, 13, 0, 0]"] ;
130 -> 144 ;
145 [label="gini = 0.0\nsamples = 3\nvalue = [4, 0, 0, 0]"] ;
144 -> 145 ;
146 [label="X[22] <= 0.466\ngini = 0.432\nsamples = 12\nvalue = [6, 13, 0, 0]"] ;
144 -> 146 ;
147 [label="X[20] <= 0.445\ngini = 0.469\nsamples = 5\nvalue = [5, 3, 0, 0]"] ;
146 -> 147 ;
148 [label="gini = 0.0\nsamples = 2\nvalue = [0, 3, 0, 0]"] ;
147 -> 148 ;
149 [label="gini = 0.0\nsamples = 3\nvalue = [5, 0, 0, 0]"] ;
147 -> 149 ;
150 [label="X[17] <= 0.727\ngini = 0.165\nsamples = 7\nvalue = [1, 10, 0, 0]"] ;
146 -> 150 ;
151 [label="gini = 0.0\nsamples = 1\nvalue = [1, 0, 0, 0]"] ;
150 -> 151 ;
152 [label="gini = 0.0\nsamples = 6\nvalue = [0, 10, 0, 0]"] ;
150 -> 152 ;
153 [label="X[13] <= 0.915\ngini = 0.569\nsamples = 670\nvalue = [640, 219, 55, 143]"] ;
93 -> 153 ;
154 [label="X[4] <= 3.123\ngini = 0.191\nsamples = 56\nvalue = [9, 75, 0, 0]"] ;
153 -> 154 ;
155 [label="X[22] <= 0.622\ngini = 0.486\nsamples = 11\nvalue = [5, 7, 0, 0]"] ;
154 -> 155 ;
156 [label="gini = 0.0\nsamples = 4\nvalue = [0, 5, 0, 0]"] ;
155 -> 156 ;
157 [label="X[17] <= 0.822\ngini = 0.408\nsamples = 7\nvalue = [5, 2, 0, 0]"] ;
155 -> 157 ;
158 [label="X[13] <= 0.765\ngini = 0.278\nsamples = 6\nvalue = [5, 1, 0, 0]"] ;
157 -> 158 ;
159 [label="gini = 0.0\nsamples = 1\nvalue = [0, 1, 0, 0]"] ;
158 -> 159 ;
160 [label="gini = 0.0\nsamples = 5\nvalue = [5, 0, 0, 0]"] ;
158 -> 160 ;
161 [label="gini = 0.0\nsamples = 1\nvalue = [0, 1, 0, 0]"] ;
157 -> 161 ;
162 [label="X[15] <= 1.231\ngini = 0.105\nsamples = 45\nvalue = [4, 68, 0, 0]"] ;
154 -> 162 ;
163 [label="X[5] <= 4.876\ngini = 0.081\nsamples = 44\nvalue = [3, 68, 0, 0]"] ;
162 -> 163 ;
164 [label="gini = 0.0\nsamples = 34\nvalue = [0, 54, 0, 0]"] ;
163 -> 164 ;
165 [label="X[22] <= 1.15\ngini = 0.291\nsamples = 10\nvalue = [3, 14, 0, 0]"] ;
163 -> 165 ;
166 [label="gini = 0.0\nsamples = 8\nvalue = [0, 13, 0, 0]"] ;
165 -> 166 ;
167 [label="X[14] <= 0.906\ngini = 0.375\nsamples = 2\nvalue = [3, 1, 0, 0]"] ;
165 -> 167 ;
168 [label="gini = 0.0\nsamples = 1\nvalue = [3, 0, 0, 0]"] ;
167 -> 168 ;
169 [label="gini = 0.0\nsamples = 1\nvalue = [0, 1, 0, 0]"] ;
167 -> 169 ;
170 [label="gini = 0.0\nsamples = 1\nvalue = [1, 0, 0, 0]"] ;
162 -> 170 ;
171 [label="X[18] <= 0.504\ngini = 0.533\nsamples = 614\nvalue = [631, 144, 55, 143]"] ;
153 -> 171 ;
172 [label="X[12] <= 1.397\ngini = 0.361\nsamples = 66\nvalue = [23, 2, 0, 84]"] ;
171 -> 172 ;
173 [label="gini = 0.0\nsamples = 9\nvalue = [12, 0, 0, 0]"] ;
172 -> 173 ;
174 [label="X[23] <= 1.629\ngini = 0.237\nsamples = 57\nvalue = [11, 2, 0, 84]"] ;
172 -> 174 ;
175 [label="X[3] <= 1.46\ngini = 0.194\nsamples = 56\nvalue = [8, 2, 0, 84]"] ;
174 -> 175 ;
176 [label="gini = 0.0\nsamples = 1\nvalue = [0, 2, 0, 0]"] ;
175 -> 176 ;
177 [label="X[15] <= 0.745\ngini = 0.159\nsamples = 55\nvalue = [8, 0, 0, 84]"] ;
175 -> 177 ;
178 [label="gini = 0.0\nsamples = 1\nvalue = [2, 0, 0, 0]"] ;
177 -> 178 ;
179 [label="X[7] <= 1.869\ngini = 0.124\nsamples = 54\nvalue = [6, 0, 0, 84]"] ;
177 -> 179 ;
180 [label="X[17] <= 0.514\ngini = 0.494\nsamples = 5\nvalue = [4, 0, 0, 5]"] ;
179 -> 180 ;
181 [label="gini = 0.0\nsamples = 3\nvalue = [0, 0, 0, 5]"] ;
180 -> 181 ;
182 [label="gini = 0.0\nsamples = 2\nvalue = [4, 0, 0, 0]"] ;
180 -> 182 ;
183 [label="X[21] <= 0.622\ngini = 0.048\nsamples = 49\nvalue = [2, 0, 0, 79]"] ;
179 -> 183 ;
184 [label="gini = 0.0\nsamples = 1\nvalue = [1, 0, 0, 0]"] ;
183 -> 184 ;
185 [label="X[3] <= 2.663\ngini = 0.025\nsamples = 48\nvalue = [1, 0, 0, 79]"] ;
183 -> 185 ;
186 [label="gini = 0.0\nsamples = 42\nvalue = [0, 0, 0, 68]"] ;
185 -> 186 ;
187 [label="X[19] <= 0.861\ngini = 0.153\nsamples = 6\nvalue = [1, 0, 0, 11]"] ;
185 -> 187 ;
188 [label="gini = 0.0\nsamples = 5\nvalue = [0, 0, 0, 11]"] ;
187 -> 188 ;
189 [label="gini = 0.0\nsamples = 1\nvalue = [1, 0, 0, 0]"] ;
187 -> 189 ;
190 [label="gini = 0.0\nsamples = 1\nvalue = [3, 0, 0, 0]"] ;
174 -> 190 ;
191 [label="X[18] <= 0.805\ngini = 0.469\nsamples = 548\nvalue = [608, 142, 55, 59]"] ;
171 -> 191 ;
192 [label="X[13] <= 2.702\ngini = 0.347\nsamples = 390\nvalue = [492, 83, 0, 45]"] ;
191 -> 192 ;
193 [label="X[17] <= 0.511\ngini = 0.298\nsamples = 275\nvalue = [358, 72, 0, 6]"] ;
192 -> 193 ;
194 [label="X[11] <= 1.868\ngini = 0.4\nsamples = 19\nvalue = [8, 21, 0, 0]"] ;
193 -> 194 ;
195 [label="X[19] <= 0.534\ngini = 0.269\nsamples = 17\nvalue = [4, 21, 0, 0]"] ;
194 -> 195 ;
196 [label="gini = 0.0\nsamples = 1\nvalue = [2, 0, 0, 0]"] ;
195 -> 196 ;
197 [label="X[18] <= 0.517\ngini = 0.159\nsamples = 16\nvalue = [2, 21, 0, 0]"] ;
195 -> 197 ;
198 [label="X[14] <= 0.968\ngini = 0.091\nsamples = 14\nvalue = [1, 20, 0, 0]"] ;
197 -> 198 ;
199 [label="gini = 0.0\nsamples = 12\nvalue = [0, 18, 0, 0]"] ;
198 -> 199 ;
200 [label="X[7] <= 4.301\ngini = 0.444\nsamples = 2\nvalue = [1, 2, 0, 0]"] ;
198 -> 200 ;
201 [label="gini = 0.0\nsamples = 1\nvalue = [1, 0, 0, 0]"] ;
200 -> 201 ;
202 [label="gini = 0.0\nsamples = 1\nvalue = [0, 2, 0, 0]"] ;
200 -> 202 ;
203 [label="X[13] <= 0.98\ngini = 0.5\nsamples = 2\nvalue = [1, 1, 0, 0]"] ;
197 -> 203 ;
204 [label="gini = 0.0\nsamples = 1\nvalue = [0, 1, 0, 0]"] ;
203 -> 204 ;
205 [label="gini = 0.0\nsamples = 1\nvalue = [1, 0, 0, 0]"] ;
203 -> 205 ;
206 [label="gini = 0.0\nsamples = 2\nvalue = [4, 0, 0, 0]"] ;
194 -> 206 ;
207 [label="X[13] <= 0.942\ngini = 0.245\nsamples = 256\nvalue = [350, 51, 0, 6]"] ;
193 -> 207 ;
208 [label="X[8] <= 1.605\ngini = 0.5\nsamples = 7\nvalue = [8, 8, 0, 0]"] ;
207 -> 208 ;
209 [label="gini = 0.0\nsamples = 2\nvalue = [5, 0, 0, 0]"] ;
208 -> 209 ;
210 [label="X[19] <= 0.663\ngini = 0.397\nsamples = 5\nvalue = [3, 8, 0, 0]"] ;
208 -> 210 ;
211 [label="X[6] <= 4.041\ngini = 0.5\nsamples = 3\nvalue = [3, 3, 0, 0]"] ;
210 -> 211 ;
212 [label="gini = 0.0\nsamples = 2\nvalue = [3, 0, 0, 0]"] ;
211 -> 212 ;
213 [label="gini = 0.0\nsamples = 1\nvalue = [0, 3, 0, 0]"] ;
211 -> 213 ;
214 [label="gini = 0.0\nsamples = 2\nvalue = [0, 5, 0, 0]"] ;
210 -> 214 ;
215 [label="X[0] <= 1.758\ngini = 0.223\nsamples = 249\nvalue = [342, 43, 0, 6]"] ;
207 -> 215 ;
216 [label="X[20] <= 1.308\ngini = 0.176\nsamples = 217\nvalue = [312, 27, 0, 6]"] ;
215 -> 216 ;
217 [label="X[7] <= 1.799\ngini = 0.171\nsamples = 216\nvalue = [312, 26, 0, 6]"] ;
216 -> 217 ;
218 [label="X[21] <= 0.763\ngini = 0.311\nsamples = 71\nvalue = [90, 14, 0, 6]"] ;
217 -> 218 ;
219 [label="X[23] <= 0.606\ngini = 0.408\nsamples = 6\nvalue = [2, 5, 0, 0]"] ;
218 -> 219 ;
220 [label="gini = 0.0\nsamples = 1\nvalue = [1, 0, 0, 0]"] ;
219 -> 220 ;
221 [label="X[13] <= 1.186\ngini = 0.278\nsamples = 5\nvalue = [1, 5, 0, 0]"] ;
219 -> 221 ;
222 [label="X[19] <= 0.553\ngini = 0.5\nsamples = 2\nvalue = [1, 1, 0, 0]"] ;
221 -> 222 ;
223 [label="gini = 0.0\nsamples = 1\nvalue = [1, 0, 0, 0]"] ;
222 -> 223 ;
224 [label="gini = 0.0\nsamples = 1\nvalue = [0, 1, 0, 0]"] ;
222 -> 224 ;
225 [label="gini = 0.0\nsamples = 3\nvalue = [0, 4, 0, 0]"] ;
221 -> 225 ;
226 [label="X[14] <= 0.863\ngini = 0.259\nsamples = 65\nvalue = [88, 9, 0, 6]"] ;
218 -> 226 ;
227 [label="gini = 0.0\nsamples = 1\nvalue = [0, 4, 0, 0]"] ;
226 -> 227 ;
228 [label="X[14] <= 1.468\ngini = 0.204\nsamples = 64\nvalue = [88, 5, 0, 6]"] ;
226 -> 228 ;
229 [label="X[1] <= 3.827\ngini = 0.116\nsamples = 52\nvalue = [76, 5, 0, 0]"] ;
228 -> 229 ;
230 [label="gini = 0.0\nsamples = 37\nvalue = [60, 0, 0, 0]"] ;
229 -> 230 ;
231 [label="X[0] <= 0.977\ngini = 0.363\nsamples = 15\nvalue = [16, 5, 0, 0]"] ;
229 -> 231 ;
232 [label="gini = 0.0\nsamples = 2\nvalue = [0, 3, 0, 0]"] ;
231 -> 232 ;
233 [label="X[9] <= 1.043\ngini = 0.198\nsamples = 13\nvalue = [16, 2, 0, 0]"] ;
231 -> 233 ;
234 [label="X[3] <= 2.768\ngini = 0.408\nsamples = 6\nvalue = [5, 2, 0, 0]"] ;
233 -> 234 ;
235 [label="gini = 0.0\nsamples = 3\nvalue = [4, 0, 0, 0]"] ;
234 -> 235 ;
236 [label="X[22] <= 1.195\ngini = 0.444\nsamples = 3\nvalue = [1, 2, 0, 0]"] ;
234 -> 236 ;
237 [label="gini = 0.0\nsamples = 2\nvalue = [0, 2, 0, 0]"] ;
236 -> 237 ;
238 [label="gini = 0.0\nsamples = 1\nvalue = [1, 0, 0, 0]"] ;
236 -> 238 ;
239 [label="gini = 0.0\nsamples = 7\nvalue = [11, 0, 0, 0]"] ;
233 -> 239 ;
240 [label="X[15] <= 1.404\ngini = 0.444\nsamples = 12\nvalue = [12, 0, 0, 6]"] ;
228 -> 240 ;
241 [label="gini = 0.0\nsamples = 8\nvalue = [12, 0, 0, 0]"] ;
240 -> 241 ;
242 [label="gini = 0.0\nsamples = 4\nvalue = [0, 0, 0, 6]"] ;
240 -> 242 ;
243 [label="X[16] <= 0.519\ngini = 0.097\nsamples = 145\nvalue = [222, 12, 0, 0]"] ;
217 -> 243 ;
244 [label="gini = 0.0\nsamples = 1\nvalue = [0, 2, 0, 0]"] ;
243 -> 244 ;
245 [label="X[13] <= 2.528\ngini = 0.082\nsamples = 144\nvalue = [222, 10, 0, 0]"] ;
243 -> 245 ;
246 [label="X[14] <= 0.9\ngini = 0.076\nsamples = 142\nvalue = [220, 9, 0, 0]"] ;
245 -> 246 ;
247 [label="X[15] <= 4.271\ngini = 0.18\nsamples = 9\nvalue = [1, 9, 0, 0]"] ;
246 -> 247 ;
248 [label="gini = 0.0\nsamples = 7\nvalue = [0, 8, 0, 0]"] ;
247 -> 248 ;
249 [label="X[22] <= 0.935\ngini = 0.5\nsamples = 2\nvalue = [1, 1, 0, 0]"] ;
247 -> 249 ;
250 [label="gini = 0.0\nsamples = 1\nvalue = [0, 1, 0, 0]"] ;
249 -> 250 ;
251 [label="gini = 0.0\nsamples = 1\nvalue = [1, 0, 0, 0]"] ;
249 -> 251 ;
252 [label="gini = 0.0\nsamples = 133\nvalue = [219, 0, 0, 0]"] ;
246 -> 252 ;
253 [label="X[2] <= 2.003\ngini = 0.444\nsamples = 2\nvalue = [2, 1, 0, 0]"] ;
245 -> 253 ;
254 [label="gini = 0.0\nsamples = 1\nvalue = [0, 1, 0, 0]"] ;
253 -> 254 ;
255 [label="gini = 0.0\nsamples = 1\nvalue = [2, 0, 0, 0]"] ;
253 -> 255 ;
256 [label="gini = 0.0\nsamples = 1\nvalue = [0, 1, 0, 0]"] ;
216 -> 256 ;
257 [label="X[1] <= 2.352\ngini = 0.454\nsamples = 32\nvalue = [30, 16, 0, 0]"] ;
215 -> 257 ;
258 [label="gini = 0.0\nsamples = 6\nvalue = [0, 7, 0, 0]"] ;
257 -> 258 ;
259 [label="X[7] <= 2.267\ngini = 0.355\nsamples = 26\nvalue = [30, 9, 0, 0]"] ;
257 -> 259 ;
260 [label="X[15] <= 1.291\ngini = 0.245\nsamples = 5\nvalue = [1, 6, 0, 0]"] ;
259 -> 260 ;
261 [label="gini = 0.0\nsamples = 4\nvalue = [0, 6, 0, 0]"] ;
260 -> 261 ;
262 [label="gini = 0.0\nsamples = 1\nvalue = [1, 0, 0, 0]"] ;
260 -> 262 ;
263 [label="X[10] <= 3.972\ngini = 0.17\nsamples = 21\nvalue = [29, 3, 0, 0]"] ;
259 -> 263 ;
264 [label="gini = 0.0\nsamples = 19\nvalue = [29, 0, 0, 0]"] ;
263 -> 264 ;
265 [label="gini = 0.0\nsamples = 2\nvalue = [0, 3, 0, 0]"] ;
263 -> 265 ;
266 [label="X[9] <= 2.804\ngini = 0.421\nsamples = 115\nvalue = [134, 11, 0, 39]"] ;
192 -> 266 ;
267 [label="X[22] <= 1.367\ngini = 0.518\nsamples = 75\nvalue = [67, 6, 0, 39]"] ;
266 -> 267 ;
268 [label="X[16] <= 0.692\ngini = 0.48\nsamples = 67\nvalue = [67, 5, 0, 30]"] ;
267 -> 268 ;
269 [label="X[19] <= 0.461\ngini = 0.199\nsamples = 28\nvalue = [41, 2, 0, 3]"] ;
268 -> 269 ;
270 [label="gini = 0.0\nsamples = 1\nvalue = [0, 0, 0, 2]"] ;
269 -> 270 ;
271 [label="X[23] <= 0.845\ngini = 0.129\nsamples = 27\nvalue = [41, 2, 0, 1]"] ;
269 -> 271 ;
272 [label="gini = 0.0\nsamples = 1\nvalue = [0, 1, 0, 0]"] ;
271 -> 272 ;
273 [label="X[14] <= 2.243\ngini = 0.09\nsamples = 26\nvalue = [41, 1, 0, 1]"] ;
271 -> 273 ;
274 [label="gini = 0.0\nsamples = 1\nvalue = [0, 1, 0, 0]"] ;
273 -> 274 ;
275 [label="X[0] <= 1.386\ngini = 0.046\nsamples = 25\nvalue = [41, 0, 0, 1]"] ;
273 -> 275 ;
276 [label="gini = 0.0\nsamples = 23\nvalue = [40, 0, 0, 0]"] ;
275 -> 276 ;
277 [label="X[5] <= 3.395\ngini = 0.5\nsamples = 2\nvalue = [1, 0, 0, 1]"] ;
275 -> 277 ;
278 [label="gini = 0.0\nsamples = 1\nvalue = [0, 0, 0, 1]"] ;
277 -> 278 ;
279 [label="gini = 0.0\nsamples = 1\nvalue = [1, 0, 0, 0]"] ;
277 -> 279 ;
280 [label="X[1] <= 1.996\ngini = 0.549\nsamples = 39\nvalue = [26, 3, 0, 27]"] ;
268 -> 280 ;
281 [label="X[4] <= 2.676\ngini = 0.375\nsamples = 15\nvalue = [18, 0, 0, 6]"] ;
280 -> 281 ;
282 [label="X[22] <= 1.033\ngini = 0.124\nsamples = 9\nvalue = [14, 0, 0, 1]"] ;
281 -> 282 ;
283 [label="gini = 0.0\nsamples = 6\nvalue = [11, 0, 0, 0]"] ;
282 -> 283 ;
284 [label="X[21] <= 0.944\ngini = 0.375\nsamples = 3\nvalue = [3, 0, 0, 1]"] ;
282 -> 284 ;
285 [label="gini = 0.0\nsamples = 1\nvalue = [0, 0, 0, 1]"] ;
284 -> 285 ;
286 [label="gini = 0.0\nsamples = 2\nvalue = [3, 0, 0, 0]"] ;
284 -> 286 ;
287 [label="X[18] <= 0.721\ngini = 0.494\nsamples = 6\nvalue = [4, 0, 0, 5]"] ;
281 -> 287 ;
288 [label="gini = 0.0\nsamples = 1\nvalue = [2, 0, 0, 0]"] ;
287 -> 288 ;
289 [label="X[19] <= 0.38\ngini = 0.408\nsamples = 5\nvalue = [2, 0, 0, 5]"] ;
287 -> 289 ;
290 [label="gini = 0.0\nsamples = 2\nvalue = [2, 0, 0, 0]"] ;
289 -> 290 ;
291 [label="gini = 0.0\nsamples = 3\nvalue = [0, 0, 0, 5]"] ;
289 -> 291 ;
292 [label="X[0] <= 0.922\ngini = 0.498\nsamples = 24\nvalue = [8, 3, 0, 21]"] ;
280 -> 292 ;
293 [label="gini = 0.0\nsamples = 3\nvalue = [5, 0, 0, 0]"] ;
292 -> 293 ;
294 [label="X[22] <= 0.884\ngini = 0.37\nsamples = 21\nvalue = [3, 3, 0, 21]"] ;
292 -> 294 ;
295 [label="gini = 0.0\nsamples = 2\nvalue = [0, 2, 0, 0]"] ;
294 -> 295 ;
296 [label="X[14] <= 0.882\ngini = 0.278\nsamples = 19\nvalue = [3, 1, 0, 21]"] ;
294 -> 296 ;
297 [label="gini = 0.0\nsamples = 2\nvalue = [2, 0, 0, 0]"] ;
296 -> 297 ;
298 [label="X[8] <= 4.128\ngini = 0.163\nsamples = 17\nvalue = [1, 1, 0, 21]"] ;
296 -> 298 ;
299 [label="gini = 0.0\nsamples = 12\nvalue = [0, 0, 0, 17]"] ;
298 -> 299 ;
300 [label="X[6] <= 2.179\ngini = 0.5\nsamples = 5\nvalue = [1, 1, 0, 4]"] ;
298 -> 300 ;
301 [label="gini = 0.0\nsamples = 1\nvalue = [0, 1, 0, 0]"] ;
300 -> 301 ;
302 [label="X[3] <= 2.495\ngini = 0.32\nsamples = 4\nvalue = [1, 0, 0, 4]"] ;
300 -> 302 ;
303 [label="gini = 0.0\nsamples = 1\nvalue = [1, 0, 0, 0]"] ;
302 -> 303 ;
304 [label="gini = 0.0\nsamples = 3\nvalue = [0, 0, 0, 4]"] ;
302 -> 304 ;
305 [label="X[5] <= 3.475\ngini = 0.18\nsamples = 8\nvalue = [0, 1, 0, 9]"] ;
267 -> 305 ;
306 [label="gini = 0.0\nsamples = 7\nvalue = [0, 0, 0, 9]"] ;
305 -> 306 ;
307 [label="gini = 0.0\nsamples = 1\nvalue = [0, 1, 0, 0]"] ;
305 -> 307 ;
308 [label="X[3] <= 1.656\ngini = 0.129\nsamples = 40\nvalue = [67, 5, 0, 0]"] ;
266 -> 308 ;
309 [label="X[23] <= 0.826\ngini = 0.496\nsamples = 7\nvalue = [6, 5, 0, 0]"] ;
308 -> 309 ;
310 [label="gini = 0.0\nsamples = 4\nvalue = [6, 0, 0, 0]"] ;
309 -> 310 ;
311 [label="gini = 0.0\nsamples = 3\nvalue = [0, 5, 0, 0]"] ;
309 -> 311 ;
312 [label="gini = 0.0\nsamples = 33\nvalue = [61, 0, 0, 0]"] ;
308 -> 312 ;
313 [label="X[15] <= 1.173\ngini = 0.661\nsamples = 158\nvalue = [116, 59, 55, 14]"] ;
191 -> 313 ;
314 [label="X[7] <= 4.477\ngini = 0.547\nsamples = 83\nvalue = [68, 59, 2, 5]"] ;
313 -> 314 ;
315 [label="X[3] <= 2.777\ngini = 0.541\nsamples = 77\nvalue = [68, 49, 2, 5]"] ;
314 -> 315 ;
316 [label="X[12] <= 1.821\ngini = 0.483\nsamples = 52\nvalue = [56, 20, 2, 5]"] ;
315 -> 316 ;
317 [label="X[7] <= 4.191\ngini = 0.345\nsamples = 33\nvalue = [48, 5, 2, 5]"] ;
316 -> 317 ;
318 [label="X[9] <= 1.565\ngini = 0.3\nsamples = 32\nvalue = [48, 5, 0, 5]"] ;
317 -> 318 ;
319 [label="X[7] <= 1.895\ngini = 0.43\nsamples = 9\nvalue = [11, 5, 0, 0]"] ;
318 -> 319 ;
320 [label="X[5] <= 3.875\ngini = 0.26\nsamples = 8\nvalue = [11, 2, 0, 0]"] ;
319 -> 320 ;
321 [label="gini = 0.0\nsamples = 6\nvalue = [11, 0, 0, 0]"] ;
320 -> 321 ;
322 [label="gini = 0.0\nsamples = 2\nvalue = [0, 2, 0, 0]"] ;
320 -> 322 ;
323 [label="gini = 0.0\nsamples = 1\nvalue = [0, 3, 0, 0]"] ;
319 -> 323 ;
324 [label="X[2] <= 2.388\ngini = 0.21\nsamples = 23\nvalue = [37, 0, 0, 5]"] ;
318 -> 324 ;
325 [label="gini = 0.0\nsamples = 13\nvalue = [30, 0, 0, 0]"] ;
324 -> 325 ;
326 [label="X[14] <= 4.239\ngini = 0.486\nsamples = 10\nvalue = [7, 0, 0, 5]"] ;
324 -> 326 ;
327 [label="X[11] <= 2.788\ngini = 0.245\nsamples = 6\nvalue = [6, 0, 0, 1]"] ;
326 -> 327 ;
328 [label="gini = 0.0\nsamples = 5\nvalue = [6, 0, 0, 0]"] ;
327 -> 328 ;
329 [label="gini = 0.0\nsamples = 1\nvalue = [0, 0, 0, 1]"] ;
327 -> 329 ;
330 [label="X[21] <= 0.937\ngini = 0.32\nsamples = 4\nvalue = [1, 0, 0, 4]"] ;
326 -> 330 ;
331 [label="gini = 0.0\nsamples = 3\nvalue = [0, 0, 0, 4]"] ;
330 -> 331 ;
332 [label="gini = 0.0\nsamples = 1\nvalue = [1, 0, 0, 0]"] ;
330 -> 332 ;
333 [label="gini = 0.0\nsamples = 1\nvalue = [0, 0, 2, 0]"] ;
317 -> 333 ;
334 [label="X[14] <= 1.103\ngini = 0.454\nsamples = 19\nvalue = [8, 15, 0, 0]"] ;
316 -> 334 ;
335 [label="X[16] <= 0.668\ngini = 0.117\nsamples = 14\nvalue = [1, 15, 0, 0]"] ;
334 -> 335 ;
336 [label="gini = 0.0\nsamples = 1\nvalue = [1, 0, 0, 0]"] ;
335 -> 336 ;
337 [label="gini = 0.0\nsamples = 13\nvalue = [0, 15, 0, 0]"] ;
335 -> 337 ;
338 [label="gini = 0.0\nsamples = 5\nvalue = [7, 0, 0, 0]"] ;
334 -> 338 ;
339 [label="X[15] <= 0.748\ngini = 0.414\nsamples = 25\nvalue = [12, 29, 0, 0]"] ;
315 -> 339 ;
340 [label="X[17] <= 0.669\ngini = 0.337\nsamples = 9\nvalue = [11, 3, 0, 0]"] ;
339 -> 340 ;
341 [label="X[9] <= 1.595\ngini = 0.375\nsamples = 3\nvalue = [1, 3, 0, 0]"] ;
340 -> 341 ;
342 [label="gini = 0.0\nsamples = 2\nvalue = [0, 3, 0, 0]"] ;
341 -> 342 ;
343 [label="gini = 0.0\nsamples = 1\nvalue = [1, 0, 0, 0]"] ;
341 -> 343 ;
344 [label="gini = 0.0\nsamples = 6\nvalue = [10, 0, 0, 0]"] ;
340 -> 344 ;
345 [label="X[0] <= 2.135\ngini = 0.071\nsamples = 16\nvalue = [1, 26, 0, 0]"] ;
339 -> 345 ;
346 [label="gini = 0.0\nsamples = 14\nvalue = [0, 23, 0, 0]"] ;
345 -> 346 ;
347 [label="X[11] <= 2.943\ngini = 0.375\nsamples = 2\nvalue = [1, 3, 0, 0]"] ;
345 -> 347 ;
348 [label="gini = 0.0\nsamples = 1\nvalue = [0, 3, 0, 0]"] ;
347 -> 348 ;
349 [label="gini = 0.0\nsamples = 1\nvalue = [1, 0, 0, 0]"] ;
347 -> 349 ;
350 [label="gini = 0.0\nsamples = 6\nvalue = [0, 10, 0, 0]"] ;
314 -> 350 ;
351 [label="X[12] <= 2.06\ngini = 0.571\nsamples = 75\nvalue = [48, 0, 53, 9]"] ;
313 -> 351 ;
352 [label="X[5] <= 1.964\ngini = 0.492\nsamples = 53\nvalue = [31, 0, 52, 2]"] ;
351 -> 352 ;
353 [label="X[7] <= 1.362\ngini = 0.48\nsamples = 17\nvalue = [20, 0, 8, 2]"] ;
352 -> 353 ;
354 [label="gini = 0.0\nsamples = 3\nvalue = [0, 0, 4, 0]"] ;
353 -> 354 ;
355 [label="X[23] <= 1.706\ngini = 0.379\nsamples = 14\nvalue = [20, 0, 4, 2]"] ;
353 -> 355 ;
356 [label="X[22] <= 1.689\ngini = 0.444\nsamples = 2\nvalue = [0, 0, 1, 2]"] ;
355 -> 356 ;
357 [label="gini = 0.0\nsamples = 1\nvalue = [0, 0, 1, 0]"] ;
356 -> 357 ;
358 [label="gini = 0.0\nsamples = 1\nvalue = [0, 0, 0, 2]"] ;
356 -> 358 ;
359 [label="X[20] <= 0.689\ngini = 0.227\nsamples = 12\nvalue = [20, 0, 3, 0]"] ;
355 -> 359 ;
360 [label="gini = 0.0\nsamples = 1\nvalue = [0, 0, 1, 0]"] ;
359 -> 360 ;
361 [label="X[8] <= 2.218\ngini = 0.165\nsamples = 11\nvalue = [20, 0, 2, 0]"] ;
359 -> 361 ;
362 [label="X[15] <= 1.32\ngini = 0.32\nsamples = 6\nvalue = [8, 0, 2, 0]"] ;
361 -> 362 ;
363 [label="gini = 0.0\nsamples = 1\nvalue = [0, 0, 1, 0]"] ;
362 -> 363 ;
364 [label="X[8] <= 2.105\ngini = 0.198\nsamples = 5\nvalue = [8, 0, 1, 0]"] ;
362 -> 364 ;
365 [label="gini = 0.0\nsamples = 4\nvalue = [8, 0, 0, 0]"] ;
364 -> 365 ;
366 [label="gini = 0.0\nsamples = 1\nvalue = [0, 0, 1, 0]"] ;
364 -> 366 ;
367 [label="gini = 0.0\nsamples = 5\nvalue = [12, 0, 0, 0]"] ;
361 -> 367 ;
368 [label="X[19] <= 1.1\ngini = 0.32\nsamples = 36\nvalue = [11, 0, 44, 0]"] ;
352 -> 368 ;
369 [label="gini = 0.0\nsamples = 9\nvalue = [11, 0, 0, 0]"] ;
368 -> 369 ;
370 [label="gini = 0.0\nsamples = 27\nvalue = [0, 0, 44, 0]"] ;
368 -> 370 ;
371 [label="X[7] <= 1.986\ngini = 0.458\nsamples = 22\nvalue = [17, 0, 1, 7]"] ;
351 -> 371 ;
372 [label="gini = 0.0\nsamples = 14\nvalue = [16, 0, 0, 0]"] ;
371 -> 372 ;
373 [label="X[10] <= 2.147\ngini = 0.37\nsamples = 8\nvalue = [1, 0, 1, 7]"] ;
371 -> 373 ;
374 [label="X[5] <= 1.932\ngini = 0.219\nsamples = 7\nvalue = [0, 0, 1, 7]"] ;
373 -> 374 ;
375 [label="gini = 0.0\nsamples = 1\nvalue = [0, 0, 1, 0]"] ;
374 -> 375 ;
376 [label="gini = 0.0\nsamples = 6\nvalue = [0, 0, 0, 7]"] ;
374 -> 376 ;
377 [label="gini = 0.0\nsamples = 1\nvalue = [1, 0, 0, 0]"] ;
373 -> 377 ;
378 [label="X[13] <= 0.913\ngini = 0.539\nsamples = 182\nvalue = [81, 182, 35, 0]"] ;
76 -> 378 ;
379 [label="X[17] <= 0.947\ngini = 0.034\nsamples = 64\nvalue = [2, 113, 0, 0]"] ;
378 -> 379 ;
380 [label="gini = 0.0\nsamples = 44\nvalue = [0, 79, 0, 0]"] ;
379 -> 380 ;
381 [label="X[18] <= 0.818\ngini = 0.105\nsamples = 20\nvalue = [2, 34, 0, 0]"] ;
379 -> 381 ;
382 [label="X[12] <= 0.839\ngini = 0.346\nsamples = 4\nvalue = [2, 7, 0, 0]"] ;
381 -> 382 ;
383 [label="gini = 0.0\nsamples = 1\nvalue = [2, 0, 0, 0]"] ;
382 -> 383 ;
384 [label="gini = 0.0\nsamples = 3\nvalue = [0, 7, 0, 0]"] ;
382 -> 384 ;
385 [label="gini = 0.0\nsamples = 16\nvalue = [0, 27, 0, 0]"] ;
381 -> 385 ;
386 [label="X[16] <= 1.058\ngini = 0.635\nsamples = 118\nvalue = [79, 69, 35, 0]"] ;
378 -> 386 ;
387 [label="X[17] <= 0.797\ngini = 0.53\nsamples = 82\nvalue = [61, 62, 4, 0]"] ;
386 -> 387 ;
388 [label="X[3] <= 2.725\ngini = 0.404\nsamples = 40\nvalue = [41, 16, 0, 0]"] ;
387 -> 388 ;
389 [label="X[19] <= 0.873\ngini = 0.283\nsamples = 30\nvalue = [34, 7, 0, 0]"] ;
388 -> 389 ;
390 [label="X[18] <= 0.771\ngini = 0.457\nsamples = 13\nvalue = [11, 6, 0, 0]"] ;
389 -> 390 ;
391 [label="gini = 0.0\nsamples = 8\nvalue = [11, 0, 0, 0]"] ;
390 -> 391 ;
392 [label="gini = 0.0\nsamples = 5\nvalue = [0, 6, 0, 0]"] ;
390 -> 392 ;
393 [label="X[20] <= 0.878\ngini = 0.08\nsamples = 17\nvalue = [23, 1, 0, 0]"] ;
389 -> 393 ;
394 [label="X[0] <= 4.718\ngini = 0.444\nsamples = 3\nvalue = [2, 1, 0, 0]"] ;
393 -> 394 ;
395 [label="gini = 0.0\nsamples = 1\nvalue = [0, 1, 0, 0]"] ;
394 -> 395 ;
396 [label="gini = 0.0\nsamples = 2\nvalue = [2, 0, 0, 0]"] ;
394 -> 396 ;
397 [label="gini = 0.0\nsamples = 14\nvalue = [21, 0, 0, 0]"] ;
393 -> 397 ;
398 [label="X[0] <= 4.627\ngini = 0.492\nsamples = 10\nvalue = [7, 9, 0, 0]"] ;
388 -> 398 ;
399 [label="X[16] <= 0.769\ngini = 0.42\nsamples = 7\nvalue = [7, 3, 0, 0]"] ;
398 -> 399 ;
400 [label="gini = 0.0\nsamples = 5\nvalue = [7, 0, 0, 0]"] ;
399 -> 400 ;
401 [label="gini = 0.0\nsamples = 2\nvalue = [0, 3, 0, 0]"] ;
399 -> 401 ;
402 [label="gini = 0.0\nsamples = 3\nvalue = [0, 6, 0, 0]"] ;
398 -> 402 ;
403 [label="X[13] <= 1.088\ngini = 0.483\nsamples = 42\nvalue = [20, 46, 4, 0]"] ;
387 -> 403 ;
404 [label="X[5] <= 1.581\ngini = 0.588\nsamples = 22\nvalue = [17, 12, 4, 0]"] ;
403 -> 404 ;
405 [label="X[4] <= 1.792\ngini = 0.105\nsamples = 13\nvalue = [17, 1, 0, 0]"] ;
404 -> 405 ;
406 [label="gini = 0.0\nsamples = 12\nvalue = [17, 0, 0, 0]"] ;
405 -> 406 ;
407 [label="gini = 0.0\nsamples = 1\nvalue = [0, 1, 0, 0]"] ;
405 -> 407 ;
408 [label="X[9] <= 1.799\ngini = 0.391\nsamples = 9\nvalue = [0, 11, 4, 0]"] ;
404 -> 408 ;
409 [label="gini = 0.0\nsamples = 2\nvalue = [0, 0, 4, 0]"] ;
408 -> 409 ;
410 [label="gini = 0.0\nsamples = 7\nvalue = [0, 11, 0, 0]"] ;
408 -> 410 ;
411 [label="X[9] <= 3.207\ngini = 0.149\nsamples = 20\nvalue = [3, 34, 0, 0]"] ;
403 -> 411 ;
412 [label="gini = 0.0\nsamples = 18\nvalue = [0, 29, 0, 0]"] ;
411 -> 412 ;
413 [label="X[1] <= 2.235\ngini = 0.469\nsamples = 2\nvalue = [3, 5, 0, 0]"] ;
411 -> 413 ;
414 [label="gini = 0.0\nsamples = 1\nvalue = [0, 5, 0, 0]"] ;
413 -> 414 ;
415 [label="gini = 0.0\nsamples = 1\nvalue = [3, 0, 0, 0]"] ;
413 -> 415 ;
416 [label="X[18] <= 0.957\ngini = 0.575\nsamples = 36\nvalue = [18, 7, 31, 0]"] ;
386 -> 416 ;
417 [label="gini = 0.0\nsamples = 10\nvalue = [13, 0, 0, 0]"] ;
416 -> 417 ;
418 [label="X[14] <= 0.99\ngini = 0.44\nsamples = 26\nvalue = [5, 7, 31, 0]"] ;
416 -> 418 ;
419 [label="gini = 0.0\nsamples = 2\nvalue = [0, 4, 0, 0]"] ;
418 -> 419 ;
420 [label="X[0] <= 2.276\ngini = 0.346\nsamples = 24\nvalue = [5, 3, 31, 0]"] ;
418 -> 420 ;
421 [label="gini = 0.0\nsamples = 1\nvalue = [0, 2, 0, 0]"] ;
420 -> 421 ;
422 [label="X[10] <= 1.536\ngini = 0.279\nsamples = 23\nvalue = [5, 1, 31, 0]"] ;
420 -> 422 ;
423 [label="X[21] <= 2.306\ngini = 0.524\nsamples = 8\nvalue = [5, 1, 9, 0]"] ;
422 -> 423 ;
424 [label="gini = 0.0\nsamples = 1\nvalue = [2, 0, 0, 0]"] ;
423 -> 424 ;
425 [label="X[2] <= 2.258\ngini = 0.462\nsamples = 7\nvalue = [3, 1, 9, 0]"] ;
423 -> 425 ;
426 [label="X[9] <= 1.462\ngini = 0.198\nsamples = 4\nvalue = [0, 1, 8, 0]"] ;
425 -> 426 ;
427 [label="gini = 0.0\nsamples = 2\nvalue = [0, 0, 6, 0]"] ;
426 -> 427 ;
428 [label="X[10] <= 1.155\ngini = 0.444\nsamples = 2\nvalue = [0, 1, 2, 0]"] ;
426 -> 428 ;
429 [label="gini = 0.0\nsamples = 1\nvalue = [0, 0, 2, 0]"] ;
428 -> 429 ;
430 [label="gini = 0.0\nsamples = 1\nvalue = [0, 1, 0, 0]"] ;
428 -> 430 ;
431 [label="X[20] <= 2.456\ngini = 0.375\nsamples = 3\nvalue = [3, 0, 1, 0]"] ;
425 -> 431 ;
432 [label="gini = 0.0\nsamples = 2\nvalue = [3, 0, 0, 0]"] ;
431 -> 432 ;
433 [label="gini = 0.0\nsamples = 1\nvalue = [0, 0, 1, 0]"] ;
431 -> 433 ;
434 [label="gini = 0.0\nsamples = 15\nvalue = [0, 0, 22, 0]"] ;
422 -> 434 ;
}