digraph Tree {
node [shape=box] ;
0 [label="X[17] <= 0.5\ngini = 0.676\nsamples = 1255\nvalue = [817, 707, 116, 387]"] ;
1 [label="X[12] <= 1.209\ngini = 0.563\nsamples = 252\nvalue = [38, 148, 0, 223]"] ;
0 -> 1 [labeldistance=2.5, labelangle=45, headlabel="True"] ;
2 [label="X[2] <= 1.432\ngini = 0.117\nsamples = 28\nvalue = [3, 45, 0, 0]"] ;
1 -> 2 ;
3 [label="gini = 0.0\nsamples = 17\nvalue = [0, 32, 0, 0]"] ;
2 -> 3 ;
4 [label="X[13] <= 0.855\ngini = 0.305\nsamples = 11\nvalue = [3, 13, 0, 0]"] ;
2 -> 4 ;
5 [label="gini = 0.0\nsamples = 1\nvalue = [2, 0, 0, 0]"] ;
4 -> 5 ;
6 [label="X[12] <= 1.061\ngini = 0.133\nsamples = 10\nvalue = [1, 13, 0, 0]"] ;
4 -> 6 ;
7 [label="gini = 0.0\nsamples = 8\nvalue = [0, 12, 0, 0]"] ;
6 -> 7 ;
8 [label="X[22] <= 1.414\ngini = 0.5\nsamples = 2\nvalue = [1, 1, 0, 0]"] ;
6 -> 8 ;
9 [label="gini = 0.0\nsamples = 1\nvalue = [0, 1, 0, 0]"] ;
8 -> 9 ;
10 [label="gini = 0.0\nsamples = 1\nvalue = [1, 0, 0, 0]"] ;
8 -> 10 ;
11 [label="X[16] <= 0.484\ngini = 0.528\nsamples = 224\nvalue = [35, 103, 0, 223]"] ;
1 -> 11 ;
12 [label="X[14] <= 1.07\ngini = 0.631\nsamples = 47\nvalue = [17, 39, 0, 27]"] ;
11 -> 12 ;
13 [label="gini = 0.0\nsamples = 17\nvalue = [0, 29, 0, 0]"] ;
12 -> 13 ;
14 [label="X[20] <= 1.123\ngini = 0.617\nsamples = 30\nvalue = [17, 10, 0, 27]"] ;
12 -> 14 ;
15 [label="X[13] <= 1.167\ngini = 0.403\nsamples = 20\nvalue = [3, 6, 0, 27]"] ;
14 -> 15 ;
16 [label="gini = 0.0\nsamples = 4\nvalue = [0, 6, 0, 0]"] ;
15 -> 16 ;
17 [label="X[2] <= 3.22\ngini = 0.18\nsamples = 16\nvalue = [3, 0, 0, 27]"] ;
15 -> 17 ;
18 [label="X[20] <= 1.021\ngini = 0.48\nsamples = 3\nvalue = [3, 0, 0, 2]"] ;
17 -> 18 ;
19 [label="gini = 0.0\nsamples = 2\nvalue = [0, 0, 0, 2]"] ;
18 -> 19 ;
20 [label="gini = 0.0\nsamples = 1\nvalue = [3, 0, 0, 0]"] ;
18 -> 20 ;
21 [label="gini = 0.0\nsamples = 13\nvalue = [0, 0, 0, 25]"] ;
17 -> 21 ;
22 [label="X[3] <= 2.271\ngini = 0.346\nsamples = 10\nvalue = [14, 4, 0, 0]"] ;
14 -> 22 ;
23 [label="gini = 0.0\nsamples = 7\nvalue = [14, 0, 0, 0]"] ;
22 -> 23 ;
24 [label="gini = 0.0\nsamples = 3\nvalue = [0, 4, 0, 0]"] ;
22 -> 24 ;
25 [label="X[19] <= 0.493\ngini = 0.446\nsamples = 177\nvalue = [18, 64, 0, 196]"] ;
11 -> 25 ;
26 [label="X[3] <= 1.418\ngini = 0.248\nsamples = 92\nvalue = [7, 12, 0, 118]"] ;
25 -> 26 ;
27 [label="gini = 0.0\nsamples = 3\nvalue = [0, 5, 0, 0]"] ;
26 -> 27 ;
28 [label="X[14] <= 0.839\ngini = 0.195\nsamples = 89\nvalue = [7, 7, 0, 118]"] ;
26 -> 28 ;
29 [label="gini = 0.0\nsamples = 5\nvalue = [0, 6, 0, 0]"] ;
28 -> 29 ;
30 [label="X[2] <= 1.443\ngini = 0.12\nsamples = 84\nvalue = [7, 1, 0, 118]"] ;
28 -> 30 ;
31 [label="X[7] <= 1.819\ngini = 0.316\nsamples = 26\nvalue = [6, 1, 0, 30]"] ;
30 -> 31 ;
32 [label="X[22] <= 1.661\ngini = 0.278\nsamples = 5\nvalue = [5, 0, 0, 1]"] ;
31 -> 32 ;
33 [label="gini = 0.0\nsamples = 3\nvalue = [4, 0, 0, 0]"] ;
32 -> 33 ;
34 [label="X[23] <= 1.362\ngini = 0.5\nsamples = 2\nvalue = [1, 0, 0, 1]"] ;
32 -> 34 ;
35 [label="gini = 0.0\nsamples = 1\nvalue = [0, 0, 0, 1]"] ;
34 -> 35 ;
36 [label="gini = 0.0\nsamples = 1\nvalue = [1, 0, 0, 0]"] ;
34 -> 36 ;
37 [label="X[12] <= 3.317\ngini = 0.123\nsamples = 21\nvalue = [1, 1, 0, 29]"] ;
31 -> 37 ;
38 [label="X[17] <= 0.497\ngini = 0.064\nsamples = 20\nvalue = [1, 0, 0, 29]"] ;
37 -> 38 ;
39 [label="gini = 0.0\nsamples = 19\nvalue = [0, 0, 0, 29]"] ;
38 -> 39 ;
40 [label="gini = 0.0\nsamples = 1\nvalue = [1, 0, 0, 0]"] ;
38 -> 40 ;
41 [label="gini = 0.0\nsamples = 1\nvalue = [0, 1, 0, 0]"] ;
37 -> 41 ;
42 [label="X[7] <= 1.817\ngini = 0.022\nsamples = 58\nvalue = [1, 0, 0, 88]"] ;
30 -> 42 ;
43 [label="X[5] <= 3.694\ngini = 0.444\nsamples = 2\nvalue = [1, 0, 0, 2]"] ;
42 -> 43 ;
44 [label="gini = 0.0\nsamples = 1\nvalue = [0, 0, 0, 2]"] ;
43 -> 44 ;
45 [label="gini = 0.0\nsamples = 1\nvalue = [1, 0, 0, 0]"] ;
43 -> 45 ;
46 [label="gini = 0.0\nsamples = 56\nvalue = [0, 0, 0, 86]"] ;
42 -> 46 ;
47 [label="X[18] <= 0.729\ngini = 0.552\nsamples = 85\nvalue = [11, 52, 0, 78]"] ;
25 -> 47 ;
48 [label="X[11] <= 1.753\ngini = 0.531\nsamples = 79\nvalue = [11, 40, 0, 78]"] ;
47 -> 48 ;
49 [label="X[13] <= 1.237\ngini = 0.583\nsamples = 64\nvalue = [11, 40, 0, 52]"] ;
48 -> 49 ;
50 [label="X[20] <= 0.711\ngini = 0.153\nsamples = 6\nvalue = [11, 1, 0, 0]"] ;
49 -> 50 ;
51 [label="gini = 0.0\nsamples = 1\nvalue = [0, 1, 0, 0]"] ;
50 -> 51 ;
52 [label="gini = 0.0\nsamples = 5\nvalue = [11, 0, 0, 0]"] ;
50 -> 52 ;
53 [label="X[18] <= 0.492\ngini = 0.49\nsamples = 58\nvalue = [0, 39, 0, 52]"] ;
49 -> 53 ;
54 [label="X[6] <= 3.201\ngini = 0.403\nsamples = 42\nvalue = [0, 19, 0, 49]"] ;
53 -> 54 ;
55 [label="gini = 0.0\nsamples = 18\nvalue = [0, 0, 0, 31]"] ;
54 -> 55 ;
56 [label="X[10] <= 1.762\ngini = 0.5\nsamples = 24\nvalue = [0, 19, 0, 18]"] ;
54 -> 56 ;
57 [label="X[20] <= 0.528\ngini = 0.255\nsamples = 12\nvalue = [0, 3, 0, 17]"] ;
56 -> 57 ;
58 [label="gini = 0.0\nsamples = 10\nvalue = [0, 0, 0, 17]"] ;
57 -> 58 ;
59 [label="gini = 0.0\nsamples = 2\nvalue = [0, 3, 0, 0]"] ;
57 -> 59 ;
60 [label="X[0] <= 1.435\ngini = 0.111\nsamples = 12\nvalue = [0, 16, 0, 1]"] ;
56 -> 60 ;
61 [label="gini = 0.0\nsamples = 11\nvalue = [0, 16, 0, 0]"] ;
60 -> 61 ;
62 [label="gini = 0.0\nsamples = 1\nvalue = [0, 0, 0, 1]"] ;
60 -> 62 ;
63 [label="X[4] <= 4.257\ngini = 0.227\nsamples = 16\nvalue = [0, 20, 0, 3]"] ;
53 -> 63 ;
64 [label="gini = 0.0\nsamples = 10\nvalue = [0, 15, 0, 0]"] ;
63 -> 64 ;
65 [label="X[16] <= 0.499\ngini = 0.469\nsamples = 6\nvalue = [0, 5, 0, 3]"] ;
63 -> 65 ;
66 [label="X[10] <= 1.707\ngini = 0.375\nsamples = 4\nvalue = [0, 1, 0, 3]"] ;
65 -> 66 ;
67 [label="gini = 0.0\nsamples = 1\nvalue = [0, 1, 0, 0]"] ;
66 -> 67 ;
68 [label="gini = 0.0\nsamples = 3\nvalue = [0, 0, 0, 3]"] ;
66 -> 68 ;
69 [label="gini = 0.0\nsamples = 2\nvalue = [0, 4, 0, 0]"] ;
65 -> 69 ;
70 [label="gini = 0.0\nsamples = 15\nvalue = [0, 0, 0, 26]"] ;
48 -> 70 ;
71 [label="gini = 0.0\nsamples = 6\nvalue = [0, 12, 0, 0]"] ;
47 -> 71 ;
72 [label="X[23] <= 1.758\ngini = 0.633\nsamples = 1003\nvalue = [779, 559, 116, 164]"] ;
0 -> 72 [labeldistance=2.5, labelangle=-45, headlabel="False"] ;
73 [label="X[13] <= 0.941\ngini = 0.585\nsamples = 759\nvalue = [677, 370, 13, 164]"] ;
72 -> 73 ;
74 [label="X[17] <= 0.503\ngini = 0.185\nsamples = 98\nvalue = [16, 139, 0, 0]"] ;
73 -> 74 ;
75 [label="gini = 0.0\nsamples = 1\nvalue = [2, 0, 0, 0]"] ;
74 -> 75 ;
76 [label="X[12] <= 1.373\ngini = 0.166\nsamples = 97\nvalue = [14, 139, 0, 0]"] ;
74 -> 76 ;
77 [label="X[6] <= 1.999\ngini = 0.052\nsamples = 70\nvalue = [3, 110, 0, 0]"] ;
76 -> 77 ;
78 [label="X[0] <= 0.779\ngini = 0.18\nsamples = 13\nvalue = [2, 18, 0, 0]"] ;
77 -> 78 ;
79 [label="gini = 0.0\nsamples = 1\nvalue = [2, 0, 0, 0]"] ;
78 -> 79 ;
80 [label="gini = 0.0\nsamples = 12\nvalue = [0, 18, 0, 0]"] ;
78 -> 80 ;
81 [label="X[1] <= 1.239\ngini = 0.021\nsamples = 57\nvalue = [1, 92, 0, 0]"] ;
77 -> 81 ;
82 [label="X[10] <= 1.677\ngini = 0.278\nsamples = 5\nvalue = [1, 5, 0, 0]"] ;
81 -> 82 ;
83 [label="X[18] <= 0.605\ngini = 0.5\nsamples = 2\nvalue = [1, 1, 0, 0]"] ;
82 -> 83 ;
84 [label="gini = 0.0\nsamples = 1\nvalue = [0, 1, 0, 0]"] ;
83 -> 84 ;
85 [label="gini = 0.0\nsamples = 1\nvalue = [1, 0, 0, 0]"] ;
83 -> 85 ;
86 [label="gini = 0.0\nsamples = 3\nvalue = [0, 4, 0, 0]"] ;
82 -> 86 ;
87 [label="gini = 0.0\nsamples = 52\nvalue = [0, 87, 0, 0]"] ;
81 -> 87 ;
88 [label="X[14] <= 1.084\ngini = 0.399\nsamples = 27\nvalue = [11, 29, 0, 0]"] ;
76 -> 88 ;
89 [label="gini = 0.0\nsamples = 21\nvalue = [0, 29, 0, 0]"] ;
88 -> 89 ;
90 [label="gini = 0.0\nsamples = 6\nvalue = [11, 0, 0, 0]"] ;
88 -> 90 ;
91 [label="X[3] <= 1.451\ngini = 0.547\nsamples = 661\nvalue = [661, 231, 13, 164]"] ;
73 -> 91 ;
92 [label="X[14] <= 0.911\ngini = 0.526\nsamples = 81\nvalue = [46, 66, 1, 4]"] ;
91 -> 92 ;
93 [label="gini = 0.0\nsamples = 44\nvalue = [0, 62, 0, 0]"] ;
92 -> 93 ;
94 [label="X[0] <= 0.415\ngini = 0.29\nsamples = 37\nvalue = [46, 4, 1, 4]"] ;
92 -> 94 ;
95 [label="gini = 0.0\nsamples = 3\nvalue = [0, 0, 0, 4]"] ;
94 -> 95 ;
96 [label="X[11] <= 1.598\ngini = 0.18\nsamples = 34\nvalue = [46, 4, 1, 0]"] ;
94 -> 96 ;
97 [label="X[19] <= 0.745\ngini = 0.444\nsamples = 3\nvalue = [1, 2, 0, 0]"] ;
96 -> 97 ;
98 [label="gini = 0.0\nsamples = 2\nvalue = [0, 2, 0, 0]"] ;
97 -> 98 ;
99 [label="gini = 0.0\nsamples = 1\nvalue = [1, 0, 0, 0]"] ;
97 -> 99 ;
100 [label="X[0] <= 2.926\ngini = 0.119\nsamples = 31\nvalue = [45, 2, 1, 0]"] ;
96 -> 100 ;
101 [label="X[5] <= 1.303\ngini = 0.081\nsamples = 30\nvalue = [45, 2, 0, 0]"] ;
100 -> 101 ;
102 [label="X[1] <= 0.602\ngini = 0.375\nsamples = 2\nvalue = [3, 1, 0, 0]"] ;
101 -> 102 ;
103 [label="gini = 0.0\nsamples = 1\nvalue = [3, 0, 0, 0]"] ;
102 -> 103 ;
104 [label="gini = 0.0\nsamples = 1\nvalue = [0, 1, 0, 0]"] ;
102 -> 104 ;
105 [label="X[17] <= 0.877\ngini = 0.045\nsamples = 28\nvalue = [42, 1, 0, 0]"] ;
101 -> 105 ;
106 [label="gini = 0.0\nsamples = 23\nvalue = [35, 0, 0, 0]"] ;
105 -> 106 ;
107 [label="X[14] <= 2.975\ngini = 0.219\nsamples = 5\nvalue = [7, 1, 0, 0]"] ;
105 -> 107 ;
108 [label="gini = 0.0\nsamples = 1\nvalue = [0, 1, 0, 0]"] ;
107 -> 108 ;
109 [label="gini = 0.0\nsamples = 4\nvalue = [7, 0, 0, 0]"] ;
107 -> 109 ;
110 [label="gini = 0.0\nsamples = 1\nvalue = [0, 0, 1, 0]"] ;
100 -> 110 ;
111 [label="X[18] <= 0.505\ngini = 0.524\nsamples = 580\nvalue = [615, 165, 12, 160]"] ;
91 -> 111 ;
112 [label="X[8] <= 2.1\ngini = 0.335\nsamples = 71\nvalue = [24, 1, 0, 94]"] ;
111 -> 112 ;
113 [label="X[16] <= 1.579\ngini = 0.117\nsamples = 8\nvalue = [15, 0, 0, 1]"] ;
112 -> 113 ;
114 [label="gini = 0.0\nsamples = 7\nvalue = [15, 0, 0, 0]"] ;
113 -> 114 ;
115 [label="gini = 0.0\nsamples = 1\nvalue = [0, 0, 0, 1]"] ;
113 -> 115 ;
116 [label="X[19] <= 0.867\ngini = 0.177\nsamples = 63\nvalue = [9, 1, 0, 93]"] ;
112 -> 116 ;
117 [label="X[5] <= 1.856\ngini = 0.098\nsamples = 60\nvalue = [5, 0, 0, 92]"] ;
116 -> 117 ;
118 [label="X[15] <= 1.402\ngini = 0.459\nsamples = 10\nvalue = [5, 0, 0, 9]"] ;
117 -> 118 ;
119 [label="X[3] <= 3.294\ngini = 0.494\nsamples = 7\nvalue = [5, 0, 0, 4]"] ;
118 -> 119 ;
120 [label="gini = 0.0\nsamples = 4\nvalue = [0, 0, 0, 4]"] ;
119 -> 120 ;
121 [label="gini = 0.0\nsamples = 3\nvalue = [5, 0, 0, 0]"] ;
119 -> 121 ;
122 [label="gini = 0.0\nsamples = 3\nvalue = [0, 0, 0, 5]"] ;
118 -> 122 ;
123 [label="gini = 0.0\nsamples = 50\nvalue = [0, 0, 0, 83]"] ;
117 -> 123 ;
124 [label="X[22] <= 0.895\ngini = 0.5\nsamples = 3\nvalue = [4, 1, 0, 1]"] ;
116 -> 124 ;
125 [label="gini = 0.0\nsamples = 1\nvalue = [4, 0, 0, 0]"] ;
124 -> 125 ;
126 [label="X[9] <= 2.465\ngini = 0.5\nsamples = 2\nvalue = [0, 1, 0, 1]"] ;
124 -> 126 ;
127 [label="gini = 0.0\nsamples = 1\nvalue = [0, 0, 0, 1]"] ;
126 -> 127 ;
128 [label="gini = 0.0\nsamples = 1\nvalue = [0, 1, 0, 0]"] ;
126 -> 128 ;
129 [label="X[14] <= 0.898\ngini = 0.451\nsamples = 509\nvalue = [591, 164, 12, 66]"] ;
111 -> 129 ;
130 [label="X[14] <= 0.798\ngini = 0.145\nsamples = 74\nvalue = [8, 119, 0, 2]"] ;
129 -> 130 ;
131 [label="gini = 0.0\nsamples = 36\nvalue = [0, 67, 0, 0]"] ;
130 -> 131 ;
132 [label="X[11] <= 0.995\ngini = 0.279\nsamples = 38\nvalue = [8, 52, 0, 2]"] ;
130 -> 132 ;
133 [label="X[7] <= 1.003\ngini = 0.444\nsamples = 4\nvalue = [4, 2, 0, 0]"] ;
132 -> 133 ;
134 [label="gini = 0.0\nsamples = 2\nvalue = [0, 2, 0, 0]"] ;
133 -> 134 ;
135 [label="gini = 0.0\nsamples = 2\nvalue = [4, 0, 0, 0]"] ;
133 -> 135 ;
136 [label="X[19] <= 0.454\ngini = 0.196\nsamples = 34\nvalue = [4, 50, 0, 2]"] ;
132 -> 136 ;
137 [label="gini = 0.0\nsamples = 1\nvalue = [0, 0, 0, 1]"] ;
136 -> 137 ;
138 [label="X[5] <= 2.671\ngini = 0.168\nsamples = 33\nvalue = [4, 50, 0, 1]"] ;
136 -> 138 ;
139 [label="X[5] <= 2.635\ngini = 0.26\nsamples = 16\nvalue = [4, 22, 0, 0]"] ;
138 -> 139 ;
140 [label="X[10] <= 3.457\ngini = 0.211\nsamples = 15\nvalue = [3, 22, 0, 0]"] ;
139 -> 140 ;
141 [label="X[15] <= 0.637\ngini = 0.1\nsamples = 11\nvalue = [1, 18, 0, 0]"] ;
140 -> 141 ;
142 [label="gini = 0.0\nsamples = 1\nvalue = [1, 0, 0, 0]"] ;
141 -> 142 ;
143 [label="gini = 0.0\nsamples = 10\nvalue = [0, 18, 0, 0]"] ;
141 -> 143 ;
144 [label="X[10] <= 3.98\ngini = 0.444\nsamples = 4\nvalue = [2, 4, 0, 0]"] ;
140 -> 144 ;
145 [label="gini = 0.0\nsamples = 1\nvalue = [2, 0, 0, 0]"] ;
144 -> 145 ;
146 [label="gini = 0.0\nsamples = 3\nvalue = [0, 4, 0, 0]"] ;
144 -> 146 ;
147 [label="gini = 0.0\nsamples = 1\nvalue = [1, 0, 0, 0]"] ;
139 -> 147 ;
148 [label="X[14] <= 0.885\ngini = 0.067\nsamples = 17\nvalue = [0, 28, 0, 1]"] ;
138 -> 148 ;
149 [label="gini = 0.0\nsamples = 14\nvalue = [0, 26, 0, 0]"] ;
148 -> 149 ;
150 [label="X[15] <= 0.736\ngini = 0.444\nsamples = 3\nvalue = [0, 2, 0, 1]"] ;
148 -> 150 ;
151 [label="gini = 0.0\nsamples = 1\nvalue = [0, 0, 0, 1]"] ;
150 -> 151 ;
152 [label="gini = 0.0\nsamples = 2\nvalue = [0, 2, 0, 0]"] ;
150 -> 152 ;
153 [label="X[12] <= 0.926\ngini = 0.302\nsamples = 435\nvalue = [583, 45, 12, 64]"] ;
129 -> 153 ;
154 [label="X[21] <= 1.269\ngini = 0.434\nsamples = 15\nvalue = [7, 15, 0, 0]"] ;
153 -> 154 ;
155 [label="gini = 0.0\nsamples = 1\nvalue = [2, 0, 0, 0]"] ;
154 -> 155 ;
156 [label="X[10] <= 0.924\ngini = 0.375\nsamples = 14\nvalue = [5, 15, 0, 0]"] ;
154 -> 156 ;
157 [label="X[23] <= 1.38\ngini = 0.231\nsamples = 11\nvalue = [2, 13, 0, 0]"] ;
156 -> 157 ;
158 [label="X[21] <= 1.385\ngini = 0.133\nsamples = 10\nvalue = [1, 13, 0, 0]"] ;
157 -> 158 ;
159 [label="X[19] <= 0.561\ngini = 0.32\nsamples = 3\nvalue = [1, 4, 0, 0]"] ;
158 -> 159 ;
160 [label="gini = 0.0\nsamples = 1\nvalue = [1, 0, 0, 0]"] ;
159 -> 160 ;
161 [label="gini = 0.0\nsamples = 2\nvalue = [0, 4, 0, 0]"] ;
159 -> 161 ;
162 [label="gini = 0.0\nsamples = 7\nvalue = [0, 9, 0, 0]"] ;
158 -> 162 ;
163 [label="gini = 0.0\nsamples = 1\nvalue = [1, 0, 0, 0]"] ;
157 -> 163 ;
164 [label="X[0] <= 1.216\ngini = 0.48\nsamples = 3\nvalue = [3, 2, 0, 0]"] ;
156 -> 164 ;
165 [label="X[12] <= 0.922\ngini = 0.444\nsamples = 2\nvalue = [1, 2, 0, 0]"] ;
164 -> 165 ;
166 [label="gini = 0.0\nsamples = 1\nvalue = [0, 2, 0, 0]"] ;
165 -> 166 ;
167 [label="gini = 0.0\nsamples = 1\nvalue = [1, 0, 0, 0]"] ;
165 -> 167 ;
168 [label="gini = 0.0\nsamples = 1\nvalue = [2, 0, 0, 0]"] ;
164 -> 168 ;
169 [label="X[17] <= 0.961\ngini = 0.276\nsamples = 420\nvalue = [576, 30, 12, 64]"] ;
153 -> 169 ;
170 [label="X[16] <= 2.668\ngini = 0.194\nsamples = 384\nvalue = [566, 24, 0, 43]"] ;
169 -> 170 ;
171 [label="X[1] <= 4.941\ngini = 0.183\nsamples = 381\nvalue = [566, 24, 0, 38]"] ;
170 -> 171 ;
172 [label="X[22] <= 0.736\ngini = 0.14\nsamples = 299\nvalue = [448, 21, 0, 15]"] ;
171 -> 172 ;
173 [label="X[14] <= 1.044\ngini = 0.26\nsamples = 54\nvalue = [74, 11, 0, 2]"] ;
172 -> 173 ;
174 [label="gini = 0.0\nsamples = 6\nvalue = [0, 11, 0, 0]"] ;
173 -> 174 ;
175 [label="X[19] <= 0.505\ngini = 0.051\nsamples = 48\nvalue = [74, 0, 0, 2]"] ;
173 -> 175 ;
176 [label="gini = 0.208\nsamples = 10\nvalue = [15, 0, 0, 2]"] ;
175 -> 176 ;
177 [label="gini = 0.0\nsamples = 38\nvalue = [59, 0, 0, 0]"] ;
175 -> 177 ;
178 [label="X[7] <= 0.954\ngini = 0.111\nsamples = 245\nvalue = [374, 10, 0, 13]"] ;
172 -> 178 ;
179 [label="X[9] <= 0.895\ngini = 0.5\nsamples = 2\nvalue = [1, 1, 0, 0]"] ;
178 -> 179 ;
180 [label="gini = 0.0\nsamples = 1\nvalue = [1, 0, 0, 0]"] ;
179 -> 180 ;
181 [label="gini = 0.0\nsamples = 1\nvalue = [0, 1, 0, 0]"] ;
179 -> 181 ;
182 [label="X[5] <= 4.333\ngini = 0.107\nsamples = 243\nvalue = [373, 9, 0, 13]"] ;
178 -> 182 ;
183 [label="gini = 0.072\nsamples = 187\nvalue = [286, 9, 0, 2]"] ;
182 -> 183 ;
184 [label="gini = 0.199\nsamples = 56\nvalue = [87, 0, 0, 11]"] ;
182 -> 184 ;
185 [label="X[11] <= 2.662\ngini = 0.303\nsamples = 82\nvalue = [118, 3, 0, 23]"] ;
171 -> 185 ;
186 [label="X[10] <= 2.053\ngini = 0.172\nsamples = 62\nvalue = [98, 3, 0, 7]"] ;
185 -> 186 ;
187 [label="X[10] <= 2.049\ngini = 0.321\nsamples = 29\nvalue = [43, 3, 0, 7]"] ;
186 -> 187 ;
188 [label="gini = 0.192\nsamples = 28\nvalue = [43, 3, 0, 2]"] ;
187 -> 188 ;
189 [label="gini = 0.0\nsamples = 1\nvalue = [0, 0, 0, 5]"] ;
187 -> 189 ;
190 [label="gini = 0.0\nsamples = 33\nvalue = [55, 0, 0, 0]"] ;
186 -> 190 ;
191 [label="X[7] <= 2.16\ngini = 0.494\nsamples = 20\nvalue = [20, 0, 0, 16]"] ;
185 -> 191 ;
192 [label="gini = 0.0\nsamples = 3\nvalue = [0, 0, 0, 7]"] ;
191 -> 192 ;
193 [label="X[5] <= 4.132\ngini = 0.428\nsamples = 17\nvalue = [20, 0, 0, 9]"] ;
191 -> 193 ;
194 [label="gini = 0.355\nsamples = 15\nvalue = [20, 0, 0, 6]"] ;
193 -> 194 ;
195 [label="gini = 0.0\nsamples = 2\nvalue = [0, 0, 0, 3]"] ;
193 -> 195 ;
196 [label="gini = 0.0\nsamples = 3\nvalue = [0, 0, 0, 5]"] ;
170 -> 196 ;
197 [label="X[5] <= 1.992\ngini = 0.7\nsamples = 36\nvalue = [10, 6, 12, 21]"] ;
169 -> 197 ;
198 [label="X[11] <= 1.971\ngini = 0.591\nsamples = 27\nvalue = [10, 0, 7, 21]"] ;
197 -> 198 ;
199 [label="X[8] <= 2.175\ngini = 0.463\nsamples = 8\nvalue = [7, 0, 4, 0]"] ;
198 -> 199 ;
200 [label="X[15] <= 1.472\ngini = 0.444\nsamples = 5\nvalue = [2, 0, 4, 0]"] ;
199 -> 200 ;
201 [label="gini = 0.0\nsamples = 2\nvalue = [2, 0, 0, 0]"] ;
200 -> 201 ;
202 [label="gini = 0.0\nsamples = 3\nvalue = [0, 0, 4, 0]"] ;
200 -> 202 ;
203 [label="gini = 0.0\nsamples = 3\nvalue = [5, 0, 0, 0]"] ;
199 -> 203 ;
204 [label="X[21] <= 1.65\ngini = 0.37\nsamples = 19\nvalue = [3, 0, 3, 21]"] ;
198 -> 204 ;
205 [label="X[0] <= 1.561\ngini = 0.133\nsamples = 10\nvalue = [1, 0, 0, 13]"] ;
204 -> 205 ;
206 [label="X[1] <= 1.868\ngini = 0.5\nsamples = 2\nvalue = [1, 0, 0, 1]"] ;
205 -> 206 ;
207 [label="gini = 0.0\nsamples = 1\nvalue = [1, 0, 0, 0]"] ;
206 -> 207 ;
208 [label="gini = 0.0\nsamples = 1\nvalue = [0, 0, 0, 1]"] ;
206 -> 208 ;
209 [label="gini = 0.0\nsamples = 8\nvalue = [0, 0, 0, 12]"] ;
205 -> 209 ;
210 [label="X[0] <= 1.628\ngini = 0.544\nsamples = 9\nvalue = [2, 0, 3, 8]"] ;
204 -> 210 ;
211 [label="gini = 0.0\nsamples = 1\nvalue = [0, 0, 3, 0]"] ;
210 -> 211 ;
212 [label="X[20] <= 0.775\ngini = 0.32\nsamples = 8\nvalue = [2, 0, 0, 8]"] ;
210 -> 212 ;
213 [label="gini = 0.0\nsamples = 6\nvalue = [0, 0, 0, 8]"] ;
212 -> 213 ;
214 [label="gini = 0.0\nsamples = 2\nvalue = [2, 0, 0, 0]"] ;
212 -> 214 ;
215 [label="X[2] <= 2.419\ngini = 0.496\nsamples = 9\nvalue = [0, 6, 5, 0]"] ;
197 -> 215 ;
216 [label="gini = 0.0\nsamples = 4\nvalue = [0, 0, 4, 0]"] ;
215 -> 216 ;
217 [label="X[16] <= 1.318\ngini = 0.245\nsamples = 5\nvalue = [0, 6, 1, 0]"] ;
215 -> 217 ;
218 [label="gini = 0.0\nsamples = 4\nvalue = [0, 6, 0, 0]"] ;
217 -> 218 ;
219 [label="gini = 0.0\nsamples = 1\nvalue = [0, 0, 1, 0]"] ;
217 -> 219 ;
220 [label="X[13] <= 0.94\ngini = 0.635\nsamples = 244\nvalue = [102, 189, 103, 0]"] ;
72 -> 220 ;
221 [label="X[1] <= 2.708\ngini = 0.097\nsamples = 87\nvalue = [5, 132, 2, 0]"] ;
220 -> 221 ;
222 [label="X[6] <= 1.293\ngini = 0.048\nsamples = 75\nvalue = [1, 119, 2, 0]"] ;
221 -> 222 ;
223 [label="X[13] <= 0.891\ngini = 0.148\nsamples = 23\nvalue = [1, 35, 2, 0]"] ;
222 -> 223 ;
224 [label="gini = 0.0\nsamples = 20\nvalue = [0, 33, 0, 0]"] ;
223 -> 224 ;
225 [label="X[17] <= 1.045\ngini = 0.64\nsamples = 3\nvalue = [1, 2, 2, 0]"] ;
223 -> 225 ;
226 [label="gini = 0.0\nsamples = 1\nvalue = [0, 0, 2, 0]"] ;
225 -> 226 ;
227 [label="X[21] <= 4.171\ngini = 0.444\nsamples = 2\nvalue = [1, 2, 0, 0]"] ;
225 -> 227 ;
228 [label="gini = 0.0\nsamples = 1\nvalue = [1, 0, 0, 0]"] ;
227 -> 228 ;
229 [label="gini = 0.0\nsamples = 1\nvalue = [0, 2, 0, 0]"] ;
227 -> 229 ;
230 [label="gini = 0.0\nsamples = 52\nvalue = [0, 84, 0, 0]"] ;
222 -> 230 ;
231 [label="X[5] <= 1.609\ngini = 0.36\nsamples = 12\nvalue = [4, 13, 0, 0]"] ;
221 -> 231 ;
232 [label="X[1] <= 2.772\ngini = 0.48\nsamples = 3\nvalue = [3, 2, 0, 0]"] ;
231 -> 232 ;
233 [label="gini = 0.0\nsamples = 2\nvalue = [3, 0, 0, 0]"] ;
232 -> 233 ;
234 [label="gini = 0.0\nsamples = 1\nvalue = [0, 2, 0, 0]"] ;
232 -> 234 ;
235 [label="X[5] <= 4.128\ngini = 0.153\nsamples = 9\nvalue = [1, 11, 0, 0]"] ;
231 -> 235 ;
236 [label="gini = 0.0\nsamples = 6\nvalue = [0, 8, 0, 0]"] ;
235 -> 236 ;
237 [label="X[11] <= 2.979\ngini = 0.375\nsamples = 3\nvalue = [1, 3, 0, 0]"] ;
235 -> 237 ;
238 [label="gini = 0.0\nsamples = 2\nvalue = [0, 3, 0, 0]"] ;
237 -> 238 ;
239 [label="gini = 0.0\nsamples = 1\nvalue = [1, 0, 0, 0]"] ;
237 -> 239 ;
240 [label="X[18] <= 1.139\ngini = 0.648\nsamples = 157\nvalue = [97, 57, 101, 0]"] ;
220 -> 240 ;
241 [label="X[22] <= 0.921\ngini = 0.474\nsamples = 67\nvalue = [69, 37, 2, 0]"] ;
240 -> 241 ;
242 [label="X[18] <= 0.666\ngini = 0.172\nsamples = 12\nvalue = [2, 19, 0, 0]"] ;
241 -> 242 ;
243 [label="X[13] <= 0.977\ngini = 0.5\nsamples = 2\nvalue = [2, 2, 0, 0]"] ;
242 -> 243 ;
244 [label="gini = 0.0\nsamples = 1\nvalue = [0, 2, 0, 0]"] ;
243 -> 244 ;
245 [label="gini = 0.0\nsamples = 1\nvalue = [2, 0, 0, 0]"] ;
243 -> 245 ;
246 [label="gini = 0.0\nsamples = 10\nvalue = [0, 17, 0, 0]"] ;
242 -> 246 ;
247 [label="X[8] <= 1.337\ngini = 0.364\nsamples = 55\nvalue = [67, 18, 2, 0]"] ;
241 -> 247 ;
248 [label="X[13] <= 2.996\ngini = 0.375\nsamples = 3\nvalue = [0, 3, 1, 0]"] ;
247 -> 248 ;
249 [label="gini = 0.0\nsamples = 1\nvalue = [0, 0, 1, 0]"] ;
248 -> 249 ;
250 [label="gini = 0.0\nsamples = 2\nvalue = [0, 3, 0, 0]"] ;
248 -> 250 ;
251 [label="X[1] <= 2.397\ngini = 0.316\nsamples = 52\nvalue = [67, 15, 1, 0]"] ;
247 -> 251 ;
252 [label="X[12] <= 1.3\ngini = 0.49\nsamples = 24\nvalue = [20, 11, 1, 0]"] ;
251 -> 252 ;
253 [label="gini = 0.0\nsamples = 11\nvalue = [15, 0, 0, 0]"] ;
252 -> 253 ;
254 [label="X[5] <= 2.931\ngini = 0.491\nsamples = 13\nvalue = [5, 11, 1, 0]"] ;
252 -> 254 ;
255 [label="X[2] <= 2.178\ngini = 0.56\nsamples = 5\nvalue = [3, 1, 1, 0]"] ;
254 -> 255 ;
256 [label="gini = 0.0\nsamples = 1\nvalue = [0, 1, 0, 0]"] ;
255 -> 256 ;
257 [label="X[19] <= 1.652\ngini = 0.375\nsamples = 4\nvalue = [3, 0, 1, 0]"] ;
255 -> 257 ;
258 [label="gini = 0.0\nsamples = 3\nvalue = [3, 0, 0, 0]"] ;
257 -> 258 ;
259 [label="gini = 0.0\nsamples = 1\nvalue = [0, 0, 1, 0]"] ;
257 -> 259 ;
260 [label="X[19] <= 0.721\ngini = 0.278\nsamples = 8\nvalue = [2, 10, 0, 0]"] ;
254 -> 260 ;
261 [label="gini = 0.0\nsamples = 1\nvalue = [1, 0, 0, 0]"] ;
260 -> 261 ;
262 [label="X[13] <= 3.085\ngini = 0.165\nsamples = 7\nvalue = [1, 10, 0, 0]"] ;
260 -> 262 ;
263 [label="gini = 0.0\nsamples = 5\nvalue = [0, 8, 0, 0]"] ;
262 -> 263 ;
264 [label="X[6] <= 4.024\ngini = 0.444\nsamples = 2\nvalue = [1, 2, 0, 0]"] ;
262 -> 264 ;
265 [label="gini = 0.0\nsamples = 1\nvalue = [0, 2, 0, 0]"] ;
264 -> 265 ;
266 [label="gini = 0.0\nsamples = 1\nvalue = [1, 0, 0, 0]"] ;
264 -> 266 ;
267 [label="X[18] <= 0.996\ngini = 0.145\nsamples = 28\nvalue = [47, 4, 0, 0]"] ;
251 -> 267 ;
268 [label="X[8] <= 2.847\ngini = 0.113\nsamples = 27\nvalue = [47, 3, 0, 0]"] ;
267 -> 268 ;
269 [label="X[8] <= 1.607\ngini = 0.255\nsamples = 10\nvalue = [17, 3, 0, 0]"] ;
268 -> 269 ;
270 [label="gini = 0.0\nsamples = 6\nvalue = [15, 0, 0, 0]"] ;
269 -> 270 ;
271 [label="X[14] <= 0.981\ngini = 0.48\nsamples = 4\nvalue = [2, 3, 0, 0]"] ;
269 -> 271 ;
272 [label="gini = 0.0\nsamples = 2\nvalue = [0, 3, 0, 0]"] ;
271 -> 272 ;
273 [label="gini = 0.0\nsamples = 2\nvalue = [2, 0, 0, 0]"] ;
271 -> 273 ;
274 [label="gini = 0.0\nsamples = 17\nvalue = [30, 0, 0, 0]"] ;
268 -> 274 ;
275 [label="gini = 0.0\nsamples = 1\nvalue = [0, 1, 0, 0]"] ;
267 -> 275 ;
276 [label="X[4] <= 1.504\ngini = 0.492\nsamples = 90\nvalue = [28, 20, 99, 0]"] ;
240 -> 276 ;
277 [label="X[21] <= 2.558\ngini = 0.413\nsamples = 17\nvalue = [0, 17, 7, 0]"] ;
276 -> 277 ;
278 [label="X[12] <= 3.008\ngini = 0.32\nsamples = 3\nvalue = [0, 1, 4, 0]"] ;
277 -> 278 ;
279 [label="gini = 0.0\nsamples = 2\nvalue = [0, 0, 4, 0]"] ;
278 -> 279 ;
280 [label="gini = 0.0\nsamples = 1\nvalue = [0, 1, 0, 0]"] ;
278 -> 280 ;
281 [label="X[19] <= 2.61\ngini = 0.266\nsamples = 14\nvalue = [0, 16, 3, 0]"] ;
277 -> 281 ;
282 [label="gini = 0.0\nsamples = 2\nvalue = [0, 0, 2, 0]"] ;
281 -> 282 ;
283 [label="X[11] <= 0.938\ngini = 0.111\nsamples = 12\nvalue = [0, 16, 1, 0]"] ;
281 -> 283 ;
284 [label="gini = 0.0\nsamples = 10\nvalue = [0, 15, 0, 0]"] ;
283 -> 284 ;
285 [label="X[2] <= 1.648\ngini = 0.5\nsamples = 2\nvalue = [0, 1, 1, 0]"] ;
283 -> 285 ;
286 [label="gini = 0.0\nsamples = 1\nvalue = [0, 0, 1, 0]"] ;
285 -> 286 ;
287 [label="gini = 0.0\nsamples = 1\nvalue = [0, 1, 0, 0]"] ;
285 -> 287 ;
288 [label="X[12] <= 2.002\ngini = 0.388\nsamples = 73\nvalue = [28, 3, 92, 0]"] ;
276 -> 288 ;
289 [label="X[5] <= 2.032\ngini = 0.281\nsamples = 58\nvalue = [13, 3, 82, 0]"] ;
288 -> 289 ;
290 [label="X[2] <= 2.088\ngini = 0.101\nsamples = 44\nvalue = [4, 0, 71, 0]"] ;
289 -> 290 ;
291 [label="X[19] <= 1.161\ngini = 0.346\nsamples = 13\nvalue = [4, 0, 14, 0]"] ;
290 -> 291 ;
292 [label="gini = 0.0\nsamples = 4\nvalue = [4, 0, 0, 0]"] ;
291 -> 292 ;
293 [label="gini = 0.0\nsamples = 9\nvalue = [0, 0, 14, 0]"] ;
291 -> 293 ;
294 [label="gini = 0.0\nsamples = 31\nvalue = [0, 0, 57, 0]"] ;
290 -> 294 ;
295 [label="X[16] <= 1.358\ngini = 0.601\nsamples = 14\nvalue = [9, 3, 11, 0]"] ;
289 -> 295 ;
296 [label="X[19] <= 1.151\ngini = 0.355\nsamples = 7\nvalue = [0, 3, 10, 0]"] ;
295 -> 296 ;
297 [label="gini = 0.0\nsamples = 2\nvalue = [0, 3, 0, 0]"] ;
296 -> 297 ;
298 [label="gini = 0.0\nsamples = 5\nvalue = [0, 0, 10, 0]"] ;
296 -> 298 ;
299 [label="X[23] <= 2.008\ngini = 0.18\nsamples = 7\nvalue = [9, 0, 1, 0]"] ;
295 -> 299 ;
300 [label="gini = 0.0\nsamples = 1\nvalue = [0, 0, 1, 0]"] ;
299 -> 300 ;
301 [label="gini = 0.0\nsamples = 6\nvalue = [9, 0, 0, 0]"] ;
299 -> 301 ;
302 [label="X[21] <= 2.267\ngini = 0.48\nsamples = 15\nvalue = [15, 0, 10, 0]"] ;
288 -> 302 ;
303 [label="X[4] <= 3.607\ngini = 0.375\nsamples = 11\nvalue = [15, 0, 5, 0]"] ;
302 -> 303 ;
304 [label="X[5] <= 2.103\ngini = 0.208\nsamples = 10\nvalue = [15, 0, 2, 0]"] ;
303 -> 304 ;
305 [label="gini = 0.0\nsamples = 7\nvalue = [13, 0, 0, 0]"] ;
304 -> 305 ;
306 [label="X[8] <= 1.541\ngini = 0.5\nsamples = 3\nvalue = [2, 0, 2, 0]"] ;
304 -> 306 ;
307 [label="gini = 0.0\nsamples = 2\nvalue = [2, 0, 0, 0]"] ;
306 -> 307 ;
308 [label="gini = 0.0\nsamples = 1\nvalue = [0, 0, 2, 0]"] ;
306 -> 308 ;
309 [label="gini = 0.0\nsamples = 1\nvalue = [0, 0, 3, 0]"] ;
303 -> 309 ;
310 [label="gini = 0.0\nsamples = 4\nvalue = [0, 0, 5, 0]"] ;
302 -> 310 ;
}