digraph Tree {
node [shape=box] ;
0 [label="X[13] <= 0.926\ngini = 0.661\nsamples = 1260\nvalue = [857, 716, 109, 326]"] ;
1 [label="X[15] <= 0.599\ngini = 0.142\nsamples = 183\nvalue = [22, 264, 0, 0]"] ;
0 -> 1 [labeldistance=2.5, labelangle=45, headlabel="True"] ;
2 [label="X[0] <= 1.331\ngini = 0.391\nsamples = 18\nvalue = [8, 22, 0, 0]"] ;
1 -> 2 ;
3 [label="X[2] <= 3.014\ngini = 0.32\nsamples = 3\nvalue = [4, 1, 0, 0]"] ;
2 -> 3 ;
4 [label="gini = 0.0\nsamples = 2\nvalue = [4, 0, 0, 0]"] ;
3 -> 4 ;
5 [label="gini = 0.0\nsamples = 1\nvalue = [0, 1, 0, 0]"] ;
3 -> 5 ;
6 [label="X[20] <= 1.081\ngini = 0.269\nsamples = 15\nvalue = [4, 21, 0, 0]"] ;
2 -> 6 ;
7 [label="X[4] <= 4.13\ngini = 0.159\nsamples = 13\nvalue = [2, 21, 0, 0]"] ;
6 -> 7 ;
8 [label="gini = 0.0\nsamples = 11\nvalue = [0, 19, 0, 0]"] ;
7 -> 8 ;
9 [label="X[1] <= 3.761\ngini = 0.5\nsamples = 2\nvalue = [2, 2, 0, 0]"] ;
7 -> 9 ;
10 [label="gini = 0.0\nsamples = 1\nvalue = [0, 2, 0, 0]"] ;
9 -> 10 ;
11 [label="gini = 0.0\nsamples = 1\nvalue = [2, 0, 0, 0]"] ;
9 -> 11 ;
12 [label="gini = 0.0\nsamples = 2\nvalue = [2, 0, 0, 0]"] ;
6 -> 12 ;
13 [label="X[14] <= 1.132\ngini = 0.103\nsamples = 165\nvalue = [14, 242, 0, 0]"] ;
1 -> 13 ;
14 [label="X[6] <= 1.651\ngini = 0.037\nsamples = 138\nvalue = [4, 209, 0, 0]"] ;
13 -> 14 ;
15 [label="X[13] <= 0.898\ngini = 0.098\nsamples = 37\nvalue = [3, 55, 0, 0]"] ;
14 -> 15 ;
16 [label="gini = 0.0\nsamples = 34\nvalue = [0, 53, 0, 0]"] ;
15 -> 16 ;
17 [label="X[2] <= 3.88\ngini = 0.48\nsamples = 3\nvalue = [3, 2, 0, 0]"] ;
15 -> 17 ;
18 [label="gini = 0.0\nsamples = 2\nvalue = [3, 0, 0, 0]"] ;
17 -> 18 ;
19 [label="gini = 0.0\nsamples = 1\nvalue = [0, 2, 0, 0]"] ;
17 -> 19 ;
20 [label="X[13] <= 0.88\ngini = 0.013\nsamples = 101\nvalue = [1, 154, 0, 0]"] ;
14 -> 20 ;
21 [label="gini = 0.0\nsamples = 75\nvalue = [0, 111, 0, 0]"] ;
20 -> 21 ;
22 [label="X[11] <= 0.921\ngini = 0.044\nsamples = 26\nvalue = [1, 43, 0, 0]"] ;
20 -> 22 ;
23 [label="X[14] <= 0.916\ngini = 0.245\nsamples = 5\nvalue = [1, 6, 0, 0]"] ;
22 -> 23 ;
24 [label="gini = 0.0\nsamples = 1\nvalue = [1, 0, 0, 0]"] ;
23 -> 24 ;
25 [label="gini = 0.0\nsamples = 4\nvalue = [0, 6, 0, 0]"] ;
23 -> 25 ;
26 [label="gini = 0.0\nsamples = 21\nvalue = [0, 37, 0, 0]"] ;
22 -> 26 ;
27 [label="X[19] <= 0.683\ngini = 0.357\nsamples = 27\nvalue = [10, 33, 0, 0]"] ;
13 -> 27 ;
28 [label="gini = 0.0\nsamples = 10\nvalue = [0, 15, 0, 0]"] ;
27 -> 28 ;
29 [label="X[21] <= 3.253\ngini = 0.459\nsamples = 17\nvalue = [10, 18, 0, 0]"] ;
27 -> 29 ;
30 [label="gini = 0.0\nsamples = 3\nvalue = [6, 0, 0, 0]"] ;
29 -> 30 ;
31 [label="X[20] <= 4.388\ngini = 0.298\nsamples = 14\nvalue = [4, 18, 0, 0]"] ;
29 -> 31 ;
32 [label="X[3] <= 1.617\ngini = 0.48\nsamples = 6\nvalue = [4, 6, 0, 0]"] ;
31 -> 32 ;
33 [label="gini = 0.0\nsamples = 3\nvalue = [0, 5, 0, 0]"] ;
32 -> 33 ;
34 [label="X[4] <= 1.837\ngini = 0.32\nsamples = 3\nvalue = [4, 1, 0, 0]"] ;
32 -> 34 ;
35 [label="gini = 0.0\nsamples = 2\nvalue = [4, 0, 0, 0]"] ;
34 -> 35 ;
36 [label="gini = 0.0\nsamples = 1\nvalue = [0, 1, 0, 0]"] ;
34 -> 36 ;
37 [label="gini = 0.0\nsamples = 8\nvalue = [0, 12, 0, 0]"] ;
31 -> 37 ;
38 [label="X[14] <= 0.902\ngini = 0.656\nsamples = 1077\nvalue = [835, 452, 109, 326]"] ;
0 -> 38 [labeldistance=2.5, labelangle=-45, headlabel="False"] ;
39 [label="X[18] <= 0.813\ngini = 0.18\nsamples = 213\nvalue = [24, 305, 0, 9]"] ;
38 -> 39 ;
40 [label="X[23] <= 1.935\ngini = 0.253\nsamples = 132\nvalue = [22, 186, 0, 9]"] ;
39 -> 40 ;
41 [label="X[4] <= 1.377\ngini = 0.223\nsamples = 128\nvalue = [17, 185, 0, 9]"] ;
40 -> 41 ;
42 [label="X[14] <= 0.833\ngini = 0.278\nsamples = 4\nvalue = [5, 1, 0, 0]"] ;
41 -> 42 ;
43 [label="gini = 0.0\nsamples = 3\nvalue = [5, 0, 0, 0]"] ;
42 -> 43 ;
44 [label="gini = 0.0\nsamples = 1\nvalue = [0, 1, 0, 0]"] ;
42 -> 44 ;
45 [label="X[11] <= 2.171\ngini = 0.189\nsamples = 124\nvalue = [12, 184, 0, 9]"] ;
41 -> 45 ;
46 [label="X[14] <= 0.894\ngini = 0.116\nsamples = 99\nvalue = [5, 154, 0, 5]"] ;
45 -> 46 ;
47 [label="X[1] <= 1.448\ngini = 0.095\nsamples = 98\nvalue = [3, 154, 0, 5]"] ;
46 -> 47 ;
48 [label="X[19] <= 1.19\ngini = 0.253\nsamples = 33\nvalue = [2, 42, 0, 5]"] ;
47 -> 48 ;
49 [label="X[1] <= 1.426\ngini = 0.223\nsamples = 32\nvalue = [1, 42, 0, 5]"] ;
48 -> 49 ;
50 [label="X[18] <= 0.479\ngini = 0.162\nsamples = 31\nvalue = [1, 42, 0, 3]"] ;
49 -> 50 ;
51 [label="X[0] <= 1.365\ngini = 0.408\nsamples = 5\nvalue = [0, 5, 0, 2]"] ;
50 -> 51 ;
52 [label="gini = 0.0\nsamples = 4\nvalue = [0, 5, 0, 0]"] ;
51 -> 52 ;
53 [label="gini = 0.0\nsamples = 1\nvalue = [0, 0, 0, 2]"] ;
51 -> 53 ;
54 [label="X[16] <= 0.488\ngini = 0.099\nsamples = 26\nvalue = [1, 37, 0, 1]"] ;
50 -> 54 ;
55 [label="gini = 0.0\nsamples = 1\nvalue = [1, 0, 0, 0]"] ;
54 -> 55 ;
56 [label="X[16] <= 0.498\ngini = 0.051\nsamples = 25\nvalue = [0, 37, 0, 1]"] ;
54 -> 56 ;
57 [label="X[5] <= 4.109\ngini = 0.165\nsamples = 7\nvalue = [0, 10, 0, 1]"] ;
56 -> 57 ;
58 [label="gini = 0.0\nsamples = 6\nvalue = [0, 10, 0, 0]"] ;
57 -> 58 ;
59 [label="gini = 0.0\nsamples = 1\nvalue = [0, 0, 0, 1]"] ;
57 -> 59 ;
60 [label="gini = 0.0\nsamples = 18\nvalue = [0, 27, 0, 0]"] ;
56 -> 60 ;
61 [label="gini = 0.0\nsamples = 1\nvalue = [0, 0, 0, 2]"] ;
49 -> 61 ;
62 [label="gini = 0.0\nsamples = 1\nvalue = [1, 0, 0, 0]"] ;
48 -> 62 ;
63 [label="X[10] <= 1.178\ngini = 0.018\nsamples = 65\nvalue = [1, 112, 0, 0]"] ;
47 -> 63 ;
64 [label="X[20] <= 1.029\ngini = 0.198\nsamples = 7\nvalue = [1, 8, 0, 0]"] ;
63 -> 64 ;
65 [label="gini = 0.0\nsamples = 1\nvalue = [1, 0, 0, 0]"] ;
64 -> 65 ;
66 [label="gini = 0.0\nsamples = 6\nvalue = [0, 8, 0, 0]"] ;
64 -> 66 ;
67 [label="gini = 0.0\nsamples = 58\nvalue = [0, 104, 0, 0]"] ;
63 -> 67 ;
68 [label="gini = 0.0\nsamples = 1\nvalue = [2, 0, 0, 0]"] ;
46 -> 68 ;
69 [label="X[2] <= 1.387\ngini = 0.426\nsamples = 25\nvalue = [7, 30, 0, 4]"] ;
45 -> 69 ;
70 [label="gini = 0.0\nsamples = 7\nvalue = [0, 11, 0, 0]"] ;
69 -> 70 ;
71 [label="X[0] <= 0.8\ngini = 0.527\nsamples = 18\nvalue = [7, 19, 0, 4]"] ;
69 -> 71 ;
72 [label="gini = 0.0\nsamples = 1\nvalue = [3, 0, 0, 0]"] ;
71 -> 72 ;
73 [label="X[10] <= 2.742\ngini = 0.461\nsamples = 17\nvalue = [4, 19, 0, 4]"] ;
71 -> 73 ;
74 [label="X[2] <= 2.234\ngini = 0.642\nsamples = 6\nvalue = [3, 2, 0, 4]"] ;
73 -> 74 ;
75 [label="gini = 0.0\nsamples = 1\nvalue = [0, 0, 0, 3]"] ;
74 -> 75 ;
76 [label="X[10] <= 2.737\ngini = 0.611\nsamples = 5\nvalue = [3, 2, 0, 1]"] ;
74 -> 76 ;
77 [label="X[23] <= 1.195\ngini = 0.48\nsamples = 4\nvalue = [3, 2, 0, 0]"] ;
76 -> 77 ;
78 [label="gini = 0.0\nsamples = 2\nvalue = [3, 0, 0, 0]"] ;
77 -> 78 ;
79 [label="gini = 0.0\nsamples = 2\nvalue = [0, 2, 0, 0]"] ;
77 -> 79 ;
80 [label="gini = 0.0\nsamples = 1\nvalue = [0, 0, 0, 1]"] ;
76 -> 80 ;
81 [label="X[22] <= 0.953\ngini = 0.105\nsamples = 11\nvalue = [1, 17, 0, 0]"] ;
73 -> 81 ;
82 [label="gini = 0.0\nsamples = 6\nvalue = [0, 11, 0, 0]"] ;
81 -> 82 ;
83 [label="X[4] <= 3.834\ngini = 0.245\nsamples = 5\nvalue = [1, 6, 0, 0]"] ;
81 -> 83 ;
84 [label="gini = 0.0\nsamples = 1\nvalue = [1, 0, 0, 0]"] ;
83 -> 84 ;
85 [label="gini = 0.0\nsamples = 4\nvalue = [0, 6, 0, 0]"] ;
83 -> 85 ;
86 [label="X[7] <= 2.946\ngini = 0.278\nsamples = 4\nvalue = [5, 1, 0, 0]"] ;
40 -> 86 ;
87 [label="gini = 0.0\nsamples = 1\nvalue = [0, 1, 0, 0]"] ;
86 -> 87 ;
88 [label="gini = 0.0\nsamples = 3\nvalue = [5, 0, 0, 0]"] ;
86 -> 88 ;
89 [label="X[14] <= 0.896\ngini = 0.033\nsamples = 81\nvalue = [2, 119, 0, 0]"] ;
39 -> 89 ;
90 [label="gini = 0.0\nsamples = 78\nvalue = [0, 116, 0, 0]"] ;
89 -> 90 ;
91 [label="X[11] <= 1.361\ngini = 0.48\nsamples = 3\nvalue = [2, 3, 0, 0]"] ;
89 -> 91 ;
92 [label="gini = 0.0\nsamples = 1\nvalue = [2, 0, 0, 0]"] ;
91 -> 92 ;
93 [label="gini = 0.0\nsamples = 2\nvalue = [0, 3, 0, 0]"] ;
91 -> 93 ;
94 [label="X[17] <= 0.498\ngini = 0.587\nsamples = 864\nvalue = [811, 147, 109, 317]"] ;
38 -> 94 ;
95 [label="X[15] <= 0.499\ngini = 0.231\nsamples = 129\nvalue = [10, 15, 0, 170]"] ;
94 -> 95 ;
96 [label="X[21] <= 1.351\ngini = 0.576\nsamples = 11\nvalue = [4, 11, 0, 4]"] ;
95 -> 96 ;
97 [label="X[12] <= 1.543\ngini = 0.64\nsamples = 6\nvalue = [4, 2, 0, 4]"] ;
96 -> 97 ;
98 [label="X[7] <= 2.565\ngini = 0.48\nsamples = 3\nvalue = [0, 2, 0, 3]"] ;
97 -> 98 ;
99 [label="gini = 0.0\nsamples = 2\nvalue = [0, 0, 0, 3]"] ;
98 -> 99 ;
100 [label="gini = 0.0\nsamples = 1\nvalue = [0, 2, 0, 0]"] ;
98 -> 100 ;
101 [label="X[11] <= 1.775\ngini = 0.32\nsamples = 3\nvalue = [4, 0, 0, 1]"] ;
97 -> 101 ;
102 [label="gini = 0.0\nsamples = 1\nvalue = [3, 0, 0, 0]"] ;
101 -> 102 ;
103 [label="X[10] <= 2.089\ngini = 0.5\nsamples = 2\nvalue = [1, 0, 0, 1]"] ;
101 -> 103 ;
104 [label="gini = 0.0\nsamples = 1\nvalue = [0, 0, 0, 1]"] ;
103 -> 104 ;
105 [label="gini = 0.0\nsamples = 1\nvalue = [1, 0, 0, 0]"] ;
103 -> 105 ;
106 [label="gini = 0.0\nsamples = 5\nvalue = [0, 9, 0, 0]"] ;
96 -> 106 ;
107 [label="X[14] <= 2.014\ngini = 0.109\nsamples = 118\nvalue = [6, 4, 0, 166]"] ;
95 -> 107 ;
108 [label="X[3] <= 1.445\ngini = 0.037\nsamples = 105\nvalue = [0, 3, 0, 155]"] ;
107 -> 108 ;
109 [label="gini = 0.0\nsamples = 1\nvalue = [0, 2, 0, 0]"] ;
108 -> 109 ;
110 [label="X[13] <= 1.316\ngini = 0.013\nsamples = 104\nvalue = [0, 1, 0, 155]"] ;
108 -> 110 ;
111 [label="X[12] <= 1.644\ngini = 0.5\nsamples = 2\nvalue = [0, 1, 0, 1]"] ;
110 -> 111 ;
112 [label="gini = 0.0\nsamples = 1\nvalue = [0, 0, 0, 1]"] ;
111 -> 112 ;
113 [label="gini = 0.0\nsamples = 1\nvalue = [0, 1, 0, 0]"] ;
111 -> 113 ;
114 [label="gini = 0.0\nsamples = 102\nvalue = [0, 0, 0, 154]"] ;
110 -> 114 ;
115 [label="X[5] <= 1.879\ngini = 0.512\nsamples = 13\nvalue = [6, 1, 0, 11]"] ;
107 -> 115 ;
116 [label="X[22] <= 1.278\ngini = 0.198\nsamples = 6\nvalue = [1, 0, 0, 8]"] ;
115 -> 116 ;
117 [label="gini = 0.0\nsamples = 1\nvalue = [1, 0, 0, 0]"] ;
116 -> 117 ;
118 [label="gini = 0.0\nsamples = 5\nvalue = [0, 0, 0, 8]"] ;
116 -> 118 ;
119 [label="X[8] <= 2.631\ngini = 0.568\nsamples = 7\nvalue = [5, 1, 0, 3]"] ;
115 -> 119 ;
120 [label="gini = 0.0\nsamples = 2\nvalue = [0, 0, 0, 3]"] ;
119 -> 120 ;
121 [label="X[10] <= 1.356\ngini = 0.278\nsamples = 5\nvalue = [5, 1, 0, 0]"] ;
119 -> 121 ;
122 [label="gini = 0.0\nsamples = 1\nvalue = [0, 1, 0, 0]"] ;
121 -> 122 ;
123 [label="gini = 0.0\nsamples = 4\nvalue = [5, 0, 0, 0]"] ;
121 -> 123 ;
124 [label="X[6] <= 1.283\ngini = 0.51\nsamples = 735\nvalue = [801, 132, 109, 147]"] ;
94 -> 124 ;
125 [label="X[10] <= 0.915\ngini = 0.486\nsamples = 24\nvalue = [1, 16, 28, 0]"] ;
124 -> 125 ;
126 [label="gini = 0.0\nsamples = 9\nvalue = [0, 12, 0, 0]"] ;
125 -> 126 ;
127 [label="X[15] <= 1.183\ngini = 0.264\nsamples = 15\nvalue = [1, 4, 28, 0]"] ;
125 -> 127 ;
128 [label="X[16] <= 1.179\ngini = 0.463\nsamples = 7\nvalue = [0, 4, 7, 0]"] ;
127 -> 128 ;
129 [label="gini = 0.0\nsamples = 3\nvalue = [0, 0, 4, 0]"] ;
128 -> 129 ;
130 [label="X[4] <= 3.293\ngini = 0.49\nsamples = 4\nvalue = [0, 4, 3, 0]"] ;
128 -> 130 ;
131 [label="gini = 0.0\nsamples = 3\nvalue = [0, 4, 0, 0]"] ;
130 -> 131 ;
132 [label="gini = 0.0\nsamples = 1\nvalue = [0, 0, 3, 0]"] ;
130 -> 132 ;
133 [label="X[7] <= 1.165\ngini = 0.087\nsamples = 8\nvalue = [1, 0, 21, 0]"] ;
127 -> 133 ;
134 [label="gini = 0.0\nsamples = 1\nvalue = [1, 0, 0, 0]"] ;
133 -> 134 ;
135 [label="gini = 0.0\nsamples = 7\nvalue = [0, 0, 21, 0]"] ;
133 -> 135 ;
136 [label="X[18] <= 0.513\ngini = 0.479\nsamples = 711\nvalue = [800, 116, 81, 147]"] ;
124 -> 136 ;
137 [label="X[12] <= 1.414\ngini = 0.466\nsamples = 87\nvalue = [26, 15, 0, 94]"] ;
136 -> 137 ;
138 [label="X[8] <= 4.386\ngini = 0.494\nsamples = 15\nvalue = [17, 7, 0, 2]"] ;
137 -> 138 ;
139 [label="X[9] <= 4.385\ngini = 0.188\nsamples = 12\nvalue = [17, 0, 0, 2]"] ;
138 -> 139 ;
140 [label="gini = 0.0\nsamples = 11\nvalue = [17, 0, 0, 0]"] ;
139 -> 140 ;
141 [label="gini = 0.0\nsamples = 1\nvalue = [0, 0, 0, 2]"] ;
139 -> 141 ;
142 [label="gini = 0.0\nsamples = 3\nvalue = [0, 7, 0, 0]"] ;
138 -> 142 ;
143 [label="X[10] <= 2.001\ngini = 0.275\nsamples = 72\nvalue = [9, 8, 0, 92]"] ;
137 -> 143 ;
144 [label="X[8] <= 3.842\ngini = 0.569\nsamples = 6\nvalue = [6, 5, 0, 1]"] ;
143 -> 144 ;
145 [label="X[21] <= 2.33\ngini = 0.245\nsamples = 4\nvalue = [6, 0, 0, 1]"] ;
144 -> 145 ;
146 [label="gini = 0.0\nsamples = 3\nvalue = [6, 0, 0, 0]"] ;
145 -> 146 ;
147 [label="gini = 0.0\nsamples = 1\nvalue = [0, 0, 0, 1]"] ;
145 -> 147 ;
148 [label="gini = 0.0\nsamples = 2\nvalue = [0, 5, 0, 0]"] ;
144 -> 148 ;
149 [label="X[16] <= 0.516\ngini = 0.118\nsamples = 66\nvalue = [3, 3, 0, 91]"] ;
143 -> 149 ;
150 [label="X[14] <= 0.968\ngini = 0.375\nsamples = 3\nvalue = [1, 3, 0, 0]"] ;
149 -> 150 ;
151 [label="gini = 0.0\nsamples = 1\nvalue = [0, 2, 0, 0]"] ;
150 -> 151 ;
152 [label="X[14] <= 0.97\ngini = 0.5\nsamples = 2\nvalue = [1, 1, 0, 0]"] ;
150 -> 152 ;
153 [label="gini = 0.0\nsamples = 1\nvalue = [1, 0, 0, 0]"] ;
152 -> 153 ;
154 [label="gini = 0.0\nsamples = 1\nvalue = [0, 1, 0, 0]"] ;
152 -> 154 ;
155 [label="X[1] <= 1.117\ngini = 0.042\nsamples = 63\nvalue = [2, 0, 0, 91]"] ;
149 -> 155 ;
156 [label="X[3] <= 2.758\ngini = 0.444\nsamples = 3\nvalue = [1, 0, 0, 2]"] ;
155 -> 156 ;
157 [label="gini = 0.0\nsamples = 1\nvalue = [1, 0, 0, 0]"] ;
156 -> 157 ;
158 [label="gini = 0.0\nsamples = 2\nvalue = [0, 0, 0, 2]"] ;
156 -> 158 ;
159 [label="X[12] <= 1.419\ngini = 0.022\nsamples = 60\nvalue = [1, 0, 0, 89]"] ;
155 -> 159 ;
160 [label="X[2] <= 1.549\ngini = 0.444\nsamples = 3\nvalue = [1, 0, 0, 2]"] ;
159 -> 160 ;
161 [label="gini = 0.0\nsamples = 2\nvalue = [0, 0, 0, 2]"] ;
160 -> 161 ;
162 [label="gini = 0.0\nsamples = 1\nvalue = [1, 0, 0, 0]"] ;
160 -> 162 ;
163 [label="gini = 0.0\nsamples = 57\nvalue = [0, 0, 0, 87]"] ;
159 -> 163 ;
164 [label="X[15] <= 1.127\ngini = 0.392\nsamples = 624\nvalue = [774, 101, 81, 53]"] ;
136 -> 164 ;
165 [label="X[13] <= 1.22\ngini = 0.304\nsamples = 388\nvalue = [534, 77, 2, 35]"] ;
164 -> 165 ;
166 [label="X[1] <= 3.011\ngini = 0.395\nsamples = 100\nvalue = [123, 44, 1, 0]"] ;
165 -> 166 ;
167 [label="X[6] <= 3.58\ngini = 0.33\nsamples = 81\nvalue = [108, 27, 1, 0]"] ;
166 -> 167 ;
168 [label="X[9] <= 1.174\ngini = 0.225\nsamples = 57\nvalue = [89, 12, 1, 0]"] ;
167 -> 168 ;
169 [label="gini = 0.0\nsamples = 3\nvalue = [0, 6, 0, 0]"] ;
168 -> 169 ;
170 [label="X[13] <= 1.134\ngini = 0.137\nsamples = 54\nvalue = [89, 6, 1, 0]"] ;
168 -> 170 ;
171 [label="X[5] <= 4.837\ngini = 0.083\nsamples = 53\nvalue = [89, 3, 1, 0]"] ;
170 -> 171 ;
172 [label="X[7] <= 1.293\ngini = 0.024\nsamples = 47\nvalue = [82, 0, 1, 0]"] ;
171 -> 172 ;
173 [label="X[19] <= 1.648\ngini = 0.444\nsamples = 2\nvalue = [2, 0, 1, 0]"] ;
172 -> 173 ;
174 [label="gini = 0.0\nsamples = 1\nvalue = [2, 0, 0, 0]"] ;
173 -> 174 ;
175 [label="gini = 0.0\nsamples = 1\nvalue = [0, 0, 1, 0]"] ;
173 -> 175 ;
176 [label="gini = 0.0\nsamples = 45\nvalue = [80, 0, 0, 0]"] ;
172 -> 176 ;
177 [label="X[10] <= 1.625\ngini = 0.42\nsamples = 6\nvalue = [7, 3, 0, 0]"] ;
171 -> 177 ;
178 [label="X[13] <= 0.937\ngini = 0.48\nsamples = 3\nvalue = [2, 3, 0, 0]"] ;
177 -> 178 ;
179 [label="gini = 0.0\nsamples = 1\nvalue = [2, 0, 0, 0]"] ;
178 -> 179 ;
180 [label="gini = 0.0\nsamples = 2\nvalue = [0, 3, 0, 0]"] ;
178 -> 180 ;
181 [label="gini = 0.0\nsamples = 3\nvalue = [5, 0, 0, 0]"] ;
177 -> 181 ;
182 [label="gini = 0.0\nsamples = 1\nvalue = [0, 3, 0, 0]"] ;
170 -> 182 ;
183 [label="X[14] <= 1.498\ngini = 0.493\nsamples = 24\nvalue = [19, 15, 0, 0]"] ;
167 -> 183 ;
184 [label="X[5] <= 3.179\ngini = 0.432\nsamples = 12\nvalue = [6, 13, 0, 0]"] ;
183 -> 184 ;
185 [label="gini = 0.0\nsamples = 3\nvalue = [4, 0, 0, 0]"] ;
184 -> 185 ;
186 [label="X[0] <= 1.275\ngini = 0.231\nsamples = 9\nvalue = [2, 13, 0, 0]"] ;
184 -> 186 ;
187 [label="gini = 0.0\nsamples = 1\nvalue = [2, 0, 0, 0]"] ;
186 -> 187 ;
188 [label="gini = 0.0\nsamples = 8\nvalue = [0, 13, 0, 0]"] ;
186 -> 188 ;
189 [label="X[17] <= 0.503\ngini = 0.231\nsamples = 12\nvalue = [13, 2, 0, 0]"] ;
183 -> 189 ;
190 [label="gini = 0.0\nsamples = 1\nvalue = [0, 2, 0, 0]"] ;
189 -> 190 ;
191 [label="gini = 0.0\nsamples = 11\nvalue = [13, 0, 0, 0]"] ;
189 -> 191 ;
192 [label="X[12] <= 1.709\ngini = 0.498\nsamples = 19\nvalue = [15, 17, 0, 0]"] ;
166 -> 192 ;
193 [label="X[23] <= 1.376\ngini = 0.435\nsamples = 16\nvalue = [8, 17, 0, 0]"] ;
192 -> 193 ;
194 [label="X[4] <= 2.781\ngini = 0.498\nsamples = 10\nvalue = [8, 9, 0, 0]"] ;
193 -> 194 ;
195 [label="X[12] <= 0.95\ngini = 0.32\nsamples = 7\nvalue = [8, 2, 0, 0]"] ;
194 -> 195 ;
196 [label="gini = 0.0\nsamples = 5\nvalue = [8, 0, 0, 0]"] ;
195 -> 196 ;
197 [label="gini = 0.0\nsamples = 2\nvalue = [0, 2, 0, 0]"] ;
195 -> 197 ;
198 [label="gini = 0.0\nsamples = 3\nvalue = [0, 7, 0, 0]"] ;
194 -> 198 ;
199 [label="gini = 0.0\nsamples = 6\nvalue = [0, 8, 0, 0]"] ;
193 -> 199 ;
200 [label="gini = 0.0\nsamples = 3\nvalue = [7, 0, 0, 0]"] ;
192 -> 200 ;
201 [label="X[15] <= 0.712\ngini = 0.257\nsamples = 288\nvalue = [411, 33, 1, 35]"] ;
165 -> 201 ;
202 [label="X[22] <= 1.35\ngini = 0.057\nsamples = 121\nvalue = [197, 6, 0, 0]"] ;
201 -> 202 ;
203 [label="X[16] <= 0.676\ngini = 0.011\nsamples = 108\nvalue = [182, 1, 0, 0]"] ;
202 -> 203 ;
204 [label="gini = 0.0\nsamples = 95\nvalue = [164, 0, 0, 0]"] ;
203 -> 204 ;
205 [label="X[21] <= 0.758\ngini = 0.1\nsamples = 13\nvalue = [18, 1, 0, 0]"] ;
203 -> 205 ;
206 [label="gini = 0.0\nsamples = 1\nvalue = [0, 1, 0, 0]"] ;
205 -> 206 ;
207 [label="gini = 0.0\nsamples = 12\nvalue = [18, 0, 0, 0]"] ;
205 -> 207 ;
208 [label="X[18] <= 0.657\ngini = 0.375\nsamples = 13\nvalue = [15, 5, 0, 0]"] ;
202 -> 208 ;
209 [label="gini = 0.0\nsamples = 4\nvalue = [0, 5, 0, 0]"] ;
208 -> 209 ;
210 [label="gini = 0.0\nsamples = 9\nvalue = [15, 0, 0, 0]"] ;
208 -> 210 ;
211 [label="X[13] <= 3.758\ngini = 0.378\nsamples = 167\nvalue = [214, 27, 1, 35]"] ;
201 -> 211 ;
212 [label="X[11] <= 1.184\ngini = 0.078\nsamples = 60\nvalue = [94, 4, 0, 0]"] ;
211 -> 212 ;
213 [label="X[17] <= 0.74\ngini = 0.42\nsamples = 6\nvalue = [7, 3, 0, 0]"] ;
212 -> 213 ;
214 [label="gini = 0.0\nsamples = 5\nvalue = [7, 0, 0, 0]"] ;
213 -> 214 ;
215 [label="gini = 0.0\nsamples = 1\nvalue = [0, 3, 0, 0]"] ;
213 -> 215 ;
216 [label="X[7] <= 4.803\ngini = 0.022\nsamples = 54\nvalue = [87, 1, 0, 0]"] ;
212 -> 216 ;
217 [label="gini = 0.0\nsamples = 52\nvalue = [86, 0, 0, 0]"] ;
216 -> 217 ;
218 [label="X[11] <= 1.451\ngini = 0.5\nsamples = 2\nvalue = [1, 1, 0, 0]"] ;
216 -> 218 ;
219 [label="gini = 0.0\nsamples = 1\nvalue = [0, 1, 0, 0]"] ;
218 -> 219 ;
220 [label="gini = 0.0\nsamples = 1\nvalue = [1, 0, 0, 0]"] ;
218 -> 220 ;
221 [label="X[19] <= 0.432\ngini = 0.496\nsamples = 107\nvalue = [120, 23, 1, 35]"] ;
211 -> 221 ;
222 [label="X[20] <= 0.387\ngini = 0.407\nsamples = 20\nvalue = [7, 1, 0, 22]"] ;
221 -> 222 ;
223 [label="gini = 0.0\nsamples = 1\nvalue = [0, 1, 0, 0]"] ;
222 -> 223 ;
224 [label="X[21] <= 0.383\ngini = 0.366\nsamples = 19\nvalue = [7, 0, 0, 22]"] ;
222 -> 224 ;
225 [label="gini = 0.0\nsamples = 1\nvalue = [1, 0, 0, 0]"] ;
224 -> 225 ;
226 [label="X[7] <= 2.145\ngini = 0.337\nsamples = 18\nvalue = [6, 0, 0, 22]"] ;
224 -> 226 ;
227 [label="X[19] <= 0.399\ngini = 0.494\nsamples = 6\nvalue = [5, 0, 0, 4]"] ;
226 -> 227 ;
228 [label="gini = 0.0\nsamples = 3\nvalue = [4, 0, 0, 0]"] ;
227 -> 228 ;
229 [label="X[8] <= 2.714\ngini = 0.32\nsamples = 3\nvalue = [1, 0, 0, 4]"] ;
227 -> 229 ;
230 [label="gini = 0.0\nsamples = 2\nvalue = [0, 0, 0, 4]"] ;
229 -> 230 ;
231 [label="gini = 0.0\nsamples = 1\nvalue = [1, 0, 0, 0]"] ;
229 -> 231 ;
232 [label="X[7] <= 3.201\ngini = 0.1\nsamples = 12\nvalue = [1, 0, 0, 18]"] ;
226 -> 232 ;
233 [label="gini = 0.0\nsamples = 8\nvalue = [0, 0, 0, 13]"] ;
232 -> 233 ;
234 [label="X[7] <= 3.201\ngini = 0.278\nsamples = 4\nvalue = [1, 0, 0, 5]"] ;
232 -> 234 ;
235 [label="gini = 0.0\nsamples = 1\nvalue = [1, 0, 0, 0]"] ;
234 -> 235 ;
236 [label="gini = 0.0\nsamples = 3\nvalue = [0, 0, 0, 5]"] ;
234 -> 236 ;
237 [label="X[7] <= 3.149\ngini = 0.395\nsamples = 87\nvalue = [113, 22, 1, 13]"] ;
221 -> 237 ;
238 [label="X[8] <= 2.53\ngini = 0.226\nsamples = 69\nvalue = [102, 14, 1, 0]"] ;
237 -> 238 ;
239 [label="X[23] <= 0.726\ngini = 0.5\nsamples = 6\nvalue = [4, 9, 1, 0]"] ;
238 -> 239 ;
240 [label="gini = 0.0\nsamples = 2\nvalue = [0, 6, 0, 0]"] ;
239 -> 240 ;
241 [label="X[1] <= 1.278\ngini = 0.594\nsamples = 4\nvalue = [4, 3, 1, 0]"] ;
239 -> 241 ;
242 [label="gini = 0.0\nsamples = 1\nvalue = [4, 0, 0, 0]"] ;
241 -> 242 ;
243 [label="X[14] <= 1.011\ngini = 0.375\nsamples = 3\nvalue = [0, 3, 1, 0]"] ;
241 -> 243 ;
244 [label="gini = 0.0\nsamples = 1\nvalue = [0, 0, 1, 0]"] ;
243 -> 244 ;
245 [label="gini = 0.0\nsamples = 2\nvalue = [0, 3, 0, 0]"] ;
243 -> 245 ;
246 [label="X[7] <= 1.388\ngini = 0.092\nsamples = 63\nvalue = [98, 5, 0, 0]"] ;
238 -> 246 ;
247 [label="X[4] <= 1.286\ngini = 0.48\nsamples = 3\nvalue = [2, 3, 0, 0]"] ;
246 -> 247 ;
248 [label="gini = 0.0\nsamples = 2\nvalue = [2, 0, 0, 0]"] ;
247 -> 248 ;
249 [label="gini = 0.0\nsamples = 1\nvalue = [0, 3, 0, 0]"] ;
247 -> 249 ;
250 [label="X[21] <= 0.508\ngini = 0.04\nsamples = 60\nvalue = [96, 2, 0, 0]"] ;
246 -> 250 ;
251 [label="X[2] <= 1.575\ngini = 0.124\nsamples = 18\nvalue = [28, 2, 0, 0]"] ;
250 -> 251 ;
252 [label="gini = 0.0\nsamples = 17\nvalue = [28, 0, 0, 0]"] ;
251 -> 252 ;
253 [label="gini = 0.0\nsamples = 1\nvalue = [0, 2, 0, 0]"] ;
251 -> 253 ;
254 [label="gini = 0.0\nsamples = 42\nvalue = [68, 0, 0, 0]"] ;
250 -> 254 ;
255 [label="X[23] <= 0.826\ngini = 0.654\nsamples = 18\nvalue = [11, 8, 0, 13]"] ;
237 -> 255 ;
256 [label="X[22] <= 0.513\ngini = 0.497\nsamples = 6\nvalue = [6, 7, 0, 0]"] ;
255 -> 256 ;
257 [label="gini = 0.0\nsamples = 3\nvalue = [6, 0, 0, 0]"] ;
256 -> 257 ;
258 [label="gini = 0.0\nsamples = 3\nvalue = [0, 7, 0, 0]"] ;
256 -> 258 ;
259 [label="X[20] <= 0.781\ngini = 0.46\nsamples = 12\nvalue = [5, 1, 0, 13]"] ;
255 -> 259 ;
260 [label="X[15] <= 0.819\ngini = 0.5\nsamples = 5\nvalue = [4, 1, 0, 1]"] ;
259 -> 260 ;
261 [label="X[10] <= 2.779\ngini = 0.32\nsamples = 4\nvalue = [4, 0, 0, 1]"] ;
260 -> 261 ;
262 [label="gini = 0.0\nsamples = 3\nvalue = [4, 0, 0, 0]"] ;
261 -> 262 ;
263 [label="gini = 0.0\nsamples = 1\nvalue = [0, 0, 0, 1]"] ;
261 -> 263 ;
264 [label="gini = 0.0\nsamples = 1\nvalue = [0, 1, 0, 0]"] ;
260 -> 264 ;
265 [label="X[3] <= 2.822\ngini = 0.142\nsamples = 7\nvalue = [1, 0, 0, 12]"] ;
259 -> 265 ;
266 [label="gini = 0.0\nsamples = 6\nvalue = [0, 0, 0, 12]"] ;
265 -> 266 ;
267 [label="gini = 0.0\nsamples = 1\nvalue = [1, 0, 0, 0]"] ;
265 -> 267 ;
268 [label="X[17] <= 1.197\ngini = 0.503\nsamples = 236\nvalue = [240, 24, 79, 18]"] ;
164 -> 268 ;
269 [label="X[17] <= 0.51\ngini = 0.213\nsamples = 128\nvalue = [164, 18, 0, 4]"] ;
268 -> 269 ;
270 [label="X[9] <= 2.372\ngini = 0.611\nsamples = 4\nvalue = [1, 2, 0, 3]"] ;
269 -> 270 ;
271 [label="gini = 0.0\nsamples = 2\nvalue = [0, 0, 0, 3]"] ;
270 -> 271 ;
272 [label="X[15] <= 3.239\ngini = 0.444\nsamples = 2\nvalue = [1, 2, 0, 0]"] ;
270 -> 272 ;
273 [label="gini = 0.0\nsamples = 1\nvalue = [0, 2, 0, 0]"] ;
272 -> 273 ;
274 [label="gini = 0.0\nsamples = 1\nvalue = [1, 0, 0, 0]"] ;
272 -> 274 ;
275 [label="X[13] <= 0.947\ngini = 0.172\nsamples = 124\nvalue = [163, 16, 0, 1]"] ;
269 -> 275 ;
276 [label="X[15] <= 1.262\ngini = 0.444\nsamples = 9\nvalue = [4, 8, 0, 0]"] ;
275 -> 276 ;
277 [label="gini = 0.0\nsamples = 3\nvalue = [3, 0, 0, 0]"] ;
276 -> 277 ;
278 [label="X[0] <= 1.221\ngini = 0.198\nsamples = 6\nvalue = [1, 8, 0, 0]"] ;
276 -> 278 ;
279 [label="X[4] <= 2.868\ngini = 0.444\nsamples = 2\nvalue = [1, 2, 0, 0]"] ;
278 -> 279 ;
280 [label="gini = 0.0\nsamples = 1\nvalue = [0, 2, 0, 0]"] ;
279 -> 280 ;
281 [label="gini = 0.0\nsamples = 1\nvalue = [1, 0, 0, 0]"] ;
279 -> 281 ;
282 [label="gini = 0.0\nsamples = 4\nvalue = [0, 6, 0, 0]"] ;
278 -> 282 ;
283 [label="X[11] <= 0.821\ngini = 0.102\nsamples = 115\nvalue = [159, 8, 0, 1]"] ;
275 -> 283 ;
284 [label="gini = 0.0\nsamples = 3\nvalue = [0, 5, 0, 0]"] ;
283 -> 284 ;
285 [label="X[23] <= 0.616\ngini = 0.048\nsamples = 112\nvalue = [159, 3, 0, 1]"] ;
283 -> 285 ;
286 [label="X[23] <= 0.608\ngini = 0.444\nsamples = 3\nvalue = [2, 1, 0, 0]"] ;
285 -> 286 ;
287 [label="gini = 0.0\nsamples = 2\nvalue = [2, 0, 0, 0]"] ;
286 -> 287 ;
288 [label="gini = 0.0\nsamples = 1\nvalue = [0, 1, 0, 0]"] ;
286 -> 288 ;
289 [label="X[14] <= 0.984\ngini = 0.037\nsamples = 109\nvalue = [157, 2, 0, 1]"] ;
285 -> 289 ;
290 [label="X[0] <= 1.478\ngini = 0.5\nsamples = 4\nvalue = [2, 2, 0, 0]"] ;
289 -> 290 ;
291 [label="gini = 0.0\nsamples = 2\nvalue = [2, 0, 0, 0]"] ;
290 -> 291 ;
292 [label="gini = 0.0\nsamples = 2\nvalue = [0, 2, 0, 0]"] ;
290 -> 292 ;
293 [label="X[2] <= 4.523\ngini = 0.013\nsamples = 105\nvalue = [155, 0, 0, 1]"] ;
289 -> 293 ;
294 [label="gini = 0.0\nsamples = 90\nvalue = [136, 0, 0, 0]"] ;
293 -> 294 ;
295 [label="X[10] <= 2.332\ngini = 0.095\nsamples = 15\nvalue = [19, 0, 0, 1]"] ;
293 -> 295 ;
296 [label="gini = 0.0\nsamples = 11\nvalue = [15, 0, 0, 0]"] ;
295 -> 296 ;
297 [label="X[16] <= 0.585\ngini = 0.32\nsamples = 4\nvalue = [4, 0, 0, 1]"] ;
295 -> 297 ;
298 [label="gini = 0.0\nsamples = 1\nvalue = [0, 0, 0, 1]"] ;
297 -> 298 ;
299 [label="gini = 0.0\nsamples = 3\nvalue = [4, 0, 0, 0]"] ;
297 -> 299 ;
300 [label="X[3] <= 2.063\ngini = 0.6\nsamples = 108\nvalue = [76, 6, 79, 14]"] ;
268 -> 300 ;
301 [label="X[3] <= 1.711\ngini = 0.503\nsamples = 54\nvalue = [58, 6, 21, 3]"] ;
300 -> 301 ;
302 [label="gini = 0.0\nsamples = 2\nvalue = [0, 6, 0, 0]"] ;
301 -> 302 ;
303 [label="X[17] <= 1.434\ngini = 0.433\nsamples = 52\nvalue = [58, 0, 21, 3]"] ;
301 -> 303 ;
304 [label="X[19] <= 1.166\ngini = 0.499\nsamples = 19\nvalue = [13, 0, 14, 0]"] ;
303 -> 304 ;
305 [label="gini = 0.0\nsamples = 8\nvalue = [13, 0, 0, 0]"] ;
304 -> 305 ;
306 [label="gini = 0.0\nsamples = 11\nvalue = [0, 0, 14, 0]"] ;
304 -> 306 ;
307 [label="X[20] <= 0.717\ngini = 0.311\nsamples = 33\nvalue = [45, 0, 7, 3]"] ;
303 -> 307 ;
308 [label="X[15] <= 1.589\ngini = 0.48\nsamples = 3\nvalue = [0, 0, 3, 2]"] ;
307 -> 308 ;
309 [label="gini = 0.0\nsamples = 1\nvalue = [0, 0, 0, 2]"] ;
308 -> 309 ;
310 [label="gini = 0.0\nsamples = 2\nvalue = [0, 0, 3, 0]"] ;
308 -> 310 ;
311 [label="X[9] <= 1.539\ngini = 0.183\nsamples = 30\nvalue = [45, 0, 4, 1]"] ;
307 -> 311 ;
312 [label="X[19] <= 1.558\ngini = 0.444\nsamples = 3\nvalue = [1, 0, 2, 0]"] ;
311 -> 312 ;
313 [label="gini = 0.0\nsamples = 1\nvalue = [1, 0, 0, 0]"] ;
312 -> 313 ;
314 [label="gini = 0.0\nsamples = 2\nvalue = [0, 0, 2, 0]"] ;
312 -> 314 ;
315 [label="X[22] <= 1.532\ngini = 0.121\nsamples = 27\nvalue = [44, 0, 2, 1]"] ;
311 -> 315 ;
316 [label="gini = 0.0\nsamples = 1\nvalue = [0, 0, 0, 1]"] ;
315 -> 316 ;
317 [label="X[9] <= 2.105\ngini = 0.083\nsamples = 26\nvalue = [44, 0, 2, 0]"] ;
315 -> 317 ;
318 [label="gini = 0.0\nsamples = 20\nvalue = [34, 0, 0, 0]"] ;
317 -> 318 ;
319 [label="X[0] <= 1.808\ngini = 0.278\nsamples = 6\nvalue = [10, 0, 2, 0]"] ;
317 -> 319 ;
320 [label="gini = 0.0\nsamples = 5\nvalue = [10, 0, 0, 0]"] ;
319 -> 320 ;
321 [label="gini = 0.0\nsamples = 1\nvalue = [0, 0, 2, 0]"] ;
319 -> 321 ;
322 [label="X[0] <= 1.603\ngini = 0.497\nsamples = 54\nvalue = [18, 0, 58, 11]"] ;
300 -> 322 ;
323 [label="X[22] <= 3.067\ngini = 0.165\nsamples = 6\nvalue = [1, 0, 0, 10]"] ;
322 -> 323 ;
324 [label="gini = 0.0\nsamples = 5\nvalue = [0, 0, 0, 10]"] ;
323 -> 324 ;
325 [label="gini = 0.0\nsamples = 1\nvalue = [1, 0, 0, 0]"] ;
323 -> 325 ;
326 [label="X[12] <= 1.1\ngini = 0.367\nsamples = 48\nvalue = [17, 0, 58, 1]"] ;
322 -> 326 ;
327 [label="gini = 0.0\nsamples = 2\nvalue = [3, 0, 0, 0]"] ;
326 -> 327 ;
328 [label="X[11] <= 1.477\ngini = 0.332\nsamples = 46\nvalue = [14, 0, 58, 1]"] ;
326 -> 328 ;
329 [label="X[19] <= 2.36\ngini = 0.408\nsamples = 5\nvalue = [5, 0, 2, 0]"] ;
328 -> 329 ;
330 [label="gini = 0.0\nsamples = 4\nvalue = [5, 0, 0, 0]"] ;
329 -> 330 ;
331 [label="gini = 0.0\nsamples = 1\nvalue = [0, 0, 2, 0]"] ;
329 -> 331 ;
332 [label="X[19] <= 1.312\ngini = 0.261\nsamples = 41\nvalue = [9, 0, 56, 1]"] ;
328 -> 332 ;
333 [label="X[18] <= 4.069\ngini = 0.486\nsamples = 9\nvalue = [8, 0, 3, 1]"] ;
332 -> 333 ;
334 [label="X[22] <= 1.881\ngini = 0.375\nsamples = 3\nvalue = [0, 0, 3, 1]"] ;
333 -> 334 ;
335 [label="gini = 0.0\nsamples = 1\nvalue = [0, 0, 0, 1]"] ;
334 -> 335 ;
336 [label="gini = 0.0\nsamples = 2\nvalue = [0, 0, 3, 0]"] ;
334 -> 336 ;
337 [label="gini = 0.0\nsamples = 6\nvalue = [8, 0, 0, 0]"] ;
333 -> 337 ;
338 [label="X[15] <= 2.131\ngini = 0.036\nsamples = 32\nvalue = [1, 0, 53, 0]"] ;
332 -> 338 ;
339 [label="gini = 0.0\nsamples = 27\nvalue = [0, 0, 45, 0]"] ;
338 -> 339 ;
340 [label="X[22] <= 2.905\ngini = 0.198\nsamples = 5\nvalue = [1, 0, 8, 0]"] ;
338 -> 340 ;
341 [label="gini = 0.0\nsamples = 4\nvalue = [0, 0, 8, 0]"] ;
340 -> 341 ;
342 [label="gini = 0.0\nsamples = 1\nvalue = [1, 0, 0, 0]"] ;
340 -> 342 ;
}